tree
version=v4
num_class=1
num_tree_per_iteration=1
label_index=0
max_feature_idx=145
objective=regression
feature_names=Column_0 Column_1 Column_2 Column_3 Column_4 Column_5 Column_6 Column_7 Column_8 Column_9 Column_10 Column_11 Column_12 Column_13 Column_14 Column_15 Column_16 Column_17 Column_18 Column_19 Column_20 Column_21 Column_22 Column_23 Column_24 Column_25 Column_26 Column_27 Column_28 Column_29 Column_30 Column_31 Column_32 Column_33 Column_34 Column_35 Column_36 Column_37 Column_38 Column_39 Column_40 Column_41 Column_42 Column_43 Column_44 Column_45 Column_46 Column_47 Column_48 Column_49 Column_50 Column_51 Column_52 Column_53 Column_54 Column_55 Column_56 Column_57 Column_58 Column_59 Column_60 Column_61 Column_62 Column_63 Column_64 Column_65 Column_66 Column_67 Column_68 Column_69 Column_70 Column_71 Column_72 Column_73 Column_74 Column_75 Column_76 Column_77 Column_78 Column_79 Column_80 Column_81 Column_82 Column_83 Column_84 Column_85 Column_86 Column_87 Column_88 Column_89 Column_90 Column_91 Column_92 Column_93 Column_94 Column_95 Column_96 Column_97 Column_98 Column_99 Column_100 Column_101 Column_102 Column_103 Column_104 Column_105 Column_106 Column_107 Column_108 Column_109 Column_110 Column_111 Column_112 Column_113 Column_114 Column_115 Column_116 Column_117 Column_118 Column_119 Column_120 Column_121 Column_122 Column_123 Column_124 Column_125 Column_126 Column_127 Column_128 Column_129 Column_130 Column_131 Column_132 Column_133 Column_134 Column_135 Column_136 Column_137 Column_138 Column_139 Column_140 Column_141 Column_142 Column_143 Column_144 Column_145
feature_infos=[0:20] [0:20] [0:20] [0:20] [0:20] [0:20] [0:20] [0:20] [0:20] [0:20] [0:20] [0:20] [0:20] [0:20] [0:20] [0:20] [0:20] [0:20] [0:20] [0:20] [0:20] [0:20] [0:20] [0:20] [0:20] [0:20] [0:20] [0:20] [0:20] [0:20] [0:20] [0:20] [0:20] [0:20] [0:20] [0:20] [0:20] [0:20] [0:20] [0:20] [0:20] [0:20] [0:20] [0:20] [0:20] [0:20] [0:20] [0:20] [0:20] [0:20] [0:20] [0:20] [0:20] [0:20] [0:20] [0:20] [0:20] [0:20] [0:20] [0:20] [0:20] [0:20] [0:20] [0:20] [0:20] [0:20] [0:20] [0:20] [0:20] [0:20] [0:20] [0:20] [0:20] [0:20] [0:20] [0:20] [0:20] [0:20] [0:20] [0:20] [0:20] [0:20] [0:20] [0:20] [0:20] [0:20] [0:20] [0:20] [0:20] [0:20] [0:20] [0:20] [0:20] [0:20] [0:20] [0:20] [0:20] [0:20] [0:20] [0:20] [0:20] [0:20] [0:20] [0:20] [0:20] [0:20] [0:20] [0:20] [0:20] [0:20] [0:20] [0:20] [0:20] [0:20] [0:20] [0:20] [0:20] [0:20] [0:20] [0:20] [0:20] [0:20] [0:20] [0:20] [0:20] [0:20] [0:20] [0:20] [0:20] [0:20] [0:20] [0:20] [0:20] [0:20] [0:20] [0:20] [0:20] [0:20] [0:20] [0:20] [0:20] [0:20] [0:20] [0:20] [0:1] [0:1]
tree_sizes=2710 2778 2799 2787 2802 2792 2797 2811 2798 2785 2789 2810 2803 2824 2810 2845 2821 2840 2828 2834 2831 2831 2841 2828 2851 2847 2855 2832 2821 2843 2830 2855 2836 2864 2860 2842 2836 2864 2856 2844 2855 2885 2834 2877 2839 2852 2825 2847 2848 2832 2862 2875 2829 2822 2885 2831 2841 2861 2870 2849 2893 2844 2824 2848 2833 2832 2823 2863 2882 2835 2846 2871 2858 2856 2825 2855 2866 2836 2845 2847 2859 2849 2886 2871 2823 2838 2863 2820 2879 2865 2859 2852 2809 2829 2867 2849 2819 2804 2852 2830

Tree=0
num_leaves=31
num_cat=0
split_feature=47 47 47 47 47 47 47 47 47 47 47 47 47 47 47 45 46 47 48 114 136 134 114 133 141 58 145 47 136 138
split_gain=226695 35521 34805.1 6367.22 5892.68 5328.31 4156.32 1197.58 841.921 826.768 826.316 796.336 726.031 686.46 485.607 261.013 228.457 152.656 137.528 134.992 101.984 77.9506 137.883 68.3889 64.7582 62.1802 71.5562 57.0022 56.3064 52.4334
threshold=8.5000000000000018 4.5000000000000009 12.500000000000002 10.500000000000002 6.5000000000000009 15.500000000000002 2.5000000000000004 13.500000000000002 11.500000000000002 18.500000000000004 7.5000000000000009 9.5000000000000018 5.5000000000000009 1.5000000000000002 3.5000000000000004 14.500000000000002 16.500000000000004 1.0000000180025095e-35 14.500000000000002 1.0000000180025095e-35 12.500000000000002 19.500000000000004 15.500000000000002 18.500000000000004 7.5000000000000009 4.5000000000000009 0.25000000000000006 16.500000000000004 3.5000000000000004 2.5000000000000004
decision_type=2 2 2 2 2 2 2 2 2 2 2 2 2 2 2 2 2 2 2 2 2 2 2 2 2 2 2 2 2 2
left_child=1 6 3 11 12 7 13 -4 -5 16 -6 -2 -3 17 -8 19 21 -1 20 -9 24 25 -23 -18 -11 26 -7 28 -27 -21
right_child=2 4 5 8 10 9 14 15 -10 18 -12 -13 -14 -15 -16 -17 23 -19 -20 29 -22 22 -24 -25 -26 27 -28 -29 -30 -31
leaf_value=7.8989417771875061 8.7788510955900101 8.3805560440120814 9.1730179445978148 8.9756448614323165 8.5780904299890537 9.4460449523315368 8.1787193054777152 9.0606417297745008 9.0770045027380011 9.6449735265700429 8.6763970251163567 8.8775834367604745 8.478968097928723 8.0847449519977523 8.2810862773499636 9.348169326085138 9.5596007291859735 7.9855904064435039 9.8095000084510389 9.1937981196122056 9.7818782850688244 9.1360449537223118 9.4826358619101221 9.4156502166972107 9.3935449565038631 9.2952840832068766 9.2454199561127073 9.5823684818484871 9.45932081400999 9.2783868494811035
leaf_weight=378 1715 1355 1518 1762 1738 40 889 31 1532 21 1683 1560 1678 625 968 599 251 440 89 79 24 24 22 38 20 23 32 34 232 1012
leaf_count=378 1715 1355 1518 1762 1738 40 889 31 1532 21 1683 1560 1678 625 968 599 251 440 89 79 24 24 22 38 20 23 32 34 232 1012
internal_value=8.74838 8.40003 9.06719 8.92462 8.53648 9.29624 8.13315 9.23776 9.02279 9.51907 8.62645 8.82588 8.435 8.00584 8.23208 9.29487 9.47268 7.94555 9.72874 9.26641 9.61816 9.4244 9.30181 9.54067 9.52233 9.44003 9.35688 9.46074 9.44453 9.27226
internal_weight=20412 9754 10658 6569 6454 4089 3300 3239 3294 850 3421 3275 3033 1443 1857 1721 696 818 154 1122 65 407 46 289 41 361 72 289 255 1091
internal_count=20412 9754 10658 6569 6454 4089 3300 3239 3294 850 3421 3275 3033 1443 1857 1721 696 818 154 1122 65 407 46 289 41 361 72 289 255 1091
is_linear=0
shrinkage=1


Tree=1
num_leaves=31
num_cat=0
split_feature=47 47 47 47 47 47 47 47 47 47 47 47 47 47 47 47 46 47 48 99 114 52 134 114 133 137 58 13 50 123
split_gain=183623 28772 28192.1 5157.45 4773.07 4315.93 3366.62 970.042 681.956 669.683 669.316 645.032 588.085 556.032 393.342 213.626 185.05 123.652 111.398 93.6932 90.9356 71.1409 63.14 111.685 55.3951 50.3886 56.1661 58.102 39.4496 48.4262
threshold=8.5000000000000018 4.5000000000000009 12.500000000000002 10.500000000000002 6.5000000000000009 15.500000000000002 2.5000000000000004 13.500000000000002 11.500000000000002 18.500000000000004 7.5000000000000009 9.5000000000000018 5.5000000000000009 1.5000000000000002 3.5000000000000004 14.500000000000002 16.500000000000004 1.0000000180025095e-35 14.500000000000002 13.500000000000002 3.5000000000000004 6.5000000000000009 19.500000000000004 15.500000000000002 18.500000000000004 2.5000000000000004 4.5000000000000009 13.500000000000002 6.5000000000000009 7.5000000000000009
decision_type=2 2 2 2 2 2 2 2 2 2 2 2 2 2 2 2 2 2 2 2 2 2 2 2 2 2 2 2 2 2
left_child=1 6 3 11 12 7 13 -4 -5 16 -6 -2 -3 17 -8 -9 22 -1 19 -11 21 -17 25 -24 28 -7 27 -27 29 -18
right_child=2 4 5 8 10 9 14 15 -10 18 -12 -13 -14 -15 -16 20 24 -19 -20 -21 -22 -23 23 -25 -26 26 -28 -29 -30 -31
leaf_value=-0.76449737391143879 0.027421012807517981 -0.3310445402865041 0.38217119293014995 0.20453540313445565 -0.15326358845373841 0.4883733153343201 -0.51269759831466077 0.46353543169126915 0.2957590858357188 0.86283913559383818 -0.064787652226197034 0.1162801211929092 -0.24247369142837549 -0.59727449356079099 -0.42056731896336413 0.51872306737032803 0.52903991878032686 -0.68651359124617151 0.95500507994314265 0.60270977616310129 0.54726505073739962 0.30200823407088007 0.34889550407727565 0.66082731376994741 0.60054022740376622 0.44043791645339558 0.65259360771845376 0.63370264870779858 0.74786766818835981 0.74403991699218752
leaf_weight=378 1715 1355 1518 1762 1738 26 889 1046 1532 45 1683 1560 1678 625 968 33 20 440 89 20 614 28 24 22 38 28 272 35 209 22
leaf_count=378 1715 1355 1518 1762 1738 26 889 1046 1532 45 1683 1560 1678 625 968 33 20 440 89 20 614 28 24 22 38 28 272 35 209 22
internal_value=-2.6804e-09 -0.313521 0.286929 0.158611 -0.190711 0.493071 -0.553709 0.440441 0.246962 0.693622 -0.109737 0.0697478 -0.282043 -0.66829 -0.464673 0.491838 0.65187 -0.72255 0.882321 0.782799 0.535696 0.419247 0.608419 0.49808 0.713061 0.622479 0.632888 0.547807 0.730096 0.641659
internal_weight=20412 9754 10658 6569 6454 4089 3300 3239 3294 850 3421 3275 3033 1443 1857 1721 696 818 154 65 675 61 407 46 289 361 335 63 251 42
internal_count=20412 9754 10658 6569 6454 4089 3300 3239 3294 850 3421 3275 3033 1443 1857 1721 696 818 154 65 675 61 407 46 289 361 335 63 251 42
is_linear=0
shrinkage=0.1


Tree=2
num_leaves=31
num_cat=0
split_feature=47 47 47 47 47 47 47 47 47 47 47 47 47 47 47 45 46 114 47 139 141 128 138 12 116 140 118 138 95 137
split_gain=148734 23305.3 22835.6 4177.53 3866.19 3495.9 2726.96 785.734 552.384 542.443 542.146 522.476 476.349 450.386 318.607 179.674 149.891 106.759 100.158 97.6925 166.585 58.1874 138.495 126.087 53.935 81.808 46.4612 42.8691 78.4238 38.7763
threshold=8.5000000000000018 4.5000000000000009 12.500000000000002 10.500000000000002 6.5000000000000009 15.500000000000002 2.5000000000000004 13.500000000000002 11.500000000000002 18.500000000000004 7.5000000000000009 9.5000000000000018 5.5000000000000009 1.5000000000000002 3.5000000000000004 14.500000000000002 16.500000000000004 1.0000000180025095e-35 1.0000000180025095e-35 8.5000000000000018 8.5000000000000018 9.5000000000000018 7.5000000000000009 10.500000000000002 4.5000000000000009 8.5000000000000018 5.5000000000000009 2.5000000000000004 12.500000000000002 6.5000000000000009
decision_type=2 2 2 2 2 2 2 2 2 2 2 2 2 2 2 2 2 2 2 2 2 2 2 2 2 2 2 2 2 2
left_child=1 6 3 11 12 7 13 -4 -5 16 -6 -2 -3 18 -8 17 21 -9 -1 20 29 -7 23 -23 25 -18 -24 28 -19 -11
right_child=2 4 5 8 10 9 14 15 -10 19 -12 -13 -14 -15 -16 -17 24 27 -20 -21 -22 22 26 -25 -26 -27 -28 -29 -30 -31
leaf_value=-0.68804759831024853 0.024678911862150921 -0.29794007341772649 0.34395407750829565 0.18408185596346316 -0.13793723116981421 0.60065849253731063 -0.46142782911540953 0.23605118528489144 0.26618316671166659 0.89401672554016121 -0.058308889397679524 0.1046521034756174 -0.2182263092414273 -0.53754706187248236 -0.37851057092943963 0.48687576907803498 0.43735365703188145 0.42109048763910933 -0.61786224858327354 0.86398405343636697 0.46995677777699063 0.54459753219897933 0.44452886119965584 0.24598749183839366 0.6624631961355818 0.68419951248168953 0.57696861356988061 0.42978352131285213 0.20686530637741091 0.70969248158591136
leaf_weight=378 1715 1355 1518 1762 1738 137 889 31 1532 25 1683 1560 1678 625 968 599 29 54 440 87 21 26 31 31 235 25 182 1012 25 21
leaf_count=378 1715 1355 1518 1762 1738 137 889 31 1532 25 1683 1560 1678 625 968 599 29 54 440 87 21 26 31 31 235 25 182 1012 25 21
internal_value=-8.49173e-10 -0.282169 0.258236 0.14275 -0.171639 0.443764 -0.498338 0.396397 0.222266 0.62426 -0.0987632 0.062773 -0.253839 -0.601461 -0.418205 0.442654 0.586683 0.419045 -0.650295 0.794089 0.703329 0.547578 0.520644 0.382196 0.641755 0.551634 0.557693 0.424245 0.353298 0.809869
internal_weight=20412 9754 10658 6569 6454 4089 3300 3239 3294 850 3421 3275 3033 1443 1857 1721 696 1122 818 154 67 407 270 57 289 54 213 1091 79 46
internal_count=20412 9754 10658 6569 6454 4089 3300 3239 3294 850 3421 3275 3033 1443 1857 1721 696 1122 818 154 67 407 270 57 289 54 213 1091 79 46
is_linear=0
shrinkage=0.1


Tree=3
num_leaves=31
num_cat=0
split_feature=47 47 47 47 47 47 47 47 47 47 47 47 47 47 47 47 46 48 47 136 114 145 131 140 58 50 135 130 0 141
split_gain=120475 18877.3 18496.9 3383.8 3131.61 2831.68 2208.84 636.445 447.431 439.379 439.138 423.205 385.843 364.813 258.071 151.351 121.411 88.4178 81.1279 76.8989 67.8279 58.9011 52.9417 138.445 49.6935 78.0412 45.8129 45.4601 169.749 45.2656
threshold=8.5000000000000018 4.5000000000000009 12.500000000000002 10.500000000000002 6.5000000000000009 15.500000000000002 2.5000000000000004 13.500000000000002 11.500000000000002 18.500000000000004 7.5000000000000009 9.5000000000000018 5.5000000000000009 1.5000000000000002 3.5000000000000004 14.500000000000002 16.500000000000004 14.500000000000002 1.0000000180025095e-35 12.500000000000002 3.5000000000000004 0.25000000000000006 19.500000000000004 10.500000000000002 4.5000000000000009 3.5000000000000004 3.5000000000000004 14.500000000000002 10.500000000000002 7.5000000000000009
decision_type=2 2 2 2 2 2 2 2 2 2 2 2 2 2 2 2 2 2 2 2 2 2 2 2 2 2 2 2 2 2
left_child=1 6 3 11 12 7 13 -4 -5 16 -6 -2 -3 18 -8 -9 22 19 -1 29 21 -17 24 -24 25 -7 -26 -18 -29 -11
right_child=2 4 5 8 10 9 14 15 -10 17 -12 -13 -14 -15 -16 20 27 -19 -20 -21 -22 -23 23 -25 26 -27 -28 28 -30 -31
leaf_value=-0.61924285737295004 0.022211020912095342 -0.26814607187940626 0.30955866887988781 0.1656736760198326 -0.12414350140972708 0.50015265712371237 -0.41528501534589363 0.37456608170191141 0.23956485368486483 0.64533880438123437 -0.052477999503458106 0.09418689325833933 -0.19640368802586172 -0.48379235141754151 -0.34065952301641145 0.46556719995357776 0.60382195705205055 0.77943455722559707 -0.55607597963376487 0.76817973554134378 0.4452963824575033 0.26093080991353745 0.20090439887273881 0.53804809882723059 0.38681263273412531 0.27547246163541622 0.53707681471817337 0.26955915462403074 0.59539448467653189 0.43512977600097663
leaf_weight=378 1715 1355 1518 1762 1738 52 889 1046 1532 21 1683 1560 1678 625 968 22 201 89 440 24 614 39 21 29 22 22 261 21 67 20
leaf_count=378 1715 1355 1518 1762 1738 52 889 1046 1532 21 1683 1560 1678 625 968 22 201 89 440 24 614 39 21 29 22 22 261 21 67 20
internal_value=2.77521e-09 -0.253952 0.232412 0.128475 -0.154476 0.399388 -0.448504 0.356757 0.20004 0.561834 -0.0888868 0.0564957 -0.228455 -0.541315 -0.376385 0.398389 0.528014 0.71468 -0.585266 0.626016 0.435305 0.334734 0.49282 0.396448 0.506317 0.433356 0.525396 0.577579 0.517638 0.542798
internal_weight=20412 9754 10658 6569 6454 4089 3300 3239 3294 850 3421 3275 3033 1443 1857 1721 696 154 818 65 675 61 407 50 357 74 283 289 88 41
internal_count=20412 9754 10658 6569 6454 4089 3300 3239 3294 850 3421 3275 3033 1443 1857 1721 696 154 818 65 675 61 407 50 357 74 283 289 88 41
is_linear=0
shrinkage=0.1


Tree=4
num_leaves=31
num_cat=0
split_feature=47 47 47 47 47 47 47 47 47 47 47 47 47 47 47 45 46 114 139 95 95 47 126 138 110 116 97 143 138 95
split_gain=97584.6 15290.6 14982.5 2740.88 2536.6 2293.66 1789.16 515.52 362.419 355.897 355.702 342.796 312.533 295.498 209.038 123.836 98.3431 83.3463 73.5178 147.817 66.0925 65.7135 44.1704 67.7656 107.717 42.4219 75.9241 37.9639 34.8902 63.152
threshold=8.5000000000000018 4.5000000000000009 12.500000000000002 10.500000000000002 6.5000000000000009 15.500000000000002 2.5000000000000004 13.500000000000002 11.500000000000002 18.500000000000004 7.5000000000000009 9.5000000000000018 5.5000000000000009 1.5000000000000002 3.5000000000000004 14.500000000000002 16.500000000000004 1.0000000180025095e-35 8.5000000000000018 15.500000000000002 9.5000000000000018 1.0000000180025095e-35 7.5000000000000009 7.5000000000000009 9.5000000000000018 4.5000000000000009 7.5000000000000009 4.5000000000000009 2.5000000000000004 12.500000000000002
decision_type=2 2 2 2 2 2 2 2 2 2 2 2 2 2 2 2 2 2 2 2 2 2 2 2 2 2 2 2 2 2
left_child=1 6 3 11 12 7 13 -4 -5 16 -6 -2 -3 21 -8 17 22 -9 19 20 -11 27 -7 24 -24 26 -18 -1 29 -19
right_child=2 4 5 8 10 9 14 15 -10 18 -12 -13 -14 -15 -16 -17 25 28 -20 -21 -22 -23 23 -25 -26 -27 -28 -29 -30 -31
leaf_value=-0.44938207944234221 0.019989918677174316 -0.24133146741293454 0.27860280532139564 0.14910630307389713 -0.11172915400617829 0.49733416497170391 -0.37375652731906445 0.17726186013990833 0.21560836415300169 0.52942279378573109 -0.047230198202002853 0.084768208154501062 -0.17676331456817235 -0.43541311810493472 -0.30659356158503814 0.39526246605014959 0.54595287164052331 0.3403739112394828 0.70384552561003588 0.33678106725215917 0.76794498150165269 -0.50046842056241903 0.47036211779623321 0.45024214784304306 0.22340411543846131 0.53818704031883413 0.30732538501421613 -0.56662346138351272 0.34854077117539678 0.14813555324077607
leaf_weight=30 1715 1355 1518 1762 1738 111 889 31 1532 21 1683 1560 1678 625 968 599 30 54 87 20 26 440 33 225 38 235 24 348 1012 25
leaf_count=30 1715 1355 1518 1762 1738 111 889 31 1532 21 1683 1560 1678 625 968 599 30 54 87 20 26 440 33 225 38 235 24 348 1012 25
internal_value=3.06973e-10 -0.228557 0.209171 0.115628 -0.139028 0.359449 -0.403654 0.321082 0.180036 0.50565 -0.0799982 0.0508461 -0.205609 -0.487183 -0.338746 0.35855 0.475213 0.33895 0.643212 0.564479 0.661371 -0.526739 0.443538 0.423364 0.338187 0.519821 0.439896 -0.557319 0.343544 0.279539
internal_weight=20412 9754 10658 6569 6454 4089 3300 3239 3294 850 3421 3275 3033 1443 1857 1721 696 1122 154 67 47 818 407 296 71 289 54 378 1091 79
internal_count=20412 9754 10658 6569 6454 4089 3300 3239 3294 850 3421 3275 3033 1443 1857 1721 696 1122 154 67 47 818 407 296 71 289 54 378 1091 79
is_linear=0
shrinkage=0.1


Tree=5
num_leaves=31
num_cat=0
split_feature=47 47 47 47 47 47 47 47 47 47 47 47 47 47 47 47 130 140 99 47 48 121 1 135 47 117 78 46 143 15
split_gain=79043.6 12385.4 12135.8 2220.11 2054.65 1857.87 1449.22 417.572 293.56 288.276 288.119 277.665 253.151 239.354 169.321 107.529 89.3296 217.567 257.389 107.178 67.4293 69.6643 60.6052 58.8254 53.228 52.2486 35.0074 32.5762 30.7507 30.5408
threshold=8.5000000000000018 4.5000000000000009 12.500000000000002 10.500000000000002 6.5000000000000009 15.500000000000002 2.5000000000000004 13.500000000000002 11.500000000000002 18.500000000000004 7.5000000000000009 9.5000000000000018 5.5000000000000009 1.5000000000000002 3.5000000000000004 14.500000000000002 14.500000000000002 8.5000000000000018 12.500000000000002 16.500000000000004 14.500000000000002 9.5000000000000018 10.500000000000002 1.5000000000000002 1.0000000180025095e-35 15.500000000000002 3.5000000000000004 16.500000000000004 4.5000000000000009 6.5000000000000009
decision_type=2 2 2 2 2 2 2 2 2 2 2 2 2 2 2 2 2 2 2 2 2 2 2 2 2 2 2 2 2 2
left_child=1 6 3 11 12 7 13 -4 -5 16 -6 -2 -3 24 -8 -9 19 18 -18 -7 21 -11 25 -17 28 -19 -21 -24 -1 -23
right_child=2 4 5 8 10 9 14 15 -10 20 -12 -13 -14 -15 -16 23 17 22 -20 26 -22 29 27 -25 -26 -27 -28 -29 -30 -31
leaf_value=-0.40444385369618741 0.017990925868120556 -0.21719831175909712 0.25074252202733865 0.13419567660495182 -0.10055623937085255 0.40707544895238751 -0.33638088288135548 0.3026150390320595 0.19404752793048288 0.35672769776799462 -0.04250718013063047 0.076291385243336368 -0.15908698437822022 -0.3918717850649357 -0.27593421810422064 0.23294377781842887 0.3927648769106184 0.27584073986556079 -0.022608890900245079 0.41966721491935932 0.63543979184011401 0.66588843822479249 0.42901003980017327 0.36102130874359817 -0.45042155112055221 0.46777310786039933 0.52438259507444773 0.53031796305267898 -0.5099610931571873 0.49692383227141007
leaf_weight=30 1715 1355 1518 1762 1738 229 889 1046 1532 22 1683 1560 1678 625 968 38 35 37 26 39 89 20 77 637 440 23 176 54 348 23
leaf_count=30 1715 1355 1518 1762 1738 229 889 1046 1532 22 1683 1560 1678 625 968 38 35 37 26 39 89 20 77 637 440 23 176 54 348 23
internal_value=1.60747e-09 -0.205701 0.188254 0.104065 -0.125125 0.323504 -0.363289 0.288973 0.162032 0.455085 -0.0719983 0.0457615 -0.185048 -0.438465 -0.304872 0.322695 0.427692 0.380138 0.21572 0.454682 0.578891 0.501462 0.432648 0.353811 -0.474065 0.349415 0.505388 0.470771 -0.501587 0.575512
internal_weight=20412 9754 10658 6569 6454 4089 3300 3239 3294 850 3421 3275 3033 1443 1857 1721 696 252 61 444 154 65 191 675 818 60 215 131 378 43
internal_count=20412 9754 10658 6569 6454 4089 3300 3239 3294 850 3421 3275 3033 1443 1857 1721 696 252 61 444 154 65 191 675 818 60 215 131 378 43
is_linear=0
shrinkage=0.1


Tree=6
num_leaves=31
num_cat=0
split_feature=47 47 47 47 47 47 47 47 47 47 47 47 47 47 47 47 130 137 133 130 47 122 130 116 0 81 47 111 105 78
split_gain=64025.3 10032.2 9829.99 1798.29 1664.27 1504.87 1173.87 338.233 237.783 233.504 233.376 224.909 205.053 193.876 137.15 87.0987 72.357 190.298 218.371 124.613 86.8143 61.339 79.317 53.9453 48.9908 65.637 43.1146 32.4507 30.4189 32.1794
threshold=8.5000000000000018 4.5000000000000009 12.500000000000002 10.500000000000002 6.5000000000000009 15.500000000000002 2.5000000000000004 13.500000000000002 11.500000000000002 18.500000000000004 7.5000000000000009 9.5000000000000018 5.5000000000000009 1.5000000000000002 3.5000000000000004 14.500000000000002 14.500000000000002 13.500000000000002 18.500000000000004 16.500000000000004 16.500000000000004 8.5000000000000018 15.500000000000002 1.5000000000000002 10.500000000000002 15.500000000000002 1.0000000180025095e-35 1.5000000000000002 12.500000000000002 3.5000000000000004
decision_type=2 2 2 2 2 2 2 2 2 2 2 2 2 2 2 2 2 2 2 2 2 2 2 2 2 2 2 2 2 2
left_child=1 6 3 11 12 7 13 -4 -5 16 -6 -2 -3 26 -8 -9 20 18 19 -18 -7 -11 -23 -17 25 -19 -1 -25 29 -22
right_child=2 4 5 8 10 9 14 15 -10 21 -12 -13 -14 -15 -16 23 17 24 -20 -21 28 22 -24 27 -26 -27 -28 -29 -30 -31
leaf_value=-0.45142803557966121 0.016191834599735441 -0.19547849529343778 0.22566827751588134 0.12077610921643243 -0.090500617878655154 0.36636790229764049 -0.30274279039139423 0.27235352389984557 0.17464278230234476 0.41262779617920908 -0.038256460587608621 0.068662246587948922 -0.14317828968114024 -0.3526846143627167 -0.2483407961681855 0.17119539827108385 0.12462718713851202 0.4031797119089075 -0.054618221521377568 0.43275545528956827 0.33104001113346648 0.59814729562369728 0.38700309531255206 0.21854386287076133 0.43734249233180639 0.17832815341651442 -0.40537941489030022 0.32859113317814148 0.50520441071553668 0.45111511187119924
leaf_weight=378 1715 1355 1518 1762 1738 229 889 1046 1532 39 1683 1560 1678 625 968 24 21 37 22 35 28 93 22 28 117 20 440 623 77 110
leaf_count=378 1715 1355 1518 1762 1738 229 889 1046 1532 39 1683 1560 1678 625 968 24 21 37 22 35 28 93 22 28 117 20 440 623 77 110
internal_value=3.34933e-10 -0.185131 0.169429 0.0936584 -0.112613 0.291154 -0.32696 0.260076 0.145829 0.409577 -0.0647985 0.0411854 -0.166544 -0.394619 -0.274385 0.290425 0.384923 0.342124 0.212333 0.317207 0.409213 0.521002 0.557754 0.31843 0.400306 0.324284 -0.426659 0.323858 0.454849 0.426752
internal_weight=20412 9754 10658 6569 6454 4089 3300 3239 3294 850 3421 3275 3033 1443 1857 1721 696 252 78 56 444 154 115 675 174 57 818 651 215 138
internal_count=20412 9754 10658 6569 6454 4089 3300 3239 3294 850 3421 3275 3033 1443 1857 1721 696 252 78 56 444 154 115 675 174 57 818 651 215 138
is_linear=0
shrinkage=0.1


Tree=7
num_leaves=31
num_cat=0
split_feature=47 47 47 47 47 47 47 47 45 47 47 47 47 47 47 128 45 114 140 133 137 137 143 122 47 47 125 47 47 55
split_gain=51860.5 8126.06 7962.29 1456.62 1348.06 1218.95 950.832 273.969 196.109 192.604 189.035 182.176 166.093 157.04 111.091 90.1907 72.4816 66.0102 55.8075 176.868 123.205 50.1633 47.0107 63.8209 34.9229 32.8816 42.0684 32.1293 31.8303 30.7968
threshold=8.5000000000000018 4.5000000000000009 12.500000000000002 10.500000000000002 6.5000000000000009 15.500000000000002 2.5000000000000004 13.500000000000002 17.500000000000004 11.500000000000002 7.5000000000000009 9.5000000000000018 5.5000000000000009 1.5000000000000002 3.5000000000000004 15.500000000000002 14.500000000000002 1.0000000180025095e-35 11.500000000000002 18.500000000000004 13.500000000000002 1.0000000180025095e-35 10.500000000000002 8.5000000000000018 1.0000000180025095e-35 16.500000000000004 11.500000000000002 18.500000000000004 16.500000000000004 3.5000000000000004
decision_type=2 2 2 2 2 2 2 2 2 2 2 2 2 2 2 2 2 2 2 2 2 2 2 2 2 2 2 2 2 2
left_child=1 6 3 11 12 7 13 -4 18 -5 -6 -2 -3 24 -8 22 17 -9 19 21 -21 -7 -10 -24 -1 29 -27 -25 -20 -23
right_child=2 4 5 9 10 8 14 16 15 -11 -12 -13 -14 -15 -16 -17 -18 -19 28 20 -22 25 23 27 -26 26 -28 -29 -30 -31
leaf_value=-0.40628524141967609 0.014572650186348242 -0.17593063996286851 0.20310143637366604 0.10869850176349537 -0.081450553503320477 0.1926843802134196 -0.27246851662951194 0.10249473048794655 0.53505483499982143 0.15717850198322425 -0.034430813527291403 0.061796023310759132 -0.12886045695203704 -0.31741614269256591 -0.22350671134334951 0.30378937107143983 0.289469860553841 0.25047662839990054 0.34274332433718535 -0.042790410735390409 0.30014538049697875 0.2282889940908977 0.2794268393090793 0.39636590671539307 -0.36484146312556487 0.44101071459906449 0.30798652436998158 0.54570277017705582 0.40462516436365831 0.34523704352586165
leaf_weight=378 1715 1355 1518 1762 1738 21 889 31 88 1532 1683 1560 1678 625 968 33 599 1091 188 22 20 28 21 25 440 70 36 34 149 115
leaf_count=378 1715 1355 1518 1762 1738 21 889 31 88 1532 1683 1560 1678 625 968 33 599 1091 188 22 20 28 21 25 440 70 36 34 149 115
internal_value=8.09084e-10 -0.166618 0.152486 0.0842926 -0.101351 0.262038 -0.294264 0.234068 0.368619 0.131246 -0.0583187 0.0370668 -0.149889 -0.355157 -0.246946 0.45493 0.261383 0.246388 0.341888 0.311412 0.120512 0.341107 0.484618 0.429138 -0.383993 0.353625 0.395833 0.482424 0.370104 0.322338
internal_weight=20412 9754 10658 6569 6454 4089 3300 3239 850 3294 3421 3275 3033 1443 1857 201 1721 1122 649 312 42 270 168 80 818 249 106 59 337 143
internal_count=20412 9754 10658 6569 6454 4089 3300 3239 850 3294 3421 3275 3033 1443 1857 201 1721 1122 649 312 42 270 168 80 818 249 106 59 337 143
is_linear=0
shrinkage=0.1


Tree=8
num_leaves=31
num_cat=0
split_feature=47 47 47 47 47 47 47 47 45 47 47 47 47 47 47 128 47 137 141 144 136 143 122 47 104 142 47 59 132 47
split_gain=42007 6582.11 6449.46 1179.86 1091.93 987.347 770.174 221.915 158.849 156.01 153.118 147.563 134.535 127.202 89.9839 73.0545 61.4272 48.6267 47.6265 73.3172 61.1854 38.0787 51.695 34.4781 34.8245 111.787 41.673 29.4832 31.3766 28.2875
threshold=8.5000000000000018 4.5000000000000009 12.500000000000002 10.500000000000002 6.5000000000000009 15.500000000000002 2.5000000000000004 13.500000000000002 17.500000000000004 11.500000000000002 7.5000000000000009 9.5000000000000018 5.5000000000000009 1.5000000000000002 3.5000000000000004 15.500000000000002 14.500000000000002 1.5000000000000002 1.5000000000000002 0.5434782608695653 2.5000000000000004 10.500000000000002 8.5000000000000018 18.500000000000004 17.500000000000004 7.5000000000000009 17.500000000000004 17.500000000000004 17.500000000000004 1.0000000180025095e-35
decision_type=2 2 2 2 2 2 2 2 2 2 2 2 2 2 2 2 2 2 2 2 2 2 2 2 2 2 2 2 2 2
left_child=1 6 3 11 12 7 13 -4 18 -5 -6 -2 -3 29 -8 21 -9 -18 19 -7 -20 -10 -23 24 26 -26 -22 28 -27 -1
right_child=2 4 5 9 10 8 14 16 15 -11 -12 -13 -14 -15 -16 -17 17 -19 20 -21 23 22 -24 -25 25 27 -28 -29 -30 -31
leaf_value=-0.36565671282470547 0.013115384473571277 -0.15833757817085381 0.18279129590284526 0.097828647935769342 -0.073305500569668683 0.32776759914729908 -0.24522166005403845 0.22006785986414379 0.48154935565861789 0.14146065137716249 -0.030987733556483377 0.055616417649464733 -0.11597440987292576 -0.28567454539954662 -0.20115604283334304 0.27341042973778468 0.14568301571740047 0.26513339736278818 0.17568363666534426 0.065974397659301756 0.32060430566373382 0.25148415097168514 0.43418200177661448 0.43469361502390647 0.058742781480153411 0.33513767690885637 0.4390707299113274 0.42256662368774417 0.18983588892480602 -0.32835731700062754
leaf_weight=378 1715 1355 1518 1762 1738 23 889 1046 88 1532 1683 1560 1678 625 968 33 36 639 30 20 412 21 59 26 21 42 32 20 23 440
leaf_count=378 1715 1355 1518 1762 1738 23 889 1046 88 1532 1683 1560 1678 625 968 33 36 639 30 20 412 21 59 26 21 42 32 20 23 440
internal_value=-1.28392e-10 -0.149956 0.137237 0.0758633 -0.0912163 0.235834 -0.264837 0.210662 0.331757 0.118121 -0.0524868 0.0333602 -0.1349 -0.319641 -0.222252 0.409437 0.235245 0.258763 0.307699 0.206003 0.314915 0.436156 0.386224 0.322167 0.316848 0.265348 0.329142 0.316392 0.283723 -0.345593
internal_weight=20412 9754 10658 6569 6454 4089 3300 3239 850 3294 3421 3275 3033 1443 1857 201 1721 675 649 43 606 168 80 576 550 106 444 85 65 818
internal_count=20412 9754 10658 6569 6454 4089 3300 3239 850 3294 3421 3275 3033 1443 1857 201 1721 675 649 43 606 168 80 576 550 106 444 85 65 818
is_linear=0
shrinkage=0.1


Tree=9
num_leaves=31
num_cat=0
split_feature=47 47 47 47 47 47 47 47 47 47 47 47 47 47 47 137 95 47 130 137 109 114 47 139 141 0 81 142 111 45
split_gain=34025.7 5331.51 5224.06 955.686 884.459 799.751 623.841 179.751 131.381 126.368 124.026 119.526 108.973 103.034 72.887 53.6239 92.62 54.6795 48.651 130.111 147.318 137.862 50.5824 48.4401 114.222 39.0483 52.4044 27.4676 27.3112 26.4988
threshold=8.5000000000000018 4.5000000000000009 12.500000000000002 10.500000000000002 6.5000000000000009 15.500000000000002 2.5000000000000004 13.500000000000002 18.500000000000004 11.500000000000002 7.5000000000000009 9.5000000000000018 5.5000000000000009 1.5000000000000002 3.5000000000000004 1.5000000000000002 12.500000000000002 14.500000000000002 14.500000000000002 13.500000000000002 13.500000000000002 15.500000000000002 16.500000000000004 8.5000000000000018 8.5000000000000018 10.500000000000002 15.500000000000002 5.5000000000000009 9.5000000000000018 14.500000000000002
decision_type=2 2 2 2 2 2 2 2 2 2 2 2 2 2 2 2 2 2 2 2 2 2 2 2 2 2 2 2 2 2
left_child=1 6 3 11 12 7 13 -4 18 -5 -6 -2 -3 -1 -8 16 28 -17 22 20 -20 -22 29 24 27 26 -21 -10 -9 -7
right_child=2 4 5 9 10 8 14 15 23 -11 -12 -13 -14 -15 -16 17 -18 -19 19 25 21 -23 -24 -25 -26 -27 -28 -29 -30 -31
leaf_value=-0.31103412861637497 0.011803846951823889 -0.14250381915991597 0.16451217198010648 0.088045783944757802 -0.065974951484878266 0.17969029128551484 -0.22069949849652226 0.2511100323576676 0.338698513347369 0.12731458595698561 -0.027888959600184549 0.050054778322959563 -0.10437697691485481 -0.25710708931922915 -0.18104043048383162 0.20113342708678703 -0.03689382750055064 0.2386200590872429 0.29401249394697299 0.29572833647599095 -0.14472046395142873 0.21077066481113438 0.33484077611634899 0.43137873966118384 0.12500784624190558 0.32616877606791311 0.094816628992557536 0.49457748651504518 0.11810077749765838 0.28050961129030394
leaf_weight=818 1715 1355 1518 1762 1738 30 889 38 26 1532 1683 1560 1678 625 968 995 23 639 34 37 24 20 215 87 21 117 20 20 26 199
leaf_count=818 1715 1355 1518 1762 1738 30 889 38 26 1532 1683 1560 1678 625 968 995 23 639 34 37 24 20 215 87 21 117 20 20 26 199
internal_value=-4.74914e-10 -0.134961 0.123513 0.068277 -0.0820946 0.212251 -0.238354 0.189595 0.298582 0.106309 -0.0472381 0.0300241 -0.12141 -0.287677 -0.200026 0.21172 0.135221 0.215793 0.280088 0.244994 0.137674 0.0168664 0.300007 0.382161 0.318252 0.293104 0.225233 0.406472 0.197075 0.267302
internal_weight=20412 9754 10658 6569 6454 4089 3300 3239 850 3294 3421 3275 3033 1443 1857 1721 87 1634 696 252 78 44 444 154 67 174 57 46 64 229
internal_count=20412 9754 10658 6569 6454 4089 3300 3239 850 3294 3421 3275 3033 1443 1857 1721 87 1634 696 252 78 44 444 154 67 174 57 46 64 229
is_linear=0
shrinkage=0.1


Tree=10
num_leaves=31
num_cat=0
split_feature=47 47 47 47 47 47 47 47 46 47 47 47 47 47 47 119 130 48 137 114 47 106 142 133 47 143 124 55 93 90
split_gain=27560.8 4318.52 4231.49 774.105 716.412 647.798 505.311 145.598 108.889 102.358 100.461 96.8158 88.2685 83.4575 59.0385 54.9768 72.0725 45.337 43.4353 80.2484 44.2904 37.5735 100.09 34.7622 37.7808 87.071 31.3756 29.1707 70.9134 28.6941
threshold=8.5000000000000018 4.5000000000000009 12.500000000000002 10.500000000000002 6.5000000000000009 15.500000000000002 2.5000000000000004 13.500000000000002 18.500000000000004 11.500000000000002 7.5000000000000009 9.5000000000000018 5.5000000000000009 1.5000000000000002 3.5000000000000004 12.500000000000002 11.500000000000002 10.500000000000002 1.5000000000000002 3.5000000000000004 14.500000000000002 19.500000000000004 9.5000000000000018 1.5000000000000002 17.500000000000004 12.500000000000002 14.500000000000002 3.5000000000000004 3.5000000000000004 10.500000000000002
decision_type=2 2 2 2 2 2 2 2 2 2 2 2 2 2 2 2 2 2 2 2 2 2 2 2 2 2 2 2 2 2
left_child=1 6 3 11 12 7 13 -4 21 -5 -6 -2 -3 -1 -8 17 -17 -10 19 -9 -20 23 -23 -7 27 26 -26 28 -25 -21
right_child=2 4 5 9 10 8 14 18 15 -11 -12 -13 -14 -15 -16 16 -18 -19 20 29 -22 22 -24 24 25 -27 -28 -29 -30 -31
leaf_value=-0.27993070964489708 0.010623462332667833 -0.12825343466332917 0.14806095622038182 0.079241206677087186 -0.059377456433273704 0.15449818223714828 -0.19862954423703147 -0.029547080993652344 0.27203658258785374 0.11458312909534643 -0.025100064015572649 0.045049299494578289 -0.093939274477553736 -0.23139636579513551 -0.16293638878432681 0.40705330133438111 0.15850470023495811 0.43386500562940333 0.18102008905542555 0.23492885629336038 0.21475805433143474 0.0075942933559417728 0.27833010041051442 0.27798855385997079 0.41069867957722056 0.13613987863063812 0.26939658576791942 0.26374310582278832 0.080524716838713623 0.094098733300748083
leaf_weight=818 1715 1355 1518 1762 1738 30 889 25 23 1532 1683 1560 1678 625 968 20 28 70 995 39 639 22 36 44 55 20 22 449 31 23
leaf_count=818 1715 1355 1518 1762 1738 30 889 25 23 1532 1683 1560 1678 625 968 20 28 70 995 39 639 22 36 44 55 20 22 449 31 23
internal_value=1.43153e-09 -0.121465 0.111162 0.0614493 -0.0738852 0.191026 -0.214518 0.170636 0.268723 0.0956783 -0.0425143 0.0270217 -0.109269 -0.258909 -0.180024 0.348983 0.262067 0.393843 0.190548 0.121699 0.194214 0.252762 0.175637 0.259633 0.264712 0.322041 0.370327 0.2541 0.19637 0.182685
internal_weight=20412 9754 10658 6569 6454 4089 3300 3239 850 3294 3421 3275 3033 1443 1857 141 48 93 1721 87 1634 709 58 651 621 97 77 524 75 62
internal_count=20412 9754 10658 6569 6454 4089 3300 3239 850 3294 3421 3275 3033 1443 1857 141 48 93 1721 87 1634 709 58 651 621 97 77 524 75 62
is_linear=0
shrinkage=0.1


Tree=11
num_leaves=31
num_cat=0
split_feature=47 47 47 47 47 46 47 46 47 47 47 47 47 47 128 0 94 141 47 119 48 141 98 112 47 62 47 47 143 115
split_gain=22324.2 3498 3427.51 627.025 580.294 524.991 409.302 131.799 92.9302 82.9099 81.3732 78.4208 71.4974 70.0251 49.4486 88.2669 154.174 59.0068 47.8212 38.5375 47.284 38.4152 102.96 134.044 53.2078 36.5848 36.3027 29.848 24.9081 21.4387
threshold=8.5000000000000018 4.5000000000000009 12.500000000000002 10.500000000000002 6.5000000000000009 15.500000000000002 2.5000000000000004 13.500000000000002 18.500000000000004 11.500000000000002 7.5000000000000009 9.5000000000000018 5.5000000000000009 1.0000000180025095e-35 15.500000000000002 10.500000000000002 14.500000000000002 6.5000000000000009 3.5000000000000004 13.500000000000002 10.500000000000002 2.5000000000000004 10.500000000000002 12.500000000000002 14.500000000000002 1.0000000180025095e-35 14.500000000000002 16.500000000000004 4.5000000000000009 17.500000000000004
decision_type=2 2 2 2 2 2 2 2 2 2 2 2 2 2 2 2 2 2 2 2 2 2 2 2 2 2 2 2 2 2
left_child=1 6 3 11 12 7 13 -4 14 -5 -6 -2 -3 28 27 16 -16 -17 -8 20 -10 22 26 -24 -23 -26 -9 29 -1 -7
right_child=2 4 5 9 10 8 18 21 19 -11 -12 -13 -14 -15 15 17 -18 -19 -20 -21 -22 24 23 -25 25 -27 -28 -29 -30 -31
leaf_value=-0.18256598949432373 0.0095611158608521398 -0.11542808908158123 0.13393768218293722 0.071317085008074557 -0.05343970818953081 0.2336719982326031 -0.17876659294483499 0.13965730745541424 0.23795547235537981 0.10312481437057169 -0.022590058422201954 0.040544370103340888 -0.084545349172528511 -0.21989437971316594 0.22351397089660169 0.083535251928412393 -0.11177468275030454 0.25952128006128578 -0.14664274659469601 0.19998530397812528 0.37637807369232179 0.16258410724911998 -0.16641755726026453 0.15684994746898784 0.067129807472229006 0.20454332641536191 0.29131078698016982 0.27300221572319666 -0.27753149442289071 0.14713240825768673
leaf_weight=30 1715 1355 1623 1762 1738 216 889 38 34 1532 1683 1560 1678 1065 32 23 24 111 968 24 90 906 23 29 20 620 27 216 348 33
leaf_count=30 1715 1355 1623 1762 1738 216 889 38 34 1532 1683 1560 1678 1065 32 23 24 111 968 24 90 906 23 29 20 620 27 216 348 33
internal_value=-1.26152e-10 -0.109318 0.100046 0.0553044 -0.0664967 0.171923 -0.193066 0.15421 0.244407 0.0861105 -0.0382629 0.0243196 -0.0983423 -0.233018 0.228237 0.185253 0.0798188 0.229315 -0.162021 0.315974 0.338423 0.173995 0.118747 0.0138662 0.178176 0.200249 0.202652 0.2458 -0.269995 0.222203
internal_weight=20412 9754 10658 6569 6454 4089 3300 3286 803 3294 3421 3275 3033 1443 655 190 56 134 1857 148 124 1663 117 52 1546 640 65 465 378 249
internal_count=20412 9754 10658 6569 6454 4089 3300 3286 803 3294 3421 3275 3033 1443 655 190 56 134 1857 148 124 1663 117 52 1546 640 65 465 378 249
is_linear=0
shrinkage=0.1


Tree=12
num_leaves=31
num_cat=0
split_feature=47 47 47 47 47 47 47 44 45 47 47 47 47 47 118 131 47 46 133 47 76 141 125 46 47 135 18 104 120 22
split_gain=18082.6 2833.38 2776.28 507.891 470.038 425.872 331.535 99.3438 76.2324 67.157 65.9123 63.5209 60.6246 57.9129 44.3082 80.2937 38.7351 36.9517 96.1962 53.1872 33.2784 31.6884 87.1099 36.0448 29.7889 51.3958 28.6987 38.4483 27.6136 23.5738
threshold=8.5000000000000018 4.5000000000000009 12.500000000000002 10.500000000000002 6.5000000000000009 15.500000000000002 2.5000000000000004 13.500000000000002 17.500000000000004 11.500000000000002 7.5000000000000009 9.5000000000000018 1.5000000000000002 5.5000000000000009 11.500000000000002 14.500000000000002 3.5000000000000004 17.500000000000004 12.500000000000002 17.500000000000004 12.500000000000002 4.5000000000000009 10.500000000000002 14.500000000000002 14.500000000000002 1.5000000000000002 10.500000000000002 14.500000000000002 1.5000000000000002 14.500000000000002
decision_type=2 2 2 2 2 2 2 2 2 2 2 2 2 2 2 2 2 2 2 2 2 2 2 2 2 2 2 2 2 2
left_child=1 6 3 11 13 7 12 -4 17 -5 -6 -2 29 -3 26 -16 -8 19 -19 21 -21 22 -7 -23 -9 -26 -10 -28 -27 -1
right_child=2 4 5 9 10 8 16 24 14 -11 -12 -13 -14 -15 15 -17 -18 18 -20 20 -22 23 -24 -25 25 28 27 -29 -30 -31
leaf_value=-0.23070889313263124 0.0086050042262404026 -0.10388527925384002 0.12192319232297438 0.06418537703531961 -0.048095739774311648 0.22014679081585942 -0.16088993283841421 0.14570654956122983 0.40136152230776273 0.092812333598382799 -0.020331052131618833 0.036489933035694637 -0.18626730316638948 -0.076090811993993368 0.27308047126639973 0.039102482795715335 -0.13197847506847263 0.2616910985537938 -0.0409893274307251 0.22500489711761476 0.40524378163473945 0.086554826212965924 -0.00096004073108945569 0.21479342329383791 0.039773715204662746 0.089267569138187799 0.31731892704189602 0.16997593097064809 0.18635850319064651 -0.13393850211913769
leaf_weight=792 1715 1355 1738 1762 1738 49 889 911 26 1532 1683 1560 625 1678 55 20 968 21 21 20 21 23 28 466 27 31 77 23 532 26
leaf_count=792 1715 1355 1738 1762 1738 49 889 911 26 1532 1683 1560 625 1678 55 20 968 21 21 20 21 23 28 466 27 31 77 23 532 26
internal_value=8.17377e-10 -0.0983863 0.0900413 0.0497739 -0.059847 0.154731 -0.17376 0.138199 0.217729 0.0774994 -0.0344366 0.0218876 -0.209716 -0.0885081 0.271542 0.210686 -0.145819 0.201063 0.110351 0.207339 0.317322 0.199372 0.139744 0.208762 0.157044 0.174549 0.307765 0.28343 0.181012 -0.227633
internal_weight=20412 9754 10658 6569 6454 4089 3300 3239 850 3294 3421 3275 1443 3033 201 75 1857 649 42 607 41 566 77 489 1501 590 126 100 563 818
internal_count=20412 9754 10658 6569 6454 4089 3300 3239 850 3294 3421 3275 1443 3033 201 75 1857 649 42 607 41 566 77 489 1501 590 126 100 563 818
is_linear=0
shrinkage=0.1


Tree=13
num_leaves=31
num_cat=0
split_feature=47 47 47 47 47 46 47 46 47 47 47 47 47 47 128 115 138 22 47 135 95 47 141 98 132 135 47 119 127 45
split_gain=14646.9 2295.04 2248.79 411.391 380.731 347.541 268.543 90.5019 64.4754 54.3972 53.389 51.4519 50.6111 46.9095 36.2807 73.6342 77.7994 54.4096 31.3755 30.4617 63.1107 32.4138 32.5433 150.272 27.5381 22.0372 21.2632 21.0785 51.2405 23.8882
threshold=8.5000000000000018 4.5000000000000009 12.500000000000002 10.500000000000002 6.5000000000000009 15.500000000000002 2.5000000000000004 13.500000000000002 18.500000000000004 11.500000000000002 7.5000000000000009 9.5000000000000018 1.0000000180025095e-35 5.5000000000000009 15.500000000000002 8.5000000000000018 11.500000000000002 10.500000000000002 3.5000000000000004 1.5000000000000002 9.5000000000000018 14.500000000000002 2.5000000000000004 10.500000000000002 16.500000000000004 3.5000000000000004 16.500000000000004 6.5000000000000009 12.500000000000002 14.500000000000002
decision_type=2 2 2 2 2 2 2 2 2 2 2 2 2 2 2 2 2 2 2 2 2 2 2 2 2 2 2 2 2 2
left_child=1 6 3 11 13 7 12 -4 14 -5 -6 -2 -1 -3 26 16 -16 -17 -8 20 -9 -21 23 -23 25 -10 -7 28 -24 -29
right_child=2 4 5 9 10 8 18 19 24 -11 -12 -13 -14 -15 15 17 -18 -19 -20 21 -22 22 27 -25 -26 -27 -28 29 -30 -31
leaf_value=-0.22018022425275632 0.0077445037426215231 -0.09349675097818938 0.10804706700880698 0.057766838901159301 -0.043286164075787788 0.17989132382783546 -0.14480093593203178 0.16246179725442614 0.18123522372472856 0.083531098760294853 -0.018297946070604785 0.032840940249271887 -0.17758749693842002 -0.068481731713173358 -0.098575215718962939 0.028306446671485904 0.17051719767706736 0.20575789351632279 -0.11878062653516935 0.13227862691730102 -0.019356763203229224 0.24272794100642203 0.16882402380096151 -0.12502900481224061 0.14871911644935606 0.29327730469614549 0.2227673014988088 0.21865368275163333 0.023984329266981644 0.16505347992076314
leaf_weight=378 1715 1355 1623 1762 1738 249 889 42 21 1532 1683 1560 1065 1678 22 20 21 127 968 934 35 25 94 20 20 107 216 107 33 373
leaf_count=378 1715 1355 1623 1762 1738 249 889 42 21 1532 1683 1560 1065 1678 22 20 21 127 968 934 35 25 94 20 20 107 216 107 33 373
internal_value=1.11171e-09 -0.0885476 0.0810371 0.0447965 -0.0538623 0.139258 -0.156384 0.124846 0.198233 0.0697495 -0.0309929 0.0196988 -0.188745 -0.0796573 0.184764 0.147945 0.032842 0.181615 -0.131237 0.141241 0.079817 0.144223 0.161334 0.0792804 0.257845 0.274895 0.199808 0.167417 0.131189 0.177002
internal_weight=20412 9754 10658 6569 6454 4089 3300 3286 803 3294 3421 3275 1443 3033 655 190 43 147 1857 1663 77 1586 652 45 148 128 465 607 127 480
internal_count=20412 9754 10658 6569 6454 4089 3300 3286 803 3294 3421 3275 1443 3033 655 190 43 147 1857 1663 77 1586 652 45 148 128 465 607 127 480
is_linear=0
shrinkage=0.1


Tree=14
num_leaves=31
num_cat=0
split_feature=47 47 47 47 47 46 47 47 47 114 135 47 47 47 47 96 47 42 130 140 142 109 143 47 119 123 47 115 129 45
split_gain=11864 1858.98 1821.52 333.227 308.392 281.509 217.52 73.6537 52.2251 46.3214 98.3985 44.0617 44.051 43.245 41.676 39.8443 37.9967 36.2728 30.2352 52.8458 114.591 45.6433 39.4833 25.4141 25.0927 41.7638 21.5737 30.3804 44.7245 25.1194
threshold=8.5000000000000018 4.5000000000000009 12.500000000000002 10.500000000000002 6.5000000000000009 15.500000000000002 2.5000000000000004 13.500000000000002 18.500000000000004 4.5000000000000009 1.5000000000000002 11.500000000000002 1.5000000000000002 7.5000000000000009 9.5000000000000018 14.500000000000002 5.5000000000000009 11.500000000000002 14.500000000000002 8.5000000000000018 5.5000000000000009 19.500000000000004 8.5000000000000018 3.5000000000000004 13.500000000000002 7.5000000000000009 14.500000000000002 11.500000000000002 16.500000000000004 14.500000000000002
decision_type=2 2 2 2 2 2 2 2 2 2 2 2 2 2 2 2 2 2 2 2 2 2 2 2 2 2 2 2 2 2
left_child=1 6 3 14 16 7 12 -4 18 10 -9 -5 -1 -6 -2 17 -3 -12 -7 20 -20 22 -21 -8 25 -10 -11 28 -28 -29
right_child=2 4 5 11 13 8 23 9 24 26 15 -13 -14 -15 -16 -17 -18 -19 19 21 -22 -23 -24 -25 -26 -27 27 29 -30 -31
leaf_value=-0.18514278163463971 0.0069700537554637345 -0.084147081293193191 0.0961843151666745 0.05199015399654662 -0.038957546709664809 0.1819342224571471 -0.1303208452375989 -0.10462545526027681 0.1474462147553762 0.12224879414928191 -0.0002497224509716034 0.075177989581079463 -0.14988181549072266 -0.016468151962905856 0.029556845898429551 -0.018496374244039712 -0.061633556960450309 0.14412247316995219 0.16755328909043343 0.3102892251241775 -0.13946540132164956 0.034600059812267624 0.16258833456130428 -0.10690256493889597 0.13846605246265728 0.28296087441292217 0.13592333840076315 0.2088593703965026 0.014027295027460371 0.14935207853349158
leaf_weight=818 1715 1355 1516 1762 1738 428 889 25 30 927 20 1532 625 1683 1560 22 1678 134 31 21 20 24 131 968 24 94 215 93 35 299
leaf_count=818 1715 1355 1516 1762 1738 428 889 25 30 927 20 1532 625 1683 1560 22 1678 134 31 21 20 24 131 968 24 94 215 93 35 299
internal_value=7.46719e-11 -0.0796929 0.0729334 0.0403169 -0.0484761 0.125332 -0.140745 0.112361 0.17841 0.126217 0.0810192 0.0627745 -0.16987 -0.0278936 0.017729 0.107389 -0.0716915 0.125373 0.166287 0.136786 0.0471538 0.162759 0.182994 -0.118114 0.23206 0.250175 0.132007 0.146098 0.118858 0.16347
internal_weight=20412 9754 10658 6569 6454 4089 3300 3286 803 1770 201 3294 1443 3421 3275 176 3033 154 655 227 51 176 152 1857 148 124 1569 642 250 392
internal_count=20412 9754 10658 6569 6454 4089 3300 3286 803 1770 201 3294 1443 3421 3275 176 3033 154 655 227 51 176 152 1857 148 124 1569 642 250 392
is_linear=0
shrinkage=0.1


Tree=15
num_leaves=31
num_cat=0
split_feature=47 47 47 47 47 45 47 45 46 47 47 117 131 47 47 47 144 47 128 47 121 47 47 143 26 138 97 142 120 47
split_gain=9609.85 1505.77 1475.43 269.914 249.797 228.736 176.191 68.2662 43.048 52.3716 36.6885 36.4978 54.0455 35.69 35.0285 33.7576 33.3762 56.2009 32.2338 30.7773 25.4209 24.6329 20.5855 20.3071 19.7195 26.0492 77.5824 43.5305 28.7068 19.7985
threshold=8.5000000000000018 4.5000000000000009 12.500000000000002 10.500000000000002 6.5000000000000009 14.500000000000002 2.5000000000000004 17.500000000000004 17.500000000000004 17.500000000000004 1.0000000180025095e-35 4.5000000000000009 13.500000000000002 11.500000000000002 7.5000000000000009 9.5000000000000018 0.58695652173913049 14.500000000000002 1.5000000000000002 5.5000000000000009 8.5000000000000018 13.500000000000002 3.5000000000000004 4.5000000000000009 15.500000000000002 3.5000000000000004 14.500000000000002 3.5000000000000004 1.0000000180025095e-35 14.500000000000002
decision_type=2 2 2 2 2 2 2 2 2 2 2 2 2 2 2 2 2 2 2 2 2 2 2 2 2 2 2 2 2 2
left_child=1 6 3 15 19 16 10 8 9 24 23 -9 20 -5 -6 -2 17 21 -18 -3 -13 -4 -8 -1 25 26 27 -7 -27 -30
right_child=2 4 5 13 14 7 22 11 -10 -11 -12 12 -14 -15 -16 -17 18 -19 -20 -21 -22 -23 -24 -25 -26 28 -28 -29 29 -31
leaf_value=-0.10070619076490402 0.0062730488388557486 -0.075732371605850238 0.089743002786973572 0.046791139187525949 -0.035061793049885298 0.024491413533687594 -0.11728876451673605 0.29660980291664601 0.025577774819205791 0.27014065623283384 -0.14338378276903305 0.13329869605162567 0.073013613111264003 0.067660193242541175 -0.014821336712783387 0.026601160043516221 -0.026420924984491792 0.18216619275428436 0.086117481088743023 -0.05547020338005048 0.23244764095655196 0.11680831913053474 -0.096212305548824067 -0.18645324380319009 0.16847605721358164 0.027625283350547154 -0.088864809416589294 0.21371976983162666 0.093898047477509197 0.14374494737065577
leaf_weight=30 1715 1355 806 1762 1738 20 889 32 34 30 1065 34 37 1532 1683 1560 26 91 1206 1678 108 577 968 348 162 24 21 31 89 761
leaf_count=30 1715 1355 806 1762 1738 20 889 32 34 30 1065 34 37 1532 1683 1560 26 91 1206 1678 108 577 968 348 162 24 21 31 89 761
internal_value=-9.68668e-11 -0.0717236 0.0656401 0.0362852 -0.0436285 0.112799 -0.126671 0.145882 0.136455 0.139768 -0.152883 0.198244 0.180659 0.0564971 -0.0251043 0.0159561 0.0958903 0.106044 0.0837425 -0.0645224 0.208708 0.101035 -0.106302 -0.179648 0.136238 0.130718 0.0729025 0.139513 0.13548 0.138526
internal_weight=20412 9754 10658 6569 6454 4089 3300 1383 1172 1138 1443 211 179 3294 3421 3275 2706 1474 1232 3033 142 1383 1857 378 1108 946 72 51 874 850
internal_count=20412 9754 10658 6569 6454 4089 3300 1383 1172 1138 1443 211 179 3294 3421 3275 2706 1474 1232 3033 142 1383 1857 378 1108 946 72 51 874 850
is_linear=0
shrinkage=0.1


Tree=16
num_leaves=31
num_cat=0
split_feature=47 47 47 47 47 47 47 136 47 44 47 31 12 27 120 131 140 12 113 119 72 47 47 47 95 98 47 15 91 139
split_gain=7783.98 1219.68 1195.1 218.63 202.336 188.909 145.773 48.3812 74.3192 45.5152 37.3757 33.5479 46.5357 56.1733 82.6313 48.0858 62.3079 29.7424 41.0145 52.77 31.7219 28.9089 28.3731 27.3437 26.5096 26.0931 24.9296 20.7038 20.1288 44.2752
threshold=8.5000000000000018 4.5000000000000009 12.500000000000002 10.500000000000002 6.5000000000000009 15.500000000000002 1.5000000000000002 1.0000000180025095e-35 19.500000000000004 13.500000000000002 3.5000000000000004 11.500000000000002 9.5000000000000018 11.500000000000002 11.500000000000002 19.500000000000004 11.500000000000002 10.500000000000002 7.5000000000000009 4.5000000000000009 13.500000000000002 11.500000000000002 7.5000000000000009 9.5000000000000018 19.500000000000004 3.5000000000000004 5.5000000000000009 14.500000000000002 19.500000000000004 9.5000000000000018
decision_type=2 2 2 2 2 2 2 2 2 2 2 2 2 2 2 2 2 2 2 2 2 2 2 2 2 2 2 2 2 2
left_child=1 6 3 23 26 9 27 -7 11 28 24 -9 13 -13 -15 17 -17 -14 19 -19 -21 -5 -6 -2 -8 -20 -3 -1 -4 -30
right_child=2 4 5 21 22 7 10 8 -10 -11 -12 12 15 14 -16 16 -18 18 25 20 -22 -23 -24 -25 -26 -27 -28 -29 29 -31
leaf_value=-0.15343910332811436 0.0056457429337953349 -0.068159131794838013 0.081437167615269493 0.042112025165260178 -0.031555612685353902 0.016536039319531671 -0.11366332887055822 0.18146895223813092 0.23265407513017242 0.10326386376459036 -0.086591077244971407 0.15959175409692708 0.22548392600483363 -0.13765829253196715 0.11696652598105944 -0.08610920111338298 0.14355888874442488 -0.041998443131645524 0.049784019887447357 0.15789582840573621 0.026912558555603028 0.060894172076456858 -0.013339202891342425 0.023941045703414161 -0.020227600946541757 0.16811556333450828 -0.049923181775357928 -0.061012991309165959 -0.094203406998089378 0.090473535174832628
leaf_weight=793 1715 1355 1683 1762 1738 29 1483 139 92 1501 968 33 45 25 26 21 27 24 20 71 25 1532 1683 1560 31 273 1678 25 21 34
leaf_count=793 1715 1355 1683 1762 1738 29 1483 139 92 1501 968 33 45 25 26 21 27 24 20 71 25 1532 1683 1560 31 273 1678 25 21 34
internal_value=9.47029e-10 -0.0645512 0.0590761 0.0326567 -0.0392656 0.101519 -0.114004 0.143477 0.147961 0.0905081 -0.101938 0.137272 0.12686 0.057931 -0.00784956 0.138303 0.0430791 0.148283 0.139871 0.0906288 0.123786 0.0508474 -0.0225938 0.0143605 -0.11175 0.160038 -0.0580701 -0.150614 0.0794917 0.0199605
internal_weight=20412 9754 10658 6569 6454 4089 3300 850 821 3239 2482 729 590 84 51 506 48 458 413 120 96 3294 3421 3275 1514 293 3033 818 1738 55
internal_count=20412 9754 10658 6569 6454 4089 3300 850 821 3239 2482 729 590 84 51 506 48 458 413 120 96 3294 3421 3275 1514 293 3033 818 1738 55
is_linear=0
shrinkage=0.1


Tree=17
num_leaves=31
num_cat=0
split_feature=47 47 47 47 47 45 47 6 136 47 133 116 47 47 96 47 47 106 133 15 120 85 47 47 47 0 47 121 134 139
split_gain=6305.02 987.939 968.029 177.09 163.892 156.751 119.875 45.1242 43.0808 65.8465 35.8161 27.2542 57.8075 43.9773 94.243 33.1398 25.7166 24.2087 74.4286 26.5648 26.1713 29.8701 23.4162 22.9822 22.1484 21.2365 20.193 18.4669 18.315 17.2947
threshold=8.5000000000000018 4.5000000000000009 12.500000000000002 10.500000000000002 6.5000000000000009 14.500000000000002 2.5000000000000004 17.500000000000004 1.0000000180025095e-35 18.500000000000004 13.500000000000002 6.5000000000000009 16.500000000000004 14.500000000000002 9.5000000000000018 13.500000000000002 1.0000000180025095e-35 19.500000000000004 18.500000000000004 6.5000000000000009 1.5000000000000002 7.5000000000000009 11.500000000000002 7.5000000000000009 9.5000000000000018 15.500000000000002 5.5000000000000009 12.500000000000002 1.0000000180025095e-35 2.5000000000000004
decision_type=2 2 2 2 2 2 2 2 2 2 2 2 2 2 2 2 2 2 2 2 2 2 2 2 2 2 2 2 2 2
left_child=1 6 3 24 26 11 16 8 -7 17 -11 13 15 28 -15 -13 -1 19 27 -10 21 -21 -5 -6 -2 29 -3 -19 -4 -22
right_child=2 4 5 22 23 7 -8 -9 9 10 -12 12 -14 14 -16 -17 -18 18 -20 20 25 -23 -24 -25 -26 -27 -28 -29 -30 -31
leaf_value=-0.14663263289701373 0.0050811696169577522 -0.061343221158559037 -0.014006628640569174 0.03790082275765979 -0.028400052711796294 -0.0044198407729466758 -0.085802399111168409 0.18763004854907483 0.2134284088244805 0.22433508536437663 0.099593972414731988 0.069663149493486703 0.24760711448533193 0.081567964884074973 -0.16686395498422477 0.09479769354803172 -0.11627139724476238 0.18952414038635435 -0.10508956227983748 0.12587331920862196 0.18419521144918494 -0.039598414301872255 0.054804753872028537 -0.012005282461253647 0.021546940516011838 0.036738180150003998 -0.044930863678810572 0.072115529388994778 0.07219915885102185 0.11447995974011319
leaf_weight=378 1715 1355 26 1762 1738 30 1857 89 26 82 32 1176 21 37 26 947 1065 21 21 20 37 24 1532 1683 1560 34 1678 37 473 930
leaf_count=378 1715 1355 26 1762 1738 30 1857 89 26 82 32 1176 21 37 26 947 1065 21 21 20 37 24 1532 1683 1560 34 1678 37 473 930
internal_value=1.2453e-10 -0.0580961 0.0531685 0.029391 -0.0353391 0.0913671 -0.102603 0.118754 0.114017 0.116828 0.18932 0.0773698 0.0825079 0.0577679 -0.0209595 0.0808748 -0.124225 0.109642 0.0562203 0.113583 0.111098 0.035616 0.0457626 -0.0203345 0.0129244 0.114416 -0.0522631 0.114626 0.0677075 0.117147
internal_weight=20412 9754 10658 6569 6454 4089 3300 1383 1294 1264 114 2706 2144 562 63 2123 1443 1150 79 1071 1045 44 3294 3421 3275 1001 3033 58 499 967
internal_count=20412 9754 10658 6569 6454 4089 3300 1383 1294 1264 114 2706 2144 562 63 2123 1443 1150 79 1071 1045 44 3294 3421 3275 1001 3033 58 499 967
is_linear=0
shrinkage=0.1


Tree=18
num_leaves=31
num_cat=0
split_feature=47 47 46 47 47 47 47 41 133 130 137 110 114 118 47 47 139 142 107 123 47 95 47 47 37 47 142 117 46 15
split_gain=5107.07 800.23 789.844 141.822 132.753 131.9 99.0594 41.4625 38.8066 42.6729 77.1122 120.119 151.174 39.8275 33.1759 32.516 28.8788 29.5464 27.0727 28.539 27.0044 21.5344 19.0656 18.6156 17.7226 17.2839 17.267 27.8954 16.8549 16.7927
threshold=8.5000000000000018 4.5000000000000009 12.500000000000002 10.500000000000002 6.5000000000000009 15.500000000000002 1.5000000000000002 9.5000000000000018 1.0000000180025095e-35 14.500000000000002 13.500000000000002 13.500000000000002 15.500000000000002 11.500000000000002 13.500000000000002 17.500000000000004 12.500000000000002 9.5000000000000018 15.500000000000002 7.5000000000000009 3.5000000000000004 19.500000000000004 11.500000000000002 7.5000000000000009 15.500000000000002 9.5000000000000018 3.5000000000000004 5.5000000000000009 5.5000000000000009 14.500000000000002
decision_type=2 2 2 2 2 2 2 2 2 2 2 2 2 2 2 2 2 2 2 2 2 2 2 2 2 2 2 2 2 2
left_child=1 6 3 25 28 14 29 -7 -9 15 11 13 -13 -11 -4 26 -12 -18 19 -17 21 -8 -5 -6 -19 -2 27 -10 -3 -1
right_child=2 4 5 22 23 7 20 8 9 10 16 12 -14 -15 -16 18 17 24 -20 -21 -22 -23 -24 -25 -26 -27 -28 -29 -30 -31
leaf_value=-0.12506676955667675 0.0048322493519511803 -0.055206412877157579 0.062788140745062546 0.033683286626171212 -0.025560047348020268 0.2535375638441606 -0.092461427765887727 -0.013634080472199814 -0.020379189198667352 0.23507550032365893 0.22165894955396653 -0.26657830238342289 0.077825142099307132 0.037897432297468191 0.083250882514223384 0.05803281217813492 0.00044057315046137029 0.091258721376188859 0.25577703435574811 0.17483924833413597 -0.069351727835649302 -0.008248584270627508 0.048697651532348327 -0.010804754654991436 0.1655705280105273 0.019423552813340531 0.12606926257240361 0.13886734680695967 -0.040234571264949809 -0.041827211856842045
leaf_weight=793 1707 1378 1510 1734 1738 22 1483 23 22 21 26 25 26 20 1667 26 22 69 31 107 968 31 1651 1683 60 1548 319 22 1655 25
leaf_count=793 1707 1378 1510 1734 1738 22 1483 23 22 21 26 25 26 20 1667 26 22 69 31 107 968 31 1651 1683 60 1548 319 22 1655 25
internal_value=-5.62343e-13 -0.0522865 0.0478516 0.0266751 -0.0318051 0.0828471 -0.0923431 0.118062 0.114423 0.118123 0.0857154 0.0114514 -0.0910001 0.138891 0.0735251 0.134665 0.124316 0.107555 0.17162 0.152005 -0.0823966 -0.0907371 0.0410064 -0.018301 0.125822 0.0117715 0.117969 0.0592441 -0.0470368 -0.122523
internal_weight=20412 9754 10658 6640 6454 4018 3300 841 819 796 269 92 51 41 3177 527 177 151 164 133 2482 1514 3385 3421 129 3255 363 44 3033 818
internal_count=20412 9754 10658 6640 6454 4018 3300 841 819 796 269 92 51 41 3177 527 177 151 164 133 2482 1514 3385 3421 129 3255 363 44 3033 818
is_linear=0
shrinkage=0.1


Tree=19
num_leaves=31
num_cat=0
split_feature=47 47 46 47 47 47 47 41 133 130 137 108 122 0 2 47 47 145 143 142 2 95 47 121 144 95 77 107 104 113
split_gain=4136.73 648.187 639.773 114.876 107.53 106.839 81.4746 33.5847 31.4334 34.5651 62.4609 99.198 112.313 27.2182 31.3361 26.8725 26.338 22.9722 25.6799 20.3887 39.9331 18.2895 17.8456 19.0948 16.6977 16.6934 16.6916 16.458 16.0246 27.6818
threshold=8.5000000000000018 4.5000000000000009 12.500000000000002 10.500000000000002 6.5000000000000009 15.500000000000002 2.5000000000000004 9.5000000000000018 1.0000000180025095e-35 14.500000000000002 13.500000000000002 13.500000000000002 15.500000000000002 10.500000000000002 8.5000000000000018 13.500000000000002 17.500000000000004 0.25000000000000006 11.500000000000002 5.5000000000000009 2.5000000000000004 18.500000000000004 1.0000000180025095e-35 4.5000000000000009 0.76086956521739146 18.500000000000004 19.500000000000004 17.500000000000004 17.500000000000004 5.5000000000000009
decision_type=2 2 2 2 2 2 2 2 2 2 2 2 2 2 2 2 2 2 2 2 2 2 2 2 2 2 2 2 2 2
left_child=1 6 3 24 27 15 19 -7 -9 16 11 -11 -13 14 -12 25 -10 18 -18 20 -1 -6 23 -21 -2 -4 -5 -3 -17 -30
right_child=2 4 5 26 21 7 -8 8 9 10 13 12 -14 -15 -16 28 17 -19 -20 22 -22 -23 -24 -25 -26 -27 -28 -29 29 -31
leaf_value=0.041933880191020394 0.014801518671399306 -0.04569566596076783 0.05417381043936164 0.035637058221517436 -0.017894832012740877 0.22818380661986093 -0.069257750914531915 -0.012270676571389904 0.10617231545153977 0.13135582491373407 0.1397664351424632 -0.25846572248708632 0.039158765412867072 0.13996611852994842 -0.0060719194548094976 0.079528184259971657 0.15653931892787418 0.18839539119352899 0.033142085029528694 -0.039757554978132249 -0.088982227675561965 0.021075048053264617 -0.098491748113280639 -0.13239795169869409 -0.001598799579001651 0.10384466085635441 0.075772895253150271 -0.02619552806048275 -0.022328346422532713 0.066081769664843498
leaf_weight=27 2420 2510 1439 3278 3296 22 1857 23 363 39 26 21 32 117 34 1366 48 90 26 24 170 125 917 305 835 71 107 523 41 260
leaf_count=27 2420 2510 1439 3278 3296 22 1857 23 363 39 26 21 32 117 34 1366 48 90 26 24 170 125 917 305 835 71 107 523 41 260
internal_value=8.44261e-11 -0.0470578 0.0430665 0.0240076 -0.0286246 0.0745624 -0.0831088 0.106256 0.102981 0.106311 0.0771438 0.0103063 -0.0787679 0.111884 0.0571247 0.0661726 0.121199 0.154458 0.113184 -0.100934 -0.0710394 -0.0164709 -0.10566 -0.12564 0.0105944 0.0565093 0.0369058 -0.0423331 0.0749258 0.0540392
internal_weight=20412 9754 10658 6640 6454 4018 3300 841 819 796 269 92 53 177 60 3177 527 164 74 1443 197 3421 1246 329 3255 1510 3385 3033 1667 301
internal_count=20412 9754 10658 6640 6454 4018 3300 841 819 796 269 92 53 177 60 3177 527 164 74 1443 197 3421 1246 329 3255 1510 3385 3033 1667 301
is_linear=0
shrinkage=0.1


Tree=20
num_leaves=31
num_cat=0
split_feature=47 47 47 47 43 47 47 5 136 47 20 144 142 119 52 138 6 47 142 47 124 95 62 107 92 49 18 105 133 112
split_gain=3350.75 525.031 519.881 94.0514 89.3434 87.099 67.4967 31.11 54.8704 38.1839 31.5464 21.5826 26.8253 60.5729 36.6264 31.6941 51.7565 26.2135 29.5445 19.5409 18.101 17.5388 17.0935 17.0218 16.989 19.5823 16.0062 15.8559 61.0693 17.1744
threshold=8.5000000000000018 4.5000000000000009 12.500000000000002 10.500000000000002 14.500000000000002 6.5000000000000009 1.5000000000000002 18.500000000000004 1.0000000180025095e-35 19.500000000000004 13.500000000000002 0.58695652173913049 4.5000000000000009 3.5000000000000004 6.5000000000000009 5.5000000000000009 11.500000000000002 14.500000000000002 3.5000000000000004 3.5000000000000004 5.5000000000000009 19.500000000000004 1.0000000180025095e-35 9.5000000000000018 19.500000000000004 16.500000000000004 11.500000000000002 18.500000000000004 18.500000000000004 4.5000000000000009
decision_type=2 2 2 2 2 2 2 2 2 2 2 2 2 2 2 2 2 2 2 2 2 2 2 2 2 2 2 2 2 2
left_child=1 6 3 -2 11 -3 -1 8 -6 24 -11 17 13 -13 26 16 -16 -4 -19 21 -14 -8 -22 -12 27 -26 -15 29 -29 -10
right_child=2 5 4 -5 7 -7 19 -9 9 10 23 12 20 14 15 -17 -18 18 -20 -21 22 -23 -24 -25 25 -27 -28 28 -30 -31
leaf_value=-0.099709881346190035 0.0093345747151277001 -0.0380998171558877 0.060582261302956832 0.033265789287446411 -0.058627730837235083 -0.01482381970191239 -0.075238593822484559 0.15826511734821758 0.047504399475068432 0.2370011039574941 0.16206068266992985 -0.13804813975778718 0.09839633133262396 0.15612089393230588 -0.17601439081132414 0.099617850333452232 0.024622184493475491 -0.0077225285768508919 0.12310965700104598 -0.055490780572507004 -0.022899420373141768 0.00076094368292439372 0.051299321938438128 0.035919251441955569 0.083390194892883296 0.21437790674113094 0.04287124536931515 0.079673278308274531 -0.095441390946507457 0.090595218055891602
leaf_weight=818 3275 3033 1350 3294 26 3421 1483 61 104 30 23 24 80 26 20 20 36 20 126 968 32 31 1044 20 25 21 24 117 24 836
leaf_count=818 3275 3033 1350 3294 26 3421 1483 61 104 30 23 24 80 26 20 20 36 20 126 968 32 31 1044 20 25 21 24 117 24 836
internal_value=1.58085e-10 -0.0423521 0.0387598 0.0213348 0.0667532 -0.0257622 -0.0747979 0.0885638 0.0850958 0.0882098 0.158299 0.0567353 0.0473421 0.00755577 0.0352898 -0.00844121 -0.0470337 0.0649354 0.105187 -0.0665876 0.0525047 -0.0736825 0.0490927 0.10339 0.0836699 0.143189 0.101761 0.0811371 0.0498665 0.0858277
internal_weight=20412 9754 10658 6569 4089 6454 3300 1287 1226 1200 73 2802 1306 150 126 76 56 1496 146 2482 1156 1514 1076 43 1127 46 50 1081 141 940
internal_count=20412 9754 10658 6569 4089 6454 3300 1287 1226 1200 73 2802 1306 150 126 76 56 1496 146 2482 1156 1514 1076 43 1127 46 50 1081 141 940
is_linear=0
shrinkage=0.1


Tree=21
num_leaves=31
num_cat=0
split_feature=47 47 47 45 47 45 47 6 133 15 131 47 144 0 11 47 142 115 143 120 46 47 116 142 50 98 116 140 45 35
split_gain=2714.11 426.96 425.275 113.807 70.5502 55.5789 35.3484 28.8571 30.3488 23.2914 35.2653 67.2115 39.0359 29.8927 52.2479 36.57 26.4812 30.8799 26.522 25.5252 23.218 22.2572 22.1097 19.9903 39.3887 19.9864 17.7767 21.0153 15.5201 15.2948
threshold=8.5000000000000018 11.500000000000002 4.5000000000000009 14.500000000000002 6.5000000000000009 2.5000000000000004 9.5000000000000018 17.500000000000004 1.0000000180025095e-35 6.5000000000000009 19.500000000000004 16.500000000000004 0.63043478260869579 15.500000000000002 14.500000000000002 16.500000000000004 4.5000000000000009 2.5000000000000004 12.500000000000002 1.0000000180025095e-35 12.500000000000002 16.500000000000004 9.5000000000000018 5.5000000000000009 2.5000000000000004 10.500000000000002 5.5000000000000009 2.5000000000000004 7.5000000000000009 16.500000000000004
decision_type=2 2 2 2 2 2 2 2 2 2 2 2 2 2 2 2 2 2 2 2 2 2 2 2 2 2 2 2 2 2
left_child=2 6 5 20 28 23 -2 8 -5 22 13 12 -12 15 -15 19 -17 -18 -19 -11 -3 -22 -10 24 -1 -20 -21 -28 -4 -9
right_child=1 3 4 7 -6 -7 -8 29 9 10 11 -13 -14 14 -16 16 17 18 25 26 21 -23 -24 -25 -26 -27 27 -29 -30 -31
leaf_value=0.052646186736722791 0.0020812009122906901 0.036370834123943353 -0.035651133842015369 -0.039012031030395758 -0.013341438121281324 -0.056094953024728327 0.019759431287359217 0.18518407506602153 0.20953927826881411 -0.035750735754316504 0.14933180531551099 -0.13044938035309314 -0.02307930166522662 0.099292223572569061 -0.12170641619712115 0.024190362086219174 0.0055507278158551179 0.16738001308609954 0.0091885106265544893 0.10997352152572651 0.050673156359266107 0.14742473028600217 0.08640952961785453 -0.087144020599023639 -0.071693032051949102 0.1178629723688077 -0.031194420974879039 0.070442591335469956 0.0032999758450490122 0.10031756195757124
leaf_weight=30 1715 1645 2927 23 3421 1888 3322 35 25 22 29 24 24 23 20 31 21 113 20 114 2557 24 35 1213 169 110 21 651 106 54
leaf_count=30 1715 1645 2927 23 3421 1888 3322 35 25 22 29 24 24 23 20 31 21 113 20 114 2557 24 35 1213 169 110 21 651 106 54
internal_value=8.01091e-11 0.0348838 -0.0381169 0.0538306 -0.023186 -0.0673181 0.0137403 0.0785966 0.074842 0.0768831 0.0738987 0.00838875 0.0712589 0.0783004 -0.00349784 0.0814892 0.111624 0.121891 0.131945 0.070487 0.0456553 0.0515728 0.137714 -0.0823247 -0.0529484 0.101144 0.0734606 0.0672664 -0.0342898 0.133692
internal_weight=20412 10658 9754 5621 6454 3300 5037 1395 1306 1283 1223 77 53 1146 43 1103 295 264 243 808 4226 2581 60 1412 199 130 786 672 3033 89
internal_count=20412 10658 9754 5621 6454 3300 5037 1395 1306 1283 1223 77 53 1146 43 1103 295 264 243 808 4226 2581 60 1412 199 130 786 672 3033 89
is_linear=0
shrinkage=0.1


Tree=22
num_leaves=31
num_cat=0
split_feature=47 46 47 45 47 47 47 5 136 47 20 132 46 135 95 30 47 95 69 78 144 144 30 53 139 27 46 0 26 47
split_gain=2198.43 349.527 345.838 92.184 83.7934 30.3746 28.6322 24.4138 25.2644 26.8513 20.2966 19.188 19.0688 19.9968 76.0101 18.5664 15.4708 14.8469 26.0552 22.6857 14.2308 17.9534 16.2105 14.5813 13.7121 13.4702 18.6065 84.1104 50.3396 20.7879
threshold=8.5000000000000018 5.5000000000000009 11.500000000000002 14.500000000000002 2.5000000000000004 7.5000000000000009 9.5000000000000018 17.500000000000004 1.0000000180025095e-35 19.500000000000004 13.500000000000002 19.500000000000004 13.500000000000002 1.5000000000000002 9.5000000000000018 2.5000000000000004 16.500000000000004 18.500000000000004 18.500000000000004 19.500000000000004 0.282608695652174 0.67391304347826098 14.500000000000002 1.0000000180025095e-35 14.500000000000002 5.5000000000000009 17.500000000000004 8.5000000000000018 15.500000000000002 17.500000000000004
decision_type=2 2 2 2 2 2 2 2 2 2 2 2 2 2 2 2 2 2 2 2 2 2 2 2 2 2 2 2 2 2
left_child=1 4 6 12 20 11 -2 8 -5 25 -11 -3 17 14 -14 -6 -15 -4 24 -20 -1 22 23 -22 -19 -10 29 -28 -29 -27
right_child=2 5 3 7 15 -7 -8 -9 9 10 -12 -13 13 16 -16 -17 -18 18 19 -21 21 -23 -24 -25 -26 26 27 28 -30 -31
leaf_value=-0.088529901060961869 0.0018730803629052187 -0.023779051237583913 0.035387566645192554 -0.023405046065648399 -0.064619772258352068 -0.0052054792816069589 0.017783488379707276 0.12172010701827028 0.14525289507139297 0.1847982992144192 0.079091762789548978 0.0044291800808632506 0.10089230924844741 0.053617282565457086 -0.13520250271447004 -0.04222985901429524 0.13654264451368997 0.12164151232311692 -0.065696968915669826 0.058941627219319351 0.017533972108503805 -0.082728761874174619 0.033179993005469442 -0.062290202841452307 0.051156351164631221 0.065870939162350844 -0.15411185700268973 0.14859949589559907 -0.038841188375068753 0.16194942127103393
leaf_weight=471 1715 3170 2940 30 427 1675 3322 88 21 34 39 261 30 1030 25 2792 23 69 23 40 24 422 20 492 46 1078 21 38 23 23
leaf_count=471 1715 3170 2940 30 427 1675 3322 88 21 34 39 261 30 1030 25 2792 23 69 23 40 24 422 20 492 46 1078 21 38 23 23
internal_value=7.62302e-11 -0.0343052 0.0313954 0.0484475 -0.0541458 -0.0162442 0.0123663 0.0707369 0.0673043 0.0694353 0.128325 -0.0216332 0.0410898 0.0523583 -0.00642351 -0.0451999 0.0554286 0.0370855 0.0651297 0.0134386 -0.0742978 -0.0673005 -0.0551537 -0.0585775 0.0934474 0.0658647 0.0644554 0.018501 0.0779251 0.067878
internal_weight=20412 9754 10658 5621 4648 5106 5037 1395 1307 1277 73 3431 4226 1108 55 3219 1053 3118 178 63 1429 958 536 516 115 1204 1183 82 61 1101
internal_count=20412 9754 10658 5621 4648 5106 5037 1395 1307 1277 73 3431 4226 1108 55 3219 1053 3118 178 63 1429 958 536 516 115 1204 1183 82 61 1101
is_linear=0
shrinkage=0.1


Tree=23
num_leaves=31
num_cat=0
split_feature=47 47 44 47 47 47 47 47 133 135 47 95 37 138 69 133 140 117 44 47 116 111 118 122 139 0 5 56 100 108
split_gain=1780.72 285.967 282.462 77.4289 69.4094 27.1364 23.9687 23.7433 26.9322 22.838 22.0227 19.1177 18.811 25.5331 23.3343 32.4827 76.5261 32.9441 18.6536 29.556 46.7232 17.305 16.0964 25.3356 22.0795 17.8701 49.0059 19.3029 19.8135 15.7118
threshold=8.5000000000000018 5.5000000000000009 11.500000000000002 13.500000000000002 3.5000000000000004 9.5000000000000018 7.5000000000000009 15.500000000000002 1.0000000180025095e-35 1.0000000180025095e-35 1.5000000000000002 18.500000000000004 11.500000000000002 9.5000000000000018 19.500000000000004 18.500000000000004 8.5000000000000018 14.500000000000002 6.5000000000000009 13.500000000000002 8.5000000000000018 2.5000000000000004 3.5000000000000004 3.5000000000000004 1.5000000000000002 15.500000000000002 18.500000000000004 1.0000000180025095e-35 1.5000000000000002 16.500000000000004
decision_type=2 2 2 2 2 2 2 2 2 2 2 2 2 2 2 2 2 2 2 2 2 2 2 2 2 2 2 2 2 2
left_child=1 4 5 -4 10 -2 29 -5 -9 -10 -1 18 13 -11 15 22 -17 -18 -7 -20 -21 -13 23 -14 -24 27 -27 -26 -29 -3
right_child=2 6 3 7 -6 11 -8 8 9 12 -12 21 14 -15 -16 16 17 -19 19 20 -22 -23 24 -25 25 26 -28 28 -30 -31
leaf_value=-0.074203258738904279 0.0012225269659736507 -0.022914935352539651 0.033198163019391533 0.050348781925043329 -0.036560548502619909 0.10652542910115287 -0.004746838686495258 -0.038134395940737295 0.17953362867236139 0.18479438261552292 -0.053839422109114847 -0.039954857765273619 0.041015983999160857 0.067250298721981905 0.12296910164031116 -0.15780494046312843 -0.011439677928724598 0.13684107877057175 0.015227958911402582 -0.16574167071477228 0.040567843190261299 0.053264992279665815 -0.022018101811408997 0.16196400904378228 -0.021883021518588067 -0.1071520571410656 0.111569359259946 -0.018276481381617488 0.083815183166492113 -0.0065076132655303327
leaf_weight=818 1666 2669 2894 1670 2323 22 1683 22 20 33 1514 22 29 42 66 22 31 29 3299 23 21 210 29 43 20 20 21 20 384 747
leaf_count=818 1666 2669 2894 1670 2323 22 1683 22 20 33 1514 22 29 42 66 22 31 29 3299 23 21 210 29 43 20 20 21 20 384 747
internal_value=1.07863e-10 -0.0308747 0.0282559 0.044335 -0.0487951 0.0117735 -0.0145146 0.0572219 0.0710344 0.0740032 -0.0609825 0.0166603 0.0713281 0.11897 0.0663238 0.0605543 0.00173235 0.0602294 0.0147461 0.0141421 -0.0672758 0.0444252 0.0690762 0.113249 0.0626381 0.0679178 0.00487599 0.0740138 0.0787611 -0.019327
internal_weight=20412 9754 10658 5395 4655 5263 5099 2501 831 809 2332 3597 789 75 714 648 82 60 3365 3343 44 232 566 72 494 465 41 424 404 3416
internal_count=20412 9754 10658 5395 4655 5263 5099 2501 831 809 2332 3597 789 75 714 648 82 60 3365 3343 44 232 566 72 494 465 41 424 404 3416
is_linear=0
shrinkage=0.1


Tree=24
num_leaves=31
num_cat=0
split_feature=47 47 46 47 46 47 47 41 133 130 136 94 86 0 143 101 37 66 79 106 138 144 144 95 117 130 22 144 74 144
split_gain=1442.39 232.911 232.558 43.84 39.9072 37.332 32.8728 21.832 19.99 20.2299 49.4641 113.306 47.9906 33.8322 40.8084 29.9414 25.5228 21.8141 19.1961 16.5824 15.4886 14.8474 16.4566 14.6419 16.3971 14.3511 14.2989 13.6034 13.1739 13.1083
threshold=8.5000000000000018 4.5000000000000009 12.500000000000002 10.500000000000002 6.5000000000000009 15.500000000000002 1.5000000000000002 10.500000000000002 1.0000000180025095e-35 14.500000000000002 13.500000000000002 15.500000000000002 8.5000000000000018 10.500000000000002 9.5000000000000018 13.500000000000002 15.500000000000002 11.500000000000002 1.5000000000000002 18.500000000000004 15.500000000000002 0.80434782608695665 0.282608695652174 1.0000000180025095e-35 10.500000000000002 16.500000000000004 14.500000000000002 0.71739130434782616 14.500000000000002 0.76086956521739146
decision_type=2 2 2 2 2 2 2 2 2 2 2 2 2 2 2 2 2 2 2 2 2 2 2 2 2 2 2 2 2 2
left_child=1 6 3 29 25 -4 26 -7 -9 18 11 12 -11 15 20 16 -12 -16 -10 -20 -15 22 -6 27 28 -3 -1 -8 -25 -2
right_child=2 4 5 -5 21 7 23 8 9 10 13 -13 -14 14 17 -17 -18 -19 19 -21 -22 -23 -24 24 -26 -27 -28 -29 -30 -31
leaf_value=-0.069178449123100658 0.009380995261844648 -0.028463817853099201 0.039460160913632414 0.021907514314135564 -0.01492115857981449 0.15162070656402246 -0.057550862216734666 -0.031680798789729243 0.0016840022714699017 -0.046639701114459475 -0.015844514446022608 -0.19713834455380075 0.15403881093057303 0.24265414938330651 -0.033070446848869325 -0.093883909806609156 0.13711262419819834 0.08534978270530702 0.073386717241808438 0.13586343874798176 0.11820093967020512 -0.021366266283312771 0.0011452306687396809 -0.036931698760633805 -0.049999293462760129 -0.011416511515663976 0.0061881471138734087 -0.12984548544182498 -0.0021756836808607227 -0.0051500800588798381
leaf_weight=792 2420 2442 3177 3385 1105 27 111 23 34 22 24 26 26 20 20 20 20 70 442 47 20 781 1507 1028 1187 619 26 34 122 835
leaf_count=792 2420 2442 3177 3385 1105 27 111 23 34 22 24 26 26 20 20 20 20 70 442 47 20 781 1507 1028 1187 619 26 34 122 835
internal_value=-5.82305e-13 -0.0277872 0.0254303 0.0139396 -0.0167376 0.0444195 -0.0493975 0.0631542 0.0602198 0.062892 0.0405516 -0.0290089 0.0620612 0.067085 0.096386 0.00756728 0.0536815 0.0590342 0.0743399 0.0793916 0.180428 -0.00926881 -0.00565161 -0.0436677 -0.0417545 -0.0250165 -0.0667829 -0.0745027 -0.0332445 0.00565336
internal_weight=20412 9754 10658 6640 6454 4018 3300 841 814 791 268 74 48 194 130 64 44 90 523 489 40 3393 2612 2482 2337 3061 818 145 1150 3255
internal_count=20412 9754 10658 6640 6454 4018 3300 841 814 791 268 74 48 194 130 64 44 90 523 489 40 3393 2612 2482 2337 3061 818 145 1150 3255
is_linear=0
shrinkage=0.1


Tree=25
num_leaves=31
num_cat=0
split_feature=47 47 46 46 47 43 136 141 47 106 135 95 47 20 106 139 116 142 99 130 132 140 139 144 144 95 74 69 104 38
split_gain=1168.88 269.77 124.767 46.4872 35.7209 30.9832 22.7984 113.959 20.8824 16.7229 24.1948 46.0125 14.8045 14.5674 14.4543 14.2704 22.0039 43.6953 15.7667 26.372 14.2656 13.89 22.9743 13.5266 13.3808 13.2892 13.2184 20.0397 24.4979 12.9409
threshold=9.5000000000000018 5.5000000000000009 12.500000000000002 2.5000000000000004 7.5000000000000009 14.500000000000002 1.5000000000000002 6.5000000000000009 19.500000000000004 18.500000000000004 3.5000000000000004 9.5000000000000018 11.500000000000002 13.500000000000002 9.5000000000000018 1.5000000000000002 6.5000000000000009 7.5000000000000009 19.500000000000004 18.500000000000004 1.0000000180025095e-35 1.5000000000000002 1.5000000000000002 0.97826086956521752 0.41304347826086962 1.0000000180025095e-35 15.500000000000002 13.500000000000002 12.500000000000002 11.500000000000002
decision_type=2 2 2 2 2 2 2 2 2 2 2 2 2 2 2 2 2 2 2 2 2 2 2 2 2 2 2 2 2 2
left_child=1 3 12 -1 26 9 7 -7 -8 -4 11 -11 -2 -10 -15 -12 17 -17 29 -20 -14 -22 -23 24 -5 -26 -3 28 -28 -18
right_child=2 4 5 23 -6 6 8 -9 13 10 15 -13 20 14 -16 16 18 -19 19 -21 21 22 -24 -25 25 -27 27 -29 -30 -31
leaf_value=-0.054656199148826905 0.012564738664014459 -0.018046001417102168 0.037465872037714044 -0.039165099065969974 -0.0011952310413277855 0.11738118113893453 0.052423301759412816 -0.15963847714441795 0.16034242550532024 0.052705741187800539 0.10074953849872817 -0.14146575208466788 -0.040914350838372207 0.11985800475148219 0.011541918258775366 -0.15647643409669398 0.1064304938805955 0.027874469363854994 0.034238694533705712 -0.1020707326179201 0.06639643808520293 -0.057886362163459548 0.025238870070919246 -0.065816265295359708 -0.071388030532867672 -0.024242911674859771 -0.0082645124622753689 -0.0063062081037431345 0.14637886948883536 0.033798932515536298
leaf_weight=1435 3282 2983 2298 1360 3398 33 1156 27 30 23 23 26 33 28 22 20 28 36 40 22 79 34 1505 121 62 1677 21 392 20 198
leaf_count=1435 3282 2983 2298 1360 3398 33 1156 27 30 23 23 26 33 28 22 20 28 36 40 22 79 34 1505 121 62 1677 21 392 20 198
internal_value=5.04535e-11 -0.021131 0.0270996 -0.0396867 -0.00845474 0.0402003 0.0529204 -0.00727767 0.0558427 0.0341261 0.0156768 -0.050324 0.0164502 0.105253 0.0721989 0.0244889 0.0193901 -0.0379651 0.0305425 -0.0141292 0.0241741 0.0255017 0.0234024 -0.0330154 -0.0317347 -0.0259238 -0.015676 0.000651245 0.0671713 0.0427975
internal_weight=20412 11469 8943 4655 6814 4010 1296 60 1236 2714 416 49 4933 80 50 367 344 56 288 62 1651 1618 1539 3220 3099 1739 3416 433 41 226
internal_count=20412 11469 8943 4655 6814 4010 1296 60 1236 2714 416 49 4933 80 50 367 344 56 288 62 1651 1618 1539 3220 3099 1739 3416 433 41 226
is_linear=0
shrinkage=0.1


Tree=26
num_leaves=31
num_cat=0
split_feature=47 46 44 47 30 95 144 144 95 47 36 105 105 135 96 110 110 101 92 47 48 45 41 143 47 19 95 19 138 129
split_gain=949.483 156.971 156.043 44.9247 40.3392 21.2969 18.9447 27.2792 19.7863 16.8008 22.3779 26.1293 16.4076 30.706 26.6663 24.7347 65.9917 21.835 21.7276 21.3181 17.9526 15.5991 15.5384 20.667 15.1725 14.3567 30.871 18.2334 49.7158 14.964
threshold=8.5000000000000018 5.5000000000000009 11.500000000000002 13.500000000000002 2.5000000000000004 19.500000000000004 0.80434782608695665 0.282608695652174 19.500000000000004 3.5000000000000004 1.0000000180025095e-35 12.500000000000002 18.500000000000004 3.5000000000000004 5.5000000000000009 18.500000000000004 17.500000000000004 17.500000000000004 18.500000000000004 15.500000000000002 17.500000000000004 9.5000000000000018 10.500000000000002 14.500000000000002 1.0000000180025095e-35 15.500000000000002 6.5000000000000009 14.500000000000002 5.5000000000000009 16.500000000000004
decision_type=2 2 2 2 2 2 2 2 2 2 2 2 2 2 2 2 2 2 2 2 2 2 2 2 2 2 2 2 2 2
left_child=1 4 5 -4 -1 21 7 -3 -9 10 11 -6 22 -14 -15 16 20 19 -19 -17 -16 -2 23 -5 -12 27 -27 -24 -29 -30
right_child=2 6 3 12 9 -7 -8 8 -10 -11 24 -13 13 14 15 17 -18 18 -20 -21 -22 -23 25 -25 -26 26 -28 28 29 -31
leaf_value=-0.050985289202728615 -3.3652050981523835e-05 -0.017003591279701694 0.024100556753320929 0.16703528178234894 -0.046493713557720188 0.043306137291306751 -0.02188016226785984 -0.0014724303221639807 0.066998578209516615 -0.024778432674939357 -0.076740165370957639 0.1076294636184519 -0.063866129900152627 -0.062469239905476572 0.063798666081217301 0.066593588526759825 -0.14294525122512944 0.074001678465693096 -0.035865819433497058 0.18749897527694703 -0.026552636818639164 0.01144299389306833 0.044591219164960574 0.02939543381333351 -0.038358940968626888 0.0097505396125572089 0.087490739350123387 -0.11137617946203267 0.050350991484977438 -0.025824460031634029
leaf_weight=1276 1873 1656 2894 24 22 169 1128 2279 43 2147 114 22 37 27 91 35 23 54 27 25 29 3221 1671 20 1067 70 189 28 118 33
leaf_count=1276 1873 1656 2894 24 22 169 1128 2279 43 2147 114 22 37 27 91 35 23 54 27 25 29 3221 1671 20 1067 70 189 28 118 33
internal_value=3.16064e-11 -0.0225448 0.0206326 0.0325837 -0.035841 0.00838183 -0.0104413 -0.00719776 -0.000204449 -0.0301102 -0.039455 0.0305679 0.0423998 0.0222533 0.0324991 0.0415277 0.0122232 0.071248 0.0373792 0.116971 0.0419638 0.00722317 0.0456561 0.104472 -0.0420638 0.0444291 0.0664799 0.0413419 0.0110094 0.0337034
internal_weight=20412 9754 10658 5395 4648 5263 5106 3978 2322 3372 1225 44 2501 348 311 284 143 141 81 60 120 5094 2153 44 1181 2109 259 1850 179 151
internal_count=20412 9754 10658 5395 4648 5263 5106 3978 2322 3372 1225 44 2501 348 311 284 143 141 81 60 120 5094 2153 44 1181 2109 259 1850 179 151
is_linear=0
shrinkage=0.1


Tree=27
num_leaves=31
num_cat=0
split_feature=47 47 47 43 144 144 74 46 136 141 92 45 136 75 48 95 128 44 131 75 143 12 34 24 33 105 23 140 67 95
split_gain=772.757 180.161 89.2615 36.5698 20.1592 19.0456 19.7322 17.8451 17.7453 95.4486 20.6056 21.3557 15.5929 15.1619 29.6152 13.7018 13.6779 12.8212 12.1557 13.9976 19.8064 12.1128 11.9942 11.6976 15.8187 65.6794 23.4373 18.0144 12.5354 17.6736
threshold=7.5000000000000009 11.500000000000002 3.5000000000000004 14.500000000000002 0.76086956521739146 0.41304347826086962 11.500000000000002 5.5000000000000009 1.5000000000000002 6.5000000000000009 19.500000000000004 16.500000000000004 4.5000000000000009 1.5000000000000002 2.5000000000000004 19.500000000000004 13.500000000000002 8.5000000000000018 18.500000000000004 16.500000000000004 14.500000000000002 15.500000000000002 6.5000000000000009 15.500000000000002 15.500000000000002 18.500000000000004 10.500000000000002 2.5000000000000004 9.5000000000000018 14.500000000000002
decision_type=2 2 2 2 2 2 2 2 2 2 2 2 2 2 2 2 2 2 2 2 2 2 2 2 2 2 2 2 2 2
left_child=2 4 15 17 5 -2 -7 -4 9 -5 12 -12 -10 14 -14 -1 -17 -3 -9 -20 -21 22 -8 24 27 26 -26 -15 -28 -30
right_child=1 3 7 8 -6 6 21 18 10 -11 11 -13 13 23 -16 16 -18 -19 19 20 -22 -23 -24 -25 25 -27 28 -29 29 -31
leaf_value=-0.041569981171244053 0.0022918554157083243 0.082336024890996909 -0.024079052843360527 0.10341193384956569 -0.004653757475465428 0.0084594268692851481 -0.0095559266855984575 -0.014948168439325102 0.080537710678489777 -0.15736976540088654 0.050742255608950342 0.16911096241739063 0.041695213397033519 0.13574478441760654 -0.10495502180641605 -0.041010434031486513 0.075942229591310029 0.023992319530501356 -0.0042362466857813709 0.10360018514817762 -0.011373418877864708 0.087831053905414819 0.030879695961772209 0.064359121495590907 -0.049545140993884872 -0.13927917072176935 0.088539062200912413 0.041580080516173325 -0.024379889584249921 0.073396885424153888
leaf_weight=2292 2740 38 2339 32 1720 1564 84 2989 102 25 35 27 40 21 21 20 20 4276 351 31 29 33 579 198 27 25 56 624 36 38
leaf_count=2292 2740 38 2339 32 1720 1564 84 2989 102 25 35 27 40 21 21 20 20 4276 351 31 29 33 579 198 27 25 56 624 36 38
internal_value=-9.01667e-12 0.015735 -0.0240597 0.0289459 0.00468465 0.00789706 0.0146927 -0.017356 0.0435999 -0.010966 0.0460881 0.10229 0.0431551 0.039644 -0.00879093 -0.0405574 0.0174659 0.0245062 -0.0127309 0.00339381 0.0480296 0.0286998 0.0257566 0.0425265 0.0372993 0.0112632 0.0352349 0.0446459 0.052843 0.0258298
internal_weight=20412 12341 8071 5621 6720 5000 2260 5739 1307 57 1250 62 1188 1086 61 2332 40 4314 3400 411 60 696 663 1025 827 182 157 645 130 74
internal_count=20412 12341 8071 5621 6720 5000 2260 5739 1307 57 1250 62 1188 1086 61 2332 40 4314 3400 411 60 696 663 1025 827 182 157 645 130 74
is_linear=0
shrinkage=0.1


Tree=28
num_leaves=31
num_cat=0
split_feature=47 47 47 47 137 114 19 14 41 143 47 47 42 63 46 25 116 132 105 120 136 132 140 139 120 5 116 144 95 141
split_gain=633.861 142.335 68.0628 27.7602 22.8395 74.4663 43.6807 25.5404 22.0466 32.9525 18.7837 15.8043 13.8642 32.9677 12.802 24.0607 25.9296 19.0916 18.0666 19.4726 59.6451 16.5052 15.2515 19.0343 15.3196 30.1318 35.7054 14.6339 20.9274 116.986
threshold=9.5000000000000018 5.5000000000000009 13.500000000000002 1.5000000000000002 1.5000000000000002 3.5000000000000004 14.500000000000002 10.500000000000002 10.500000000000002 14.500000000000002 7.5000000000000009 11.500000000000002 11.500000000000002 13.500000000000002 16.500000000000004 9.5000000000000018 13.500000000000002 19.500000000000004 19.500000000000004 16.500000000000004 14.500000000000002 14.500000000000002 1.0000000180025095e-35 1.5000000000000002 1.5000000000000002 10.500000000000002 7.5000000000000009 0.63043478260869579 17.500000000000004 8.5000000000000018
decision_type=2 2 2 2 2 2 2 2 2 2 2 2 2 2 2 2 2 2 2 2 2 2 2 2 2 2 2 2 2 2
left_child=1 3 11 -1 5 -4 7 -7 9 -6 -3 -2 13 -10 22 16 -16 18 19 21 -21 -17 -14 -24 25 -25 -27 -26 -29 -30
right_child=2 10 4 -5 8 6 -8 -9 12 -11 -12 -13 14 -15 15 17 -18 -19 -20 20 -22 -23 23 24 27 26 -28 28 29 -31
leaf_value=-0.045764276700681832 0.0096426025516951272 -0.011589646767617687 -0.12510107045895177 -0.025473517221237241 0.13101096145276511 -0.016671394770188877 -0.090732369678361083 0.10538831119736036 -0.090285804654870724 0.0011320650080839793 -0.0010888683614186754 0.019612155833991521 0.093031278047710664 0.071293791221535729 -0.10188220284879208 0.062510409997126398 0.05380510188963103 -0.02725445670278176 0.15672904806477683 -0.1303159037232399 0.089824242261238404 0.13948805276304485 -0.052728429767820578 0.065214682556688788 0.040333588634437166 -0.14383999672811479 0.03542200461030006 0.029503544206445173 -0.22437755189497366 0.036004446158840436
leaf_weight=818 3322 3416 38 3837 56 24 21 60 28 30 3398 3050 40 23 20 215 23 23 21 20 32 32 27 30 1156 25 20 505 22 80
leaf_count=818 3322 3416 38 3837 56 24 21 60 28 30 3398 3050 40 23 20 215 23 23 21 20 32 32 27 30 1156 25 20 505 22 80
internal_value=2.59673e-11 -0.0155608 0.0199561 -0.0290391 0.0336902 -0.0051471 0.0382648 0.0705141 0.0359776 0.0857044 -0.00635313 0.0144146 0.0341516 -0.0174166 0.0352995 0.0519061 -0.0186076 0.060746 0.067071 0.060774 0.00515496 0.0724832 0.0319346 0.0306242 0.0318487 -0.0124149 -0.064168 0.0337317 0.0211587 -0.0201564
internal_weight=20412 11469 8943 4655 2571 143 105 84 2428 86 6814 6372 2342 51 2291 386 43 343 320 299 52 247 1905 1865 1838 75 45 1763 607 102
internal_count=20412 11469 8943 4655 2571 143 105 84 2428 86 6814 6372 2342 51 2291 386 43 343 320 299 52 247 1905 1865 1838 75 45 1763 607 102
is_linear=0
shrinkage=0.1


Tree=29
num_leaves=31
num_cat=0
split_feature=47 47 46 30 144 144 95 36 63 47 25 77 47 29 109 112 5 96 96 110 109 140 113 86 123 129 123 39 134 47
split_gain=513.427 115.291 56.5987 23.8446 17.9149 27.5214 18.5189 16.8347 24.1966 17.495 14.9596 12.1479 11.8621 20.9613 33.9635 68.0377 37.6706 23.4369 56.9809 21.7347 49.5293 22.6772 24.8298 41.1588 33.493 33.4762 58.838 24.4213 21.2716 19.074
threshold=9.5000000000000018 5.5000000000000009 12.500000000000002 2.5000000000000004 0.76086956521739146 0.282608695652174 19.500000000000004 1.0000000180025095e-35 2.5000000000000004 1.0000000180025095e-35 18.500000000000004 19.500000000000004 14.500000000000002 11.500000000000002 19.500000000000004 15.500000000000002 10.500000000000002 15.500000000000002 14.500000000000002 18.500000000000004 17.500000000000004 1.0000000180025095e-35 7.5000000000000009 15.500000000000002 13.500000000000002 8.5000000000000018 9.5000000000000018 18.500000000000004 18.500000000000004 16.500000000000004
decision_type=2 2 2 2 2 2 2 2 2 2 2 2 2 2 2 2 2 2 2 2 2 2 2 2 2 2 2 2 2 2
left_child=1 3 11 -1 5 -3 -7 8 -5 -9 12 -2 -4 28 17 -16 -17 18 19 20 21 -15 23 24 25 -23 -27 29 -14 -24
right_child=2 4 10 7 -6 6 -8 9 -10 -11 -12 -13 13 14 15 16 -18 -19 -20 -21 -22 22 27 -25 -26 26 -28 -29 -30 -31
leaf_value=-0.037813450186201948 0.0099090487967127879 -0.011573243514068571 0.021711863851521622 -0.038274419307708744 -0.014243435175543993 0.0024316323218670612 0.061004162031141201 -0.06092944128357846 0.10253275486712272 -0.021235129692771051 0.068288788396645997 0.038809875530035551 0.047268173443498436 0.11382840750118098 -0.17565961529035123 -0.10146499589085578 0.057689701624471568 0.060251303612535181 -0.10473331879034187 0.082589072936347555 -0.12711914795495213 0.038661389146000147 0.033381832699946566 -0.12449792090058327 0.12240157946944237 -0.16775337135020113 0.022247243920962015 -0.053706592707722281 0.13562405765056612 0.087231429901916582
leaf_weight=1271 4783 2040 2490 23 1810 2909 55 115 26 3220 85 150 297 30 24 20 58 229 33 70 21 80 317 25 24 28 39 27 30 83
leaf_count=1271 4783 2040 2490 23 1810 2909 55 115 26 3220 85 150 297 30 24 20 58 229 33 70 21 80 317 25 24 28 39 27 30 83
internal_value=1.58637e-11 -0.0140048 0.0179605 -0.0261352 -0.00571781 -0.00263401 0.0035185 -0.021749 0.0364396 -0.0226039 0.0267841 0.0107878 0.0258852 0.0331268 0.026561 -0.0284228 0.0168808 0.0321359 0.0238497 0.029553 0.0240448 0.0289061 0.0248167 -0.00464975 0.0128719 -0.00501048 -0.057156 0.0383423 0.0553742 0.0445556
internal_weight=20412 11469 8943 4655 6814 5004 2964 3384 49 3335 4010 4933 3925 1435 1108 102 78 1006 777 744 674 653 623 196 171 147 67 427 327 400
internal_count=20412 11469 8943 4655 6814 5004 2964 3384 49 3335 4010 4933 3925 1435 1108 102 78 1006 777 744 674 653 623 196 171 147 67 427 327 400
is_linear=0
shrinkage=0.1


Tree=30
num_leaves=31
num_cat=0
split_feature=47 45 44 47 95 95 96 30 46 32 69 57 93 61 143 3 104 87 117 90 138 139 85 137 92 131 103 89 137 143
split_gain=419.581 72.6624 72.1169 20.2667 13.744 13.7176 19.5127 13.0305 12.9665 12.8134 11.6225 12.0181 11.4548 11.2262 14.4961 23.0594 11.1531 31.8437 33.9849 49.3585 24.8998 42.5132 17.2916 25.5886 19.2103 14.9831 14.6824 17.6526 94.9544 22.6663
threshold=8.5000000000000018 4.5000000000000009 11.500000000000002 13.500000000000002 19.500000000000004 19.500000000000004 14.500000000000002 2.5000000000000004 6.5000000000000009 1.5000000000000002 17.500000000000004 14.500000000000002 18.500000000000004 1.5000000000000002 4.5000000000000009 3.5000000000000004 17.500000000000004 8.5000000000000018 3.5000000000000004 6.5000000000000009 2.5000000000000004 5.5000000000000009 18.500000000000004 7.5000000000000009 18.500000000000004 19.500000000000004 15.500000000000002 18.500000000000004 8.5000000000000018 11.500000000000002
decision_type=2 2 2 2 2 2 2 2 2 2 2 2 2 2 2 2 2 2 2 2 2 2 2 2 2 2 2 2 2 2
left_child=1 7 4 12 -2 8 -7 13 -3 -9 11 -6 -4 14 15 -1 26 18 -18 -20 -19 -22 23 -23 25 -25 27 -5 -29 -30
right_child=2 5 3 16 10 6 -8 9 -10 -11 -12 -13 -14 -15 -16 -17 17 20 19 -21 21 22 -24 24 -26 -27 -28 28 29 -31
leaf_value=0.09608227483068521 0.0044565671975745425 -0.014209268037299862 0.014909840358008845 0.03154330701776531 0.02660705121724229 0.080902842105161854 -0.0086030840190748376 0.036068412621279022 -0.0051663658588294876 -0.023313829018706843 0.011391794733289216 0.10978332585655154 0.048251096609649123 -0.040503601014867205 -0.028047309755668815 -0.043023911118507389 -0.14568287745118141 0.132623112136903 0.036421979937789055 -0.10170655814377037 -0.10581550714762317 -0.085026695614769346 0.074937752167446706 0.031412849022696414 -0.055766405165195466 0.12052713211463846 0.055622215460778938 -0.170430685606386 0.10013959256725179 0.0065452133305370815
leaf_weight=26 5094 2990 2787 1682 38 41 60 37 3376 2028 99 32 107 942 232 22 20 23 86 37 23 21 79 105 21 23 225 28 36 92
leaf_count=26 5094 2990 2787 1682 38 41 60 37 3376 2028 99 32 107 942 232 22 20 23 86 37 23 21 79 105 21 23 225 28 36 92
internal_value=-4.45825e-12 -0.0149869 0.0137157 0.0218403 0.00538736 -0.00883354 0.027731 -0.0270933 -0.00941366 -0.0222498 0.0334433 0.0646305 0.0161426 -0.035278 -0.0176977 0.0323253 0.0284334 0.0139406 -0.0247868 -0.00512888 0.0327135 0.0242652 0.0362807 0.0183166 0.0328817 0.0474256 0.0315104 0.0285587 -0.00362099 0.0328686
internal_weight=20412 9754 10658 5395 5263 6467 101 3287 6366 2065 169 70 2894 1222 280 48 2501 438 143 123 295 272 249 170 149 128 2063 1838 156 128
internal_count=20412 9754 10658 5395 5263 6467 101 3287 6366 2065 169 70 2894 1222 280 48 2501 438 143 123 295 272 249 170 149 128 2063 1838 156 128
is_linear=0
shrinkage=0.1


Tree=31
num_leaves=31
num_cat=0
split_feature=47 47 47 43 144 144 74 106 143 74 48 50 140 136 50 28 136 92 109 136 45 95 12 87 144 31 144 51 95 45
split_gain=342.209 77.9693 43.2657 17.0797 14.2694 13.6898 14.5033 12.6047 12.6089 16.2114 24.4892 12.6946 12.3115 51.0885 22.7215 24.1526 11.734 11.1878 13.2355 46.4595 12.8326 10.1447 9.80343 9.78755 9.63127 16.3509 13.6609 12.9372 12.918 10.1426
threshold=7.5000000000000009 11.500000000000002 3.5000000000000004 14.500000000000002 0.76086956521739146 0.41304347826086962 11.500000000000002 17.500000000000004 10.500000000000002 14.500000000000002 13.500000000000002 1.5000000000000002 2.5000000000000004 1.5000000000000002 9.5000000000000018 15.500000000000002 4.5000000000000009 19.500000000000004 19.500000000000004 14.500000000000002 16.500000000000004 1.0000000180025095e-35 15.500000000000002 1.0000000180025095e-35 0.282608695652174 15.500000000000002 0.71739130434782616 1.0000000180025095e-35 19.500000000000004 1.5000000000000002
decision_type=2 2 2 2 2 2 2 2 2 2 2 2 2 2 2 2 2 2 2 2 2 2 2 2 2 2 2 2 2 2
left_child=2 4 24 -3 5 -2 -7 -4 9 -9 -11 -10 14 -14 15 -5 -15 18 23 -20 -19 -6 -8 -18 -1 26 27 -26 29 -29
right_child=1 3 7 12 21 6 22 8 11 10 -12 -13 13 16 -16 -17 17 20 19 -21 -22 -23 -24 -25 25 -27 -28 28 -30 -31
leaf_value=-0.036802842831152531 0.0011520297025310396 0.01612786085796156 -0.013492561501809462 0.085155491152312607 -0.036069566368595839 0.0063216904807232013 0.02102649814419752 0.0010081112487704716 -0.075952907214904664 0.1299168565382178 0.017483822658265893 -0.007913649180490109 -0.094445170067689002 0.065457302362652667 0.11147286111336885 -0.053848450375720863 -0.024179825953074864 0.033538583915214991 -0.13743746812370691 0.039248201558771345 0.13241859369334721 -0.0027776565996012453 0.076870935882977928 0.029688532570032636 0.045485653867945078 0.050062781969706219 -0.036301520492925073 -0.035090135309890781 0.056507387580561709 -0.01298979316135911
leaf_weight=753 2740 4314 4742 25 97 1564 663 362 29 26 76 504 34 86 49 25 35 35 22 46 21 1623 33 929 32 30 599 327 22 569
leaf_count=753 2740 4314 4742 25 97 1564 663 362 29 26 76 504 34 86 49 25 35 35 22 46 21 1623 33 929 32 30 599 327 22 569
internal_value=2.97946e-11 0.0104711 -0.0160108 0.019162 0.0032015 0.0059042 0.0116657 -0.0113437 -0.00112294 0.0109301 0.0461432 -0.0116156 0.0291766 0.0263982 0.0630793 0.0156535 0.0298979 0.0270871 0.0247249 -0.0179148 0.0706186 -0.00465517 0.0236743 0.0277327 -0.0274967 -0.0230587 -0.0244749 -0.0170179 -0.0191966 -0.0210554
internal_weight=20412 12341 8071 5621 6720 5000 2260 5739 997 464 102 533 1307 1208 99 50 1174 1088 1032 68 56 1720 696 964 2332 1579 1549 950 918 896
internal_count=20412 12341 8071 5621 6720 5000 2260 5739 997 464 102 533 1307 1208 99 50 1174 1088 1032 68 56 1720 696 964 2332 1579 1549 950 918 896
is_linear=0
shrinkage=0.1


Tree=32
num_leaves=31
num_cat=0
split_feature=47 45 46 45 139 93 25 95 96 79 52 117 63 60 112 136 71 47 140 46 33 47 137 43 41 143 144 144 31 108
split_gain=281.182 63.7184 30.1437 15.404 15.3292 15.8104 11.0734 11.0097 19.0297 10.8716 32.6562 71.2423 15.138 23.7617 15.3895 19.5879 49.0222 18.1843 14.4037 13.449 60.6731 23.6231 16.9667 13.4368 11.6182 10.7994 10.3167 20.188 10.6766 18.0926
threshold=9.5000000000000018 4.5000000000000009 12.500000000000002 7.5000000000000009 2.5000000000000004 15.500000000000002 18.500000000000004 19.500000000000004 14.500000000000002 1.5000000000000002 3.5000000000000004 6.5000000000000009 2.5000000000000004 1.5000000000000002 1.5000000000000002 1.0000000180025095e-35 11.500000000000002 19.500000000000004 3.5000000000000004 17.500000000000004 15.500000000000002 17.500000000000004 8.5000000000000018 15.500000000000002 11.500000000000002 9.5000000000000018 0.76086956521739146 0.282608695652174 13.500000000000002 12.500000000000002
decision_type=2 2 2 2 2 2 2 2 2 2 2 2 2 2 2 2 2 2 2 2 2 2 2 2 2 2 2 2 2 2
left_child=1 26 -2 7 5 -5 9 -3 -9 10 25 -12 23 -14 18 16 -16 19 -15 21 22 -17 -21 -11 -20 -4 27 -1 -29 -30
right_child=2 3 6 4 -6 -7 -8 8 -10 12 11 -13 13 14 15 17 -18 -19 24 20 -22 -23 -24 -25 -26 -27 -28 28 29 -31
leaf_value=-0.03045574527478468 0.0080569736442841055 -0.0099320503173239844 0.044105401744117152 0.014649050202468566 -0.0023234029642052625 0.094855956813054421 0.055439840585869905 0.10697665681893176 -0.0046290461570024496 0.031912489882132328 -0.21160412580661833 0.00066109641556977294 -0.090190891250967978 0.11947611963748933 0.034211931454065522 0.017934133486881988 -0.14305758751355685 0.075239415839314469 0.087728286308772649 -0.018762369713057642 -0.15836475170014994 0.11754931087295216 0.10407472356137903 0.086487150832333354 0.018946769360627516 -0.0021952489526787153 -0.032442250670029857 -0.013595467090437359 -0.031811731859393746 0.08888324256296512
leaf_weight=967 4933 4664 106 201 3211 28 85 22 50 251 21 64 20 25 39 2945 26 56 33 23 23 24 22 55 96 96 747 1529 23 27
leaf_count=967 4933 4664 106 201 3211 28 85 22 50 251 21 64 20 25 39 2945 26 56 33 23 23 24 22 55 96 96 747 1529 23 27
internal_value=2.22205e-11 -0.0103641 0.0132914 -0.00563369 -0.000540704 0.024456 0.0197308 -0.00933299 0.0294727 0.0189574 0.000219694 -0.0517809 0.0204357 0.0184808 0.0191371 0.0176318 -0.0366959 0.0187735 0.0500054 0.0177323 -0.0262394 0.0187394 0.0412913 0.0417217 0.036542 0.0221011 -0.0221088 -0.019077 -0.0121085 0.0333636
internal_weight=20412 11469 8943 8176 3440 229 4010 4736 72 3925 287 85 3638 3332 3312 3158 65 3093 154 3037 68 2969 45 306 129 202 3293 2546 1579 50
internal_count=20412 11469 8943 8176 3440 229 4010 4736 72 3925 287 85 3638 3332 3312 3158 65 3093 154 3037 68 2969 45 306 129 202 3293 2546 1579 50
is_linear=0
shrinkage=0.1


Tree=33
num_leaves=31
num_cat=0
split_feature=45 46 44 95 93 109 95 144 95 64 143 115 21 38 144 3 94 118 118 94 116 142 25 140 0 112 32 45 98 86
split_gain=228.606 54.3758 23.0634 14.362 17.0142 13.8243 13.0562 12.618 14.2014 10.614 10.6089 41.855 10.4812 9.90736 9.79262 9.56919 9.14641 8.92649 18.3908 36.5924 13.9207 11.6615 27.6852 22.3942 11.7861 17.7001 40.1139 36.7004 14.7057 9.89255
threshold=9.5000000000000018 5.5000000000000009 13.500000000000002 1.0000000180025095e-35 2.5000000000000004 16.500000000000004 1.5000000000000002 0.76086956521739146 19.500000000000004 2.5000000000000004 8.5000000000000018 9.5000000000000018 17.500000000000004 2.5000000000000004 0.282608695652174 5.5000000000000009 18.500000000000004 1.0000000180025095e-35 1.5000000000000002 11.500000000000002 1.0000000180025095e-35 1.0000000180025095e-35 14.500000000000002 1.5000000000000002 19.500000000000004 3.5000000000000004 13.500000000000002 16.500000000000004 8.5000000000000018 8.5000000000000018
decision_type=2 2 2 2 2 2 2 2 2 2 2 2 2 2 2 2 2 2 2 2 2 2 2 2 2 2 2 2 2 2
left_child=1 6 3 4 -2 -3 9 8 14 10 11 -1 -5 16 -7 -16 -8 -4 19 -19 -20 22 29 -23 25 26 -25 28 -28 -22
right_child=2 5 17 12 -6 7 13 -9 -10 -11 -12 -13 -14 -15 15 -17 -18 18 20 -21 21 23 -24 24 -26 -27 27 -29 -30 -31
leaf_value=-0.038796135711555296 -0.0037883262096360076 -0.0061379256511770071 0.060737298258562701 0.0096764146098899939 -0.082205876416216295 -0.0098391212118904923 -0.025213763176714289 -0.029792134201852605 0.062875295244157317 -0.042000429092251976 -0.026326768950524704 0.1391352553293109 0.061685051912298575 -0.012575532763598355 -0.006404079986060714 0.015241069435924662 0.039943029612980109 0.029464301046344545 0.090629974340221714 -0.1415004594672826 -0.028946462727326434 0.07044163330627437 -0.10250555216692961 0.025436470083714954 0.085928486524006503 0.020822525436644895 -0.085940416827797905 -0.18328881430484001 0.03016379058826715 0.062472889248024799
leaf_weight=39 356 5298 53 6020 30 332 1040 100 44 370 216 20 39 2902 273 811 22 31 28 21 20 88 26 105 26 2008 20 21 24 29
leaf_count=39 356 5298 53 6020 30 332 1040 100 44 370 216 20 39 2902 273 811 22 31 28 21 20 88 26 105 26 2008 20 21 24 29
internal_value=6.78627e-11 -0.00934688 0.0119822 0.00881969 -0.00988295 -0.00370164 -0.0177468 0.00457237 0.00692611 -0.0309412 -0.0160616 0.0215196 0.0100112 -0.0155998 0.00518757 0.00978985 -0.023864 0.0201351 0.0192557 -0.0395792 0.0205331 0.0197039 -0.0190981 0.0209736 0.0189985 0.0181995 -0.012783 -0.0745222 -0.0226108 0.0251589
internal_weight=20412 11467 8945 6445 386 6858 4609 1560 1460 645 275 59 6059 3964 1416 1084 1062 2500 2447 52 2395 2367 75 2292 2204 2178 170 65 44 49
internal_count=20412 11467 8945 6445 386 6858 4609 1560 1460 645 275 59 6059 3964 1416 1084 1062 2500 2447 52 2395 2367 75 2292 2204 2178 170 65 44 49
is_linear=0
shrinkage=0.1


Tree=34
num_leaves=31
num_cat=0
split_feature=47 47 47 44 144 144 77 46 95 93 42 21 91 95 109 107 93 95 52 132 138 50 137 128 143 110 117 2 4 140
split_gain=186.559 45.1779 24.3079 13.8359 10.8712 21.0973 11.129 11.1427 10.5795 21.1188 11.9627 10.4395 11.2324 25.8727 17.4885 30.5302 13.2972 11.9551 12.6444 10.3626 16.496 12.9866 9.62142 9.6099 11.6449 9.56543 9.46304 9.1785 11.4311 9.04602
threshold=7.5000000000000009 10.500000000000002 3.5000000000000004 13.500000000000002 0.80434782608695665 0.41304347826086962 11.500000000000002 7.5000000000000009 1.5000000000000002 3.5000000000000004 6.5000000000000009 17.500000000000004 19.500000000000004 19.500000000000004 8.5000000000000018 6.5000000000000009 19.500000000000004 18.500000000000004 13.500000000000002 16.500000000000004 9.5000000000000018 16.500000000000004 8.5000000000000018 18.500000000000004 7.5000000000000009 15.500000000000002 8.5000000000000018 12.500000000000002 16.500000000000004 5.5000000000000009
