tree
version=v4
num_class=1
num_tree_per_iteration=1
label_index=0
max_feature_idx=145
objective=regression
feature_names=Column_0 Column_1 Column_2 Column_3 Column_4 Column_5 Column_6 Column_7 Column_8 Column_9 Column_10 Column_11 Column_12 Column_13 Column_14 Column_15 Column_16 Column_17 Column_18 Column_19 Column_20 Column_21 Column_22 Column_23 Column_24 Column_25 Column_26 Column_27 Column_28 Column_29 Column_30 Column_31 Column_32 Column_33 Column_34 Column_35 Column_36 Column_37 Column_38 Column_39 Column_40 Column_41 Column_42 Column_43 Column_44 Column_45 Column_46 Column_47 Column_48 Column_49 Column_50 Column_51 Column_52 Column_53 Column_54 Column_55 Column_56 Column_57 Column_58 Column_59 Column_60 Column_61 Column_62 Column_63 Column_64 Column_65 Column_66 Column_67 Column_68 Column_69 Column_70 Column_71 Column_72 Column_73 Column_74 Column_75 Column_76 Column_77 Column_78 Column_79 Column_80 Column_81 Column_82 Column_83 Column_84 Column_85 Column_86 Column_87 Column_88 Column_89 Column_90 Column_91 Column_92 Column_93 Column_94 Column_95 Column_96 Column_97 Column_98 Column_99 Column_100 Column_101 Column_102 Column_103 Column_104 Column_105 Column_106 Column_107 Column_108 Column_109 Column_110 Column_111 Column_112 Column_113 Column_114 Column_115 Column_116 Column_117 Column_118 Column_119 Column_120 Column_121 Column_122 Column_123 Column_124 Column_125 Column_126 Column_127 Column_128 Column_129 Column_130 Column_131 Column_132 Column_133 Column_134 Column_135 Column_136 Column_137 Column_138 Column_139 Column_140 Column_141 Column_142 Column_143 Column_144 Column_145
feature_infos=[0:20] [0:20] [0:20] [0:20] [0:20] [0:20] [0:20] [0:20] [0:20] [0:20] [0:20] [0:20] [0:20] [0:20] [0:20] [0:20] [0:20] [0:20] [0:20] [0:20] [0:20] [0:20] [0:20] [0:20] [0:20] [0:20] [0:20] [0:20] [0:20] [0:20] [0:20] [0:20] [0:20] [0:20] [0:20] [0:20] [0:20] [0:20] [0:20] [0:20] [0:20] [0:20] [0:20] [0:20] [0:20] [0:20] [0:20] [0:20] [0:21] [0:21] [0:21] [0:21] [0:21] [0:21] [0:21] [0:21] [0:21] [0:21] [0:21] [0:21] [0:21] [0:21] [0:21] [0:21] [0:21] [0:21] [0:21] [0:21] [0:21] [0:21] [0:21] [0:21] [0:21] [0:21] [0:21] [0:21] [0:21] [0:21] [0:21] [0:21] [0:21] [0:21] [0:21] [0:21] [0:21] [0:21] [0:21] [0:21] [0:21] [0:21] [0:21] [0:21] [0:21] [0:21] [0:21] [0:21] [0:20] [0:20] [0:20] [0:20] [0:20] [0:20] [0:20] [0:20] [0:20] [0:20] [0:20] [0:20] [0:20] [0:20] [0:20] [0:20] [0:20] [0:20] [0:20] [0:20] [0:20] [0:20] [0:20] [0:20] [0:20] [0:20] [0:20] [0:20] [0:20] [0:20] [0:20] [0:20] [0:20] [0:20] [0:20] [0:20] [0:20] [0:20] [0:20] [0:20] [0:20] [0:20] [0:20] [0:20] [0:20] [0:20] [0:20] [0:20] [0:1] [0:1]
tree_sizes=2730 2829 2829 2822 2808 2802 2788 2822 2808 2835 2808 2792 2864 2818 2835 2851 2810 2832 2842 2860 2853 2846 2856 2859 2844 2823 2837 2823 2861 2803 2836 2843 2869 2828 2867 2840 2855 2870 2802 2820 2868 2860 2830 2852 2798 2827 2845 2810 2804 2821 2853 2816 2809 2797 2811 2803 2795 2790 2806 2807 2802 2787 2822 2768 2783 2783 2840 2809 2808 2806 2822 2787 2799 2803 2780 2801 2780 2806 2744 2806 2823 2804 2785 2800 2800 2837 2818 2826 2796 2816 2809 2794 2767 2788 2813 2802 2762 2795 2758 2764

Tree=0
num_leaves=31
num_cat=0
split_feature=47 47 47 47 47 144 144 47 47 145 144 47 144 144 47 145 144 47 144 55 47 47 47 51 138 141 82 145 26 25
split_gain=216031 38825.2 30070 10430.8 4938.6 4426.71 3646.75 3624.57 2160.49 1813.94 1601.85 1095.67 925.709 1056.92 844.812 643.074 625.008 598.072 479.261 489.292 464.095 462.003 449.312 440.347 419.53 377.004 389.25 394.247 374.403 361.083
threshold=9.5000000000000018 15.500000000000002 5.5000000000000009 11.500000000000002 7.5000000000000009 0.23913043478260873 0.80434782608695665 3.5000000000000004 13.500000000000002 0.75000000000000011 0.5434782608695653 17.500000000000004 0.19565217391304349 0.80434782608695665 8.5000000000000018 0.75000000000000011 0.32608695652173919 1.5000000000000002 0.63043478260869579 11.500000000000002 6.5000000000000009 12.500000000000002 10.500000000000002 18.500000000000004 12.500000000000002 4.5000000000000009 8.5000000000000018 0.58333333333333337 9.5000000000000018 11.500000000000002
decision_type=2 2 2 2 2 2 2 2 2 2 2 2 2 2 2 2 2 2 2 2 2 2 2 2 2 2 2 2 2 2
left_child=2 3 7 22 20 11 9 17 21 10 25 -3 -10 15 -6 23 -11 -1 19 -18 -4 -5 -2 29 -12 26 27 -7 -21 -14
right_child=1 5 4 8 14 6 -8 -9 12 16 24 -13 13 -15 -16 -17 18 -19 -20 28 -22 -23 -24 -25 -26 -27 -28 -29 -30 -31
leaf_value=9.4458624545306478 10.23515873166339 10.873800699834192 9.8630908530900054 10.410664238147218 10.045721011546522 10.486862432453087 10.993645051203785 9.7393420585633415 10.696194486106656 11.002095526300995 10.324557502566924 11.084295526025315 10.408662833608194 10.69343543505356 10.147448415480751 10.607820769182645 10.744425818208331 9.5773068819361118 10.937566141543286 10.095226068383235 9.950777665101743 10.49108634193502 10.310981640798438 9.9888624378175059 10.616798951421186 10.708114772589376 10.25636243722146 10.987123317204532 10.660862432214669 10.540060206594367
leaf_weight=500 1620 405 1147 1554 1598 50 460 1939 521 133 223 635 501 363 1669 384 284 1125 108 22 1274 1322 1510 20 63 535 40 23 25 359
leaf_count=500 1620 405 1147 1554 1598 50 460 1939 521 133 223 635 501 363 1669 384 284 1125 108 22 1274 1322 1510 20 63 535 40 23 25 359
internal_value=10.2321 10.5283 9.87477 10.415 10.0175 10.8355 10.7472 9.64702 10.5043 10.6719 10.5861 11.0023 10.5802 10.543 10.0977 10.4998 10.8122 9.53686 10.7546 10.695 9.90923 10.4476 10.2717 10.4527 10.3889 10.6731 10.5071 10.6445 10.3961 10.4635
internal_weight=20412 11160 9252 8154 5688 3006 1966 3564 5024 1506 934 1040 2148 1627 3267 1264 572 1625 439 331 2421 2876 3130 880 286 648 113 73 47 860
internal_count=20412 11160 9252 8154 5688 3006 1966 3564 5024 1506 934 1040 2148 1627 3267 1264 572 1625 439 331 2421 2876 3130 880 286 648 113 73 47 860
is_linear=0
shrinkage=1


Tree=1
num_leaves=31
num_cat=0
split_feature=47 47 47 47 47 144 144 47 47 145 144 47 144 144 47 144 145 144 47 144 47 47 55 47 90 47 143 48 100 47
split_gain=174985 31448.4 24356.7 8448.95 4000.27 3585.64 2953.87 2935.9 1750 1469.29 1297.5 889.712 749.824 876.424 684.298 506.256 494.529 512.541 484.439 393.628 375.917 374.222 367.686 363.943 352.432 333.054 320.102 479.486 339.71 381.757
threshold=9.5000000000000018 15.500000000000002 5.5000000000000009 11.500000000000002 7.5000000000000009 0.23913043478260873 0.80434782608695665 3.5000000000000004 13.500000000000002 0.75000000000000011 0.5434782608695653 18.500000000000004 0.19565217391304349 0.76086956521739146 8.5000000000000018 0.32608695652173919 0.75000000000000011 0.5434782608695653 1.5000000000000002 0.5434782608695653 6.5000000000000009 12.500000000000002 11.500000000000002 10.500000000000002 11.500000000000002 4.5000000000000009 7.5000000000000009 15.500000000000002 7.5000000000000009 16.500000000000004
decision_type=2 2 2 2 2 2 2 2 2 2 2 2 2 2 2 2 2 2 2 2 2 2 2 2 2 2 2 2 2 2
left_child=2 3 7 23 20 11 9 18 21 10 26 -3 -10 16 -6 -11 17 -14 -1 22 -4 -5 -17 -2 -12 -9 28 -28 29 -7
right_child=1 5 4 8 14 6 -8 25 12 15 24 -13 13 -15 -16 19 -18 -19 -20 -21 -22 -23 -24 -25 -26 -27 27 -29 -30 -31
leaf_value=-0.70758625255823138 0.002780424056597698 0.6113389511613454 -0.33208066166590483 0.16073537821973768 -0.16771353141489778 0.17690087219454209 0.68541811036938072 -0.487252990475258 0.41771259869586486 0.6930235247862967 0.19040386867573073 0.79769736389819068 0.24742018945567998 0.40136433677426703 -0.076158860445451143 0.44420149019461563 0.33364688594693259 0.079666812607817716 -0.58928623322380913 0.59293928735139889 -0.25316254130361404 0.23311527200753318 0.11275244920681685 0.071021039004357453 -0.10914869948904565 -0.40423724090248964 0.50041811124007418 0.11529964076148139 0.18184554241262041 0.49497549251248024
leaf_weight=500 1620 583 1147 1554 1598 53 460 916 521 133 239 457 564 435 1669 236 359 269 1125 164 1274 1322 39 1510 47 1023 317 36 111 131
leaf_count=500 1620 583 1147 1554 1598 53 460 916 521 133 239 457 564 435 1669 236 359 269 1125 164 1274 1322 39 1510 47 1023 317 36 111 131
internal_value=-4.57138e-10 0.26659 -0.321567 0.164666 -0.193133 0.543066 0.463631 -0.526543 0.245011 0.395887 0.318589 0.693229 0.313304 0.27987 -0.120941 0.522103 0.235532 0.193248 -0.625686 0.470321 -0.290552 0.194006 0.397196 0.0357016 0.141177 -0.443455 0.396892 0.461143 0.320008 0.403356
internal_weight=20412 11160 9252 8154 5688 3006 1966 3564 5024 1506 934 1040 2148 1627 3267 572 1192 833 1625 439 2421 2876 275 3130 286 1939 648 353 295 184
internal_count=20412 11160 9252 8154 5688 3006 1966 3564 5024 1506 934 1040 2148 1627 3267 572 1192 833 1625 439 2421 2876 275 3130 286 1939 648 353 295 184
is_linear=0
shrinkage=0.1


Tree=2
num_leaves=31
num_cat=0
split_feature=47 47 47 47 47 144 47 144 144 47 145 47 144 144 145 47 139 15 74 144 145 144 47 140 116 47 47 3 141 47
split_gain=141738 25473.2 19728.9 6843.65 3240.22 2985.71 2378.08 2109.58 1572.72 1417.5 900.969 619.359 607.358 709.904 570.258 554.281 486.434 515.425 447.393 442.361 400.569 415.158 392.395 316.329 324.009 304.492 303.12 298.377 335.028 294.794
threshold=9.5000000000000018 15.500000000000002 5.5000000000000009 11.500000000000002 7.5000000000000009 0.19565217391304349 3.5000000000000004 0.80434782608695665 0.36956521739130438 13.500000000000002 0.75000000000000011 17.500000000000004 0.19565217391304349 0.76086956521739146 0.75000000000000011 8.5000000000000018 11.500000000000002 5.5000000000000009 10.500000000000002 0.5434782608695653 0.75000000000000011 0.5434782608695653 1.5000000000000002 13.500000000000002 9.5000000000000018 6.5000000000000009 12.500000000000002 4.5000000000000009 10.500000000000002 10.500000000000002
decision_type=2 2 2 2 2 2 2 2 2 2 2 2 2 2 2 2 2 2 2 2 2 2 2 2 2 2 2 2 2 2
left_child=2 3 6 29 25 11 22 8 14 26 16 -3 -11 20 27 -6 17 -10 -18 -12 21 -14 -1 24 -23 -4 -5 28 -7 -2
right_child=1 5 4 9 15 7 -8 -9 10 12 19 -13 13 -15 -16 -17 18 -19 -20 -21 -22 23 -24 -25 -26 -27 -28 -29 -30 -31
leaf_value=-0.63682761340141303 0.0025023811798036838 0.542395108757597 -0.29887259414950557 0.14466183854883088 -0.15094217472198013 0.43591193635806891 -0.39910911970559071 0.61687628983155551 0.4287192721057822 0.37594135036967313 0.31330064791004836 0.71835119902618294 0.22267816516154626 0.36122790894974238 0.6011678933419965 -0.068542974804281981 0.41701321572733996 0.094567405213396891 0.065062845387357349 0.53364534670623331 0.30028219583929416 -0.039802476328018817 -0.53035760585326297 0.38366093635559084 0.21691871570504229 -0.22784628636749049 0.20980373863553498 0.44882374081411136 -0.025823279271523159 0.063918937955865798
leaf_weight=500 1620 330 1147 1554 1598 33 1939 460 54 521 205 508 564 435 264 1669 156 318 47 164 359 171 1125 29 69 1274 1322 437 30 1510
leaf_count=500 1620 330 1147 1554 1598 33 1939 460 54 521 205 508 564 435 264 1669 156 318 47 164 359 171 1125 29 69 1274 1322 437 30 1510
internal_value=-9.54638e-11 0.239931 -0.28941 0.148199 -0.17382 0.488759 -0.473889 0.426798 0.375606 0.22051 0.289279 0.649061 0.281973 0.251883 0.482271 -0.108847 0.211018 0.143073 0.335527 0.411232 0.211979 0.173923 -0.563118 0.0717001 0.0340049 -0.261497 0.174605 0.419493 0.216038 0.0321315
internal_weight=20412 11160 9252 8154 5688 3006 3564 2168 1708 5024 944 838 2148 1627 764 3267 575 372 203 369 1192 833 1625 269 240 2421 2876 500 63 3130
internal_count=20412 11160 9252 8154 5688 3006 3564 2168 1708 5024 944 838 2148 1627 764 3267 575 372 203 369 1192 833 1625 269 240 2421 2876 500 63 3130
is_linear=0
shrinkage=0.1


Tree=3
num_leaves=31
num_cat=0
split_feature=47 47 47 47 47 144 47 144 144 47 145 47 144 144 145 47 138 144 145 51 47 144 123 136 73 47 144 144 27 75
split_gain=114808 20633.3 15980.4 5543.35 2624.57 2418.43 1926.24 1708.76 1273.91 1148.17 729.785 508.372 491.96 589.005 461.909 448.968 398.992 358.312 348.558 328.843 326.284 322.734 322.161 378.081 352.251 284.89 282.441 483.533 274.357 272.683
threshold=9.5000000000000018 15.500000000000002 5.5000000000000009 11.500000000000002 7.5000000000000009 0.19565217391304349 3.5000000000000004 0.80434782608695665 0.36956521739130438 13.500000000000002 0.75000000000000011 18.500000000000004 0.19565217391304349 0.80434782608695665 0.75000000000000011 8.5000000000000018 12.500000000000002 0.5434782608695653 0.75000000000000011 18.500000000000004 2.5000000000000004 0.5434782608695653 1.5000000000000002 11.500000000000002 6.5000000000000009 17.500000000000004 0.19565217391304349 0.80434782608695665 7.5000000000000009 11.500000000000002
decision_type=2 2 2 2 2 2 2 2 2 2 2 2 2 2 2 2 2 2 2 2 2 2 2 2 2 2 2 2 2 2
left_child=2 3 6 -2 -4 11 20 8 14 26 16 -3 -11 18 -7 -6 21 -12 19 28 -1 22 -10 24 -24 -9 -5 -28 -14 -18
right_child=1 5 4 9 15 7 -8 25 10 12 17 -13 13 -15 -16 -17 29 -19 -20 -21 -22 -23 23 -25 -26 -27 27 -29 -30 -31
leaf_value=-0.54429065458414205 0.028918308683287222 0.51540159326196988 -0.2353468562541349 0.21741914930296879 -0.13584795716184847 0.37754346245825293 -0.35919820562412347 0.48178816927157775 0.56855090314149859 0.33834720909481086 0.28197058330221875 0.67239065017622246 0.072748446278274065 0.3389702369358914 0.54105108983137395 -0.061688678540789382 0.37099193342634151 0.48028082125252336 0.27394570365237692 -0.24109298214316369 -0.45324014596785844 0.054106348993532331 0.21230110579462194 0.43273030150504344 -0.17554221236043507 0.63956493395511238 0.11328966614372003 0.21834055365436408 0.20219969231402501 0.056945341474869675
leaf_weight=956 3130 471 2421 612 1598 500 1939 246 25 521 205 367 220 363 264 1669 148 164 384 20 669 223 67 42 36 214 1670 594 640 34
leaf_count=956 3130 471 2421 612 1598 500 1939 246 25 521 205 367 220 363 264 1669 148 164 384 20 669 223 67 42 36 214 1670 594 640 34
internal_value=-5.62745e-10 0.215938 -0.260469 0.133379 -0.156438 0.439883 -0.4265 0.384118 0.338045 0.198459 0.260351 0.584155 0.253776 0.226694 0.434043 -0.0979625 0.189916 0.370108 0.194451 0.159762 -0.506806 0.133229 0.237018 0.179857 0.0767442 0.555189 0.157145 0.140852 0.169084 0.312324
internal_weight=20412 11160 9252 8154 5688 3006 3564 2168 1708 5024 944 838 2148 1627 764 3267 575 369 1264 880 1625 393 170 145 103 460 2876 2264 860 182
internal_count=20412 11160 9252 8154 5688 3006 3564 2168 1708 5024 944 838 2148 1627 764 3267 575 369 1264 880 1625 393 170 145 103 460 2876 2264 860 182
is_linear=0
shrinkage=0.1


Tree=4
num_leaves=31
num_cat=0
split_feature=47 47 47 47 47 144 144 47 47 145 144 47 144 144 47 141 131 133 67 100 89 10 47 44 47 32 15 74 30 40
split_gain=92994.1 16713 12944.1 4597.11 2125.91 1964.84 1587.21 1560.26 814.792 772.464 751.675 571.93 551.269 678.452 363.664 329.298 495.505 317.174 339.67 351.333 299.049 286.682 282.936 276.781 269.773 260.083 249.583 305.838 260.473 268.431
threshold=9.5000000000000018 15.500000000000002 5.5000000000000009 12.500000000000002 7.5000000000000009 0.23913043478260873 0.80434782608695665 3.5000000000000004 11.500000000000002 0.75000000000000011 0.5434782608695653 17.500000000000004 0.19565217391304349 0.76086956521739146 8.5000000000000018 5.5000000000000009 7.5000000000000009 10.500000000000002 4.5000000000000009 5.5000000000000009 7.5000000000000009 15.500000000000002 1.5000000000000002 18.500000000000004 4.5000000000000009 14.500000000000002 5.5000000000000009 11.500000000000002 18.500000000000004 8.5000000000000018
decision_type=2 2 2 2 2 2 2 2 2 2 2 2 2 2 2 2 2 2 2 2 2 2 2 2 2 2 2 2 2 2
left_child=2 3 7 8 -4 11 9 22 -2 10 21 -3 -5 15 -6 16 -14 18 -18 -20 -11 -7 -1 26 -9 -23 -12 28 29 -28
right_child=1 5 4 12 14 6 -8 24 -10 20 23 -13 13 -15 -16 -17 17 -19 19 -21 -22 25 -24 -25 -26 -27 27 -29 -30 -31
leaf_value=-0.51871579911708832 0.026026477050095705 0.41419693411132441 -0.21181216823444529 0.27893099782670422 -0.12226316284700688 0.31431850632737385 0.49966979566475622 -0.36269694465867297 0.1146061501059408 0.4783263884710543 0.3694441742548305 0.56627747979924437 0.14737459311078968 0.26594165457916968 -0.055519810721831743 0.17916227538996232 0.075211507351747878 0.092168152047430771 -0.03265965687377112 -0.55905581954866645 0.32634129373625642 0.2296169793119236 -0.42830725799703767 -0.24442834461277185 -0.28798277883818657 -0.18426447781649502 0.39515535625127646 -0.15761517903634481 0.48208041191101075 0.045274949335227056
leaf_weight=500 3130 405 2421 820 1598 577 460 916 1554 198 36 635 377 746 1669 1377 29 68 21 32 374 49 1125 22 1023 22 26 42 20 140
leaf_count=500 3130 405 2421 820 1598 577 460 916 1554 198 36 635 377 746 1669 1377 29 68 21 32 374 49 1125 22 1023 22 26 42 20 140
internal_value=7.0066e-10 0.194344 -0.234422 0.120041 -0.140794 0.395895 0.337093 -0.38385 0.0554144 0.287434 0.231388 0.507054 0.207278 0.185106 -0.0881662 0.153435 0.0862109 -0.0675138 -0.199933 -0.350484 0.378952 0.290986 -0.456125 0.0963527 -0.323278 0.101372 0.124751 0.0861154 0.141151 0.100075
internal_weight=20412 11160 9252 8154 5688 3006 1966 3564 4684 1506 934 1040 3470 2650 3267 1904 527 150 82 53 572 648 1625 286 1939 71 264 228 186 166
internal_count=20412 11160 9252 8154 5688 3006 1966 3564 4684 1506 934 1040 3470 2650 3267 1904 527 150 82 53 572 648 1625 286 1939 71 264 228 186 166
is_linear=0
shrinkage=0.1


Tree=5
num_leaves=31
num_cat=0
split_feature=47 47 47 47 47 47 144 144 144 144 47 144 6 145 144 145 38 75 54 20 47 144 50 116 52 35 142 44 143 79
split_gain=75390.5 15360.6 10394 2498.98 2276.79 1703.26 1256.3 952.519 640.165 757.609 591.067 565.737 460.061 429.756 482.359 361.849 362.318 484.643 347.253 381.685 315.134 283.633 483.299 291.044 270.903 262.524 252.542 247.853 236.925 370.613
threshold=10.500000000000002 6.5000000000000009 16.500000000000004 12.500000000000002 4.5000000000000009 8.5000000000000018 0.19565217391304349 0.84782608695652184 0.19565217391304349 0.80434782608695665 2.5000000000000004 0.36956521739130438 3.5000000000000004 0.75000000000000011 0.58695652173913049 0.91666666666666685 8.5000000000000018 11.500000000000002 12.500000000000002 10.500000000000002 14.500000000000002 0.67391304347826098 3.5000000000000004 10.500000000000002 7.5000000000000009 9.5000000000000018 10.500000000000002 8.5000000000000018 3.5000000000000004 15.500000000000002
decision_type=2 2 2 2 2 2 2 2 2 2 2 2 2 2 2 2 2 2 2 2 2 2 2 2 2 2 2 2 2 2
left_child=1 4 3 -2 10 -3 -4 11 20 13 -1 18 -13 14 28 16 -14 25 -8 -20 -5 22 -16 26 -19 -18 -24 -23 29 -10
right_child=2 5 6 8 -6 -7 7 -9 9 -11 -12 12 15 -15 21 -17 17 24 19 -21 -22 27 23 -25 -26 -27 -28 -29 -30 -31
leaf_value=-0.44230237812053208 0.077956046934869364 -0.13235353705554961 0.50583229994274215 0.22234779322399431 -0.24072939507148236 -0.026953144358597327 0.4037032680646282 0.51085794763905656 0.10881565047727988 0.26204694552317809 -0.34274416622115234 0.48746660581501333 0.46431241868063805 0.21414712928554841 0.21340718572789974 0.35334820018983204 -0.064741573163441243 -0.34719503946029229 -0.20050852655433121 0.31218875545727198 0.33852589155823543 -0.12003802142855598 -0.26696603536816704 0.10492660744888027 0.05994446457109668 0.22316539685938272 0.092269898702700942 0.14650246261531472 0.17886378700451111 -0.30953458916881815
leaf_weight=956 3064 2872 674 603 2170 3289 556 280 267 764 1585 71 40 700 55 152 35 26 20 53 381 41 106 41 44 333 24 234 953 23
leaf_count=956 3064 2872 674 603 2170 3289 556 280 267 764 1585 71 40 700 55 152 35 26 20 53 381 41 106 41 44 333 24 234 953 23
internal_value=6.57627e-10 -0.180026 0.205162 0.146599 -0.315957 -0.0760864 0.391207 0.343221 0.196772 0.175129 -0.380201 0.307929 0.246149 0.147958 0.121392 0.218952 0.176216 0.149905 0.37678 0.171724 0.267331 0.0385539 -0.0444448 -0.12738 -0.0912788 0.195783 -0.200646 0.106764 0.15478 0.0756361
internal_weight=20412 10872 9540 7256 4711 6161 2284 1610 4192 3208 2541 1330 701 2444 1744 630 478 438 629 73 984 501 226 171 70 368 130 275 1243 290
internal_count=20412 10872 9540 7256 4711 6161 2284 1610 4192 3208 2541 1330 701 2444 1744 630 478 438 629 73 984 501 226 171 70 368 130 275 1243 290
is_linear=0
shrinkage=0.1


Tree=6
num_leaves=31
num_cat=0
split_feature=47 47 47 47 47 47 47 144 144 144 144 25 145 7 142 124 73 111 51 144 82 49 29 99 47 90 20 26 90 139
split_gain=61280.5 11195.2 8508.74 3117.64 1411.82 1261.01 1037.37 728.272 739.663 658.187 819.405 551.975 496.124 356.792 393.581 482.897 500.961 413.059 315.45 280.52 264.98 268.468 261.428 378.111 258.275 254.779 251.887 288.399 304.689 250.475
threshold=9.5000000000000018 13.500000000000002 5.5000000000000009 17.500000000000004 7.5000000000000009 11.500000000000002 3.5000000000000004 0.282608695652174 0.84782608695652184 0.19565217391304349 0.80434782608695665 11.500000000000002 0.75000000000000011 4.5000000000000009 10.500000000000002 9.5000000000000018 6.5000000000000009 17.500000000000004 11.500000000000002 0.58695652173913049 1.0000000180025095e-35 17.500000000000004 9.5000000000000018 4.5000000000000009 14.500000000000002 4.5000000000000009 13.500000000000002 10.500000000000002 6.5000000000000009 10.500000000000002
decision_type=2 2 2 2 2 2 2 2 2 2 2 2 2 2 2 2 2 2 2 2 2 2 2 2 2 2 2 2 2 2
left_child=2 5 6 9 -4 -2 -1 -5 13 24 11 12 19 -9 15 22 -17 18 -16 20 -11 25 23 -15 -3 -22 27 -24 -29 -18
right_child=1 3 4 7 -6 -7 -8 8 -10 10 -12 -13 -14 14 17 16 29 -19 -20 -21 21 -23 26 -25 -26 -27 -28 28 -30 -31
leaf_value=-0.37038124239490583 0.021058030604554443 0.21573676561054433 -0.17226106309813194 0.45244106911073328 -0.07149880920340973 0.11278235003273152 -0.26205833845374632 0.43910436130784175 0.50087702105947807 -0.20775006675720215 0.2906055129513952 0.21535426954696057 0.21124985842949395 -0.28661442101001738 0.41023000980893232 0.29182972897860138 -0.025245831624881643 -0.0019165860037460474 -0.004654538929462433 -0.016943497706972462 0.33848684733196843 -0.16931473235117978 0.43787971851415936 0.24374168093611553 0.33070439634745913 0.11616377883462931 0.4487209744147353 0.34094984660977906 -0.13318457567330563 -0.43498480510711668
leaf_weight=1625 3130 304 2421 753 3267 2876 1939 108 177 25 609 937 346 20 219 33 37 33 20 262 59 29 32 41 547 408 74 23 33 25
leaf_count=1625 3130 304 2421 753 3267 2876 1939 108 177 25 609 937 346 20 219 33 37 33 20 262 59 29 32 41 547 408 74 23 33 25
internal_value=5.84162e-10 0.157763 -0.190297 0.265882 -0.114387 0.0649806 -0.311448 0.380343 0.318297 0.213035 0.188666 0.158617 0.111528 0.271998 0.241409 0.165871 -0.0229298 0.329721 0.375512 0.0674616 0.109907 0.125918 0.246302 0.0698544 0.289635 0.144252 0.312742 0.198397 0.0615492 -0.190463
internal_weight=20412 11160 9252 5154 5688 6006 3564 1628 875 3526 2675 2066 1129 698 590 318 95 272 239 783 521 496 223 61 851 467 162 88 56 62
internal_count=20412 11160 9252 5154 5688 6006 3564 1628 875 3526 2675 2066 1129 698 590 318 95 272 239 783 521 496 223 61 851 467 162 88 56 62
is_linear=0
shrinkage=0.1


Tree=7
num_leaves=31
num_cat=0
split_feature=47 47 47 47 47 47 144 144 144 144 144 47 6 140 125 143 134 118 124 45 74 28 139 125 144 42 55 82 11 51
split_gain=49682.4 10143.8 6912.99 1626.91 1517.13 1129.52 858.029 672.684 480.75 438.999 518.932 414.202 350.512 413.225 396.266 341.342 298.175 515.42 296.835 332.683 331.742 291.193 267.734 249.78 229.256 222.268 221.725 257.897 252.963 220.004
threshold=10.500000000000002 6.5000000000000009 16.500000000000004 12.500000000000002 4.5000000000000009 8.5000000000000018 0.19565217391304349 0.80434782608695665 0.36956521739130438 0.19565217391304349 0.76086956521739146 2.5000000000000004 3.5000000000000004 11.500000000000002 14.500000000000002 3.5000000000000004 6.5000000000000009 5.5000000000000009 9.5000000000000018 16.500000000000004 9.5000000000000018 3.5000000000000004 5.5000000000000009 4.5000000000000009 0.50000000000000011 14.500000000000002 14.500000000000002 19.500000000000004 5.5000000000000009 18.500000000000004
decision_type=2 2 2 2 2 2 2 2 2 2 2 2 2 2 2 2 2 2 2 2 2 2 2 2 2 2 2 2 2 2
left_child=1 4 3 -2 11 24 -4 8 21 -5 15 -1 -10 18 -15 16 -11 22 -14 -20 -21 23 -18 -8 -3 26 27 -17 -28 -7
right_child=2 5 6 9 -6 29 7 -9 12 10 -12 -13 13 14 -16 25 17 -19 19 20 -22 -23 -24 -25 -26 -27 28 -29 -30 -31
leaf_value=-0.36103401716689437 0.063402564884905088 -0.14044598950258316 0.41300322161185987 0.21770147531013181 -0.19519704755550157 -0.027359929816678032 -0.15695094987750055 0.40519678712607149 0.4017359558770906 0.097606627984692496 0.20620607524257317 -0.27769180139908656 0.15019493799800526 0.34916425968743181 0.080736246758914859 0.13497089156574846 -0.46073512032225328 0.083131785386352131 0.14890121863534053 -0.023555891002927508 -0.51911115537990227 0.32744217556316196 -0.062330323169308324 0.29928386397659779 -0.08327075054638336 0.18610501475632191 0.23998919494690432 -0.14474346517201733 -0.086202723094645675 0.095827944312048594
leaf_weight=956 3064 1217 674 984 2170 3137 24 333 67 313 891 1585 233 163 83 1080 37 93 45 35 22 581 31 24 1655 596 31 34 102 152
leaf_count=956 3064 1217 674 984 2170 3137 24 333 67 313 891 1585 233 163 83 1080 37 93 45 35 22 581 31 24 1655 596 31 34 102 152
internal_value=2.15595e-10 -0.146143 0.166548 0.118788 -0.256605 -0.061678 0.318274 0.278617 0.245609 0.159271 0.141348 -0.309048 0.185158 0.160182 0.258597 0.116407 0.040723 -0.0698645 0.0879137 -0.0543563 -0.214823 0.307885 -0.279109 0.0711665 -0.107499 0.135872 0.111864 0.126434 -0.010173 -0.0216668
internal_weight=20412 10872 9540 7256 4711 6161 2284 1610 1277 4192 3208 2541 648 581 246 2317 474 161 335 102 57 629 68 48 2872 1843 1247 1114 133 3289
internal_count=20412 10872 9540 7256 4711 6161 2284 1610 1277 4192 3208 2541 648 581 246 2317 474 161 335 102 57 629 68 48 2872 1843 1247 1114 133 3289
is_linear=0
shrinkage=0.1


Tree=8
num_leaves=31
num_cat=0
split_feature=47 47 47 47 47 47 144 144 144 144 143 47 48 47 7 70 38 79 105 27 54 24 46 96 145 26 79 133 144 29
split_gain=40373 7483.21 5614.92 1423.17 1407.42 1228.87 514.396 594.081 472.508 611.872 402.791 365.798 341.117 335.504 329.265 327.066 366.409 317.45 284.817 278.573 215.783 263.428 234.237 243.756 208.343 368.096 315.799 205.437 197.483 195.769
threshold=9.5000000000000018 14.500000000000002 6.5000000000000009 11.500000000000002 17.500000000000004 4.5000000000000009 0.32608695652173919 0.80434782608695665 0.19565217391304349 0.76086956521739146 3.5000000000000004 8.5000000000000018 6.5000000000000009 2.5000000000000004 4.5000000000000009 1.5000000000000002 19.500000000000004 15.500000000000002 4.5000000000000009 11.500000000000002 11.500000000000002 14.500000000000002 12.500000000000002 12.500000000000002 0.75000000000000011 10.500000000000002 10.500000000000002 18.500000000000004 0.50000000000000011 14.500000000000002
decision_type=2 2 2 2 2 2 2 2 2 2 2 2 2 2 2 2 2 2 2 2 2 2 2 2 2 2 2 2 2 2
left_child=2 3 5 -2 8 13 27 12 -3 10 17 -4 24 -1 -14 -16 -17 18 -10 -5 -12 22 -22 -24 25 -8 29 -6 -15 -27
right_child=1 4 11 19 6 -7 7 -9 9 -11 20 -13 14 28 15 16 -18 -19 -20 -21 21 -23 23 -25 -26 26 -28 -29 -30 -31
leaf_value=-0.32493061911330318 0.016975047039909485 0.26993691373481948 -0.096748704656512377 0.084468590295994087 0.37320409354585482 -0.17567734050585926 0.35408236754663069 0.39188507511933279 0.19489756978956271 0.26213342116669919 0.17785446675247457 -0.037881164152762214 0.35308312765041067 -0.29270238304435281 0.38342662858963017 0.058526765847270436 -0.35731440991163255 -0.36073250486737207 -0.04196751638014308 0.1372875078850892 -0.32574364237487319 0.23251064189455728 0.10955723536866052 -0.23244755703669329 0.33972921633791781 0.022216216400265693 -0.28700077330524271 0.12587542619024003 -0.22079790817022579 0.39360336215150626
leaf_weight=956 3130 547 2872 2396 830 2170 66 214 81 462 830 1669 43 642 25 139 25 21 136 1712 20 66 105 26 167 40 22 35 943 22
leaf_count=956 3130 547 2872 2396 830 2170 66 214 81 462 830 1669 43 642 25 139 25 21 136 1712 20 66 105 26 167 40 22 35 943 22
internal_value=-9.02002e-11 0.128053 -0.15446 0.0677749 0.239294 -0.230945 0.310404 0.250553 0.188829 0.163434 0.127948 -0.0751125 0.195462 -0.278143 0.103322 0.0464975 -0.00486366 0.0105199 0.0464476 0.106481 0.154642 0.0658558 -0.00698675 0.0416784 0.262896 0.177356 0.0384989 0.363197 -0.249923 0.153999
internal_weight=20412 11160 9252 7238 3922 4711 1628 763 2294 1747 1285 4541 549 2541 232 189 164 238 217 4108 1047 217 151 131 317 150 84 865 1585 62
internal_count=20412 11160 9252 7238 3922 4711 1628 763 2294 1747 1285 4541 549 2541 232 189 164 238 217 4108 1047 217 151 131 317 150 84 865 1585 62
is_linear=0
shrinkage=0.1


Tree=9
num_leaves=31
num_cat=0
split_feature=47 47 47 47 47 47 144 144 144 75 88 51 90 8 18 144 144 144 144 144 145 143 140 101 79 36 16 144 49 144
split_gain=32740.7 6616.52 4560.5 1138.41 998.723 722.774 600.678 479.133 415.575 425.178 303.644 263.023 285.865 262.802 240.666 216.45 258.948 216.272 322.463 211.315 351.22 208.118 202.073 315.898 202.246 197.24 194.772 185.697 190.496 184.679
threshold=10.500000000000002 6.5000000000000009 16.500000000000004 13.500000000000002 3.5000000000000004 8.5000000000000018 0.19565217391304349 0.76086956521739146 0.41304347826086962 11.500000000000002 1.5000000000000002 15.500000000000002 11.500000000000002 9.5000000000000018 1.0000000180025095e-35 0.1521739130434783 0.71739130434782616 0.89130434782608703 0.23913043478260873 0.58695652173913049 0.75000000000000011 7.5000000000000009 11.500000000000002 6.5000000000000009 7.5000000000000009 7.5000000000000009 7.5000000000000009 0.50000000000000011 17.500000000000004 0.67391304347826098
decision_type=2 2 2 2 2 2 2 2 2 2 2 2 2 2 2 2 2 2 2 2 2 2 2 2 2 2 2 2 2 2
left_child=1 4 3 17 -1 27 -4 8 10 22 -8 21 -13 -11 -5 -16 19 18 -2 -17 -21 26 23 -10 -24 -6 -12 -3 -29 -20
right_child=2 5 6 14 25 -7 7 -9 9 13 11 12 -14 -15 15 16 -18 -19 29 20 -22 -23 24 -25 -26 -27 -28 28 -30 -31
leaf_value=-0.27130110868181173 0.10120549946757539 -0.11672652283302319 0.33769647314348633 -0.20030340142548086 -0.199573166865331 -0.018413992438156144 0.43131351114103672 0.32273043043872657 0.22886708600099312 0.11816337977070362 -0.067925964646479667 0.22828348788122335 -0.27076430801640855 -0.26222803507532394 0.20493156409313468 0.13015019476293399 0.1868448936054275 0.12369365406003202 0.019671096661979141 -0.031607336227164093 0.20571827667299658 0.27519605534863639 0.3316264465876988 0.006751802869673286 0.087268737059785051 -0.14900972444858254 0.197324499437873 -0.073404746091784753 0.07620614452494516 0.075508208555736755
leaf_weight=1625 1121 1217 674 20 1552 3289 76 384 118 32 34 24 22 42 538 1339 671 539 1856 214 88 434 105 140 50 1534 149 1565 90 870
leaf_count=1625 1121 1217 674 20 1552 3289 76 384 118 32 34 24 22 42 538 1339 671 539 1856 214 88 434 105 140 50 1534 149 1565 90 870
internal_value=-3.82881e-10 -0.118637 0.135202 0.0964105 -0.20785 -0.0504203 0.258436 0.225255 0.194724 0.123005 0.241988 0.220285 -0.0103915 -0.0977345 0.145376 0.147802 0.134508 0.0643693 0.0560575 0.113108 0.0375471 0.237483 0.162556 0.108339 0.252801 -0.174439 0.148043 -0.0870738 -0.0652688 0.0374915
internal_weight=20412 10872 9540 7256 4711 6161 2284 1610 1226 487 739 663 46 74 2870 2850 2312 4386 3847 1641 302 617 413 258 155 3086 183 2872 1655 2726
internal_count=20412 10872 9540 7256 4711 6161 2284 1610 1226 487 739 663 46 74 2870 2850 2312 4386 3847 1641 302 617 413 258 155 3086 183 2872 1655 2726
is_linear=0
shrinkage=0.1


Tree=10
num_leaves=31
num_cat=0
split_feature=47 47 47 47 47 47 47 144 144 52 25 145 25 65 70 39 144 144 111 6 91 73 99 50 15 43 142 143 53 144
split_gain=26608.6 4961.06 3753.04 1419.98 643.554 552.663 461.748 352.91 441.327 314.113 309.043 308.962 267.373 266.731 476.157 288.927 252.319 350.599 234.485 336.17 217.244 261.813 233.961 213.544 200.202 185.491 185.351 182.355 180.182 179.685
threshold=9.5000000000000018 13.500000000000002 5.5000000000000009 17.500000000000004 7.5000000000000009 11.500000000000002 2.5000000000000004 0.32608695652173919 0.67391304347826098 12.500000000000002 11.500000000000002 0.75000000000000011 1.5000000000000002 7.5000000000000009 3.5000000000000004 14.500000000000002 0.80434782608695665 0.58695652173913049 14.500000000000002 7.5000000000000009 2.5000000000000004 12.500000000000002 8.5000000000000018 18.500000000000004 13.500000000000002 14.500000000000002 10.500000000000002 7.5000000000000009 5.5000000000000009 0.5434782608695653
decision_type=2 2 2 2 2 2 2 2 2 2 2 2 2 2 2 2 2 2 2 2 2 2 2 2 2 2 2 2 2 2
left_child=2 5 6 10 -4 -2 -1 -5 9 13 11 12 -3 14 24 -16 17 -14 -15 -20 22 -22 -19 -6 -9 -10 -23 -7 -21 -8
right_child=1 3 4 7 23 27 29 8 25 -11 -12 -13 16 18 15 -17 -18 20 19 28 21 26 -24 -25 -26 -27 -28 -29 -30 -31
leaf_value=-0.26530744087371866 0.013115517249503456 -0.20625417097922294 -0.11405453229556149 0.29690625177674818 -0.051352977092817775 0.043780576628059606 -0.21278318866786081 0.35241405099045997 0.19992121949422459 -0.18328996912709306 0.17042966845749496 0.17388273291579248 0.1044414091776637 0.2865309625742552 0.11775493332833956 -0.2666237206819157 0.18862381470859599 -0.38263106569647792 0.38685172970335069 -0.28871444076299668 0.084584239467575748 -0.38073553213228783 0.017074866592884066 0.076646196886020548 0.011450881940814166 0.35898866175964317 0.016526808508712312 0.094933110126597289 0.078894767463207255 -0.16007394444650955
leaf_weight=956 3130 31 2421 865 3131 1186 1187 51 121 28 1730 547 746 184 33 48 218 32 26 20 148 24 27 136 26 186 23 1690 40 1421
leaf_count=956 3130 31 2421 865 3131 1186 1187 51 121 28 1730 547 746 184 33 48 218 32 26 20 148 24 27 136 26 186 23 1690 40 1421
internal_value=-3.54212e-10 0.103957 -0.125396 0.175931 -0.0749804 0.0421932 -0.205857 0.253178 0.203605 0.141202 0.140265 0.111209 0.0837607 0.16243 0.059233 -0.110025 0.0911421 0.069891 0.22282 0.0865075 -0.0315836 0.0192868 -0.199715 -0.0460246 0.237284 0.296294 -0.186331 0.0738389 -0.0436416 -0.184064
internal_weight=20412 11160 9252 5154 5688 6006 3564 1628 763 456 3526 1796 1249 428 158 81 1218 1000 270 86 254 195 59 3267 77 307 47 2876 60 2608
internal_count=20412 11160 9252 5154 5688 6006 3564 1628 763 456 3526 1796 1249 428 158 81 1218 1000 270 86 254 195 59 3267 77 307 47 2876 60 2608
is_linear=0
shrinkage=0.1


Tree=11
num_leaves=31
num_cat=0
split_feature=47 47 47 47 47 144 47 144 145 144 144 144 55 90 47 55 26 18 46 51 142 0 143 60 76 143 130 10 10 31
split_gain=21571.4 4359.66 3042.24 732.532 567.728 557.608 478.245 440.935 403.209 291.658 250.776 215.885 211.24 242.901 210.586 204.384 250.863 191.162 175.722 171.24 258.839 227.074 237.516 255.624 228.936 226.667 189.073 167.476 251.384 165.26
threshold=10.500000000000002 6.5000000000000009 15.500000000000002 4.5000000000000009 12.500000000000002 0.19565217391304349 8.5000000000000018 0.84782608695652184 0.75000000000000011 0.5434782608695653 0.32608695652173919 0.63043478260869579 17.500000000000004 11.500000000000002 1.5000000000000002 11.500000000000002 9.5000000000000018 1.0000000180025095e-35 15.500000000000002 16.500000000000004 9.5000000000000018 10.500000000000002 8.5000000000000018 3.5000000000000004 7.5000000000000009 8.5000000000000018 16.500000000000004 8.5000000000000018 6.5000000000000009 15.500000000000002
decision_type=2 2 2 2 2 2 2 2 2 2 2 2 2 2 2 2 2 2 2 2 2 2 2 2 2 2 2 2 2 2
left_child=1 3 4 14 -2 -4 -3 8 9 18 -10 15 13 -11 -1 -12 -17 -6 27 21 -21 22 23 -20 -23 -26 -24 28 -7 -25
right_child=2 6 5 -5 17 7 -8 -9 10 12 11 -13 -14 -15 -16 16 -18 -19 19 20 -22 24 26 29 25 -27 -28 -29 -30 -31
leaf_value=-0.26331852768091485 0.040071502825921264 -0.070739445447776481 0.26227467466359139 -0.12604411000325796 -0.1946993328969587 0.10956985861063005 -0.014889009760828069 0.26281679252104972 0.30225888453423977 0.033469398030144003 0.15476313394979693 0.26912080289924456 0.24920528505585696 -0.24457139426635371 -0.19090651409597389 -0.3166439663618803 0.1463609071969986 0.1010141214370277 -0.13728300327504125 0.21697897471132732 -0.27384743130003869 0.18240934473563086 0.36044781437941964 0.28885853334631717 -0.13215407122825754 0.12681357915294761 0.031750463843345643 0.12133171337266123 -0.39181178117170934 -0.010106522440910341
leaf_weight=500 3064 2872 838 2170 22 20 3289 388 194 247 284 145 38 36 2041 22 25 3448 27 21 22 222 140 71 58 81 20 62 20 25
leaf_count=500 3064 2872 838 2170 22 20 3289 388 194 247 284 145 38 36 2041 22 25 3448 27 21 22 222 140 71 58 81 20 62 20 25
internal_value=-8.91263e-11 -0.0962977 0.109743 -0.168715 0.0714405 0.192999 -0.0409241 0.166222 0.145167 0.10819 0.206427 0.16737 0.0278261 -0.00189975 -0.205155 0.122796 -0.0703648 0.0991393 0.140886 0.15907 -0.0341415 0.171971 0.239037 0.13455 0.119396 0.0187551 0.319361 0.0184091 -0.141121 0.211003
internal_weight=20412 10872 9540 4711 6534 3006 6161 2168 1780 1110 670 476 321 283 2541 331 47 3470 789 687 43 644 283 123 361 139 160 102 40 96
internal_count=20412 10872 9540 4711 6534 3006 6161 2168 1780 1110 670 476 321 283 2541 331 47 3470 789 687 43 644 283 123 361 139 160 102 40 96
is_linear=0
shrinkage=0.1


Tree=12
num_leaves=31
num_cat=0
split_feature=47 47 47 47 47 47 47 144 144 143 109 79 113 90 76 95 102 26 143 144 50 141 144 144 92 140 122 25 25 56
split_gain=17537.2 3310.97 2466.29 673.017 624.822 432.245 318.56 267.003 349.449 281.008 266.456 247.82 251.391 219.131 215.741 290.316 283.029 192.558 197.603 176.959 172.775 171.734 168.207 161.97 166.475 151.278 150.845 150.552 147.587 151.316
threshold=9.5000000000000018 14.500000000000002 5.5000000000000009 17.500000000000004 11.500000000000002 7.5000000000000009 3.5000000000000004 0.19565217391304349 0.76086956521739146 3.5000000000000004 19.500000000000004 15.500000000000002 13.500000000000002 13.500000000000002 7.5000000000000009 16.500000000000004 5.5000000000000009 11.500000000000002 1.5000000000000002 0.5434782608695653 18.500000000000004 1.0000000180025095e-35 0.67391304347826098 0.19565217391304349 14.500000000000002 13.500000000000002 1.5000000000000002 4.5000000000000009 8.5000000000000018 11.500000000000002
decision_type=2 2 2 2 2 2 2 2 2 2 2 2 2 2 2 2 2 2 2 2 2 2 2 2 2 2 2 2 2 2
left_child=2 4 6 7 22 19 -1 -3 9 11 13 12 26 21 -15 16 -16 18 27 -4 -7 -5 23 -2 -25 -18 -9 -6 29 -11
right_child=1 3 5 10 17 20 -8 8 -10 28 -12 -13 -14 14 15 -17 25 -19 -20 -21 -22 -23 -24 24 -26 -27 -28 -29 -30 -31
leaf_value=-0.19968406969400554 0.034469708750569948 0.1844635566039321 -0.12243472212423684 0.010579045387831602 -0.23411833506343621 -0.041994229001916662 -0.13965678157476022 0.22564727768887027 0.17899297838022699 0.079542810989589235 -0.082809387507938578 -0.34851610632169816 -0.28703318834304808 0.25652599991924724 0.16274719899115356 0.1807448771571257 -0.30212473375456672 0.095727883743587067 0.060050008379491038 -0.068160573080918635 0.073139801468042762 0.24198151447085448 0.042333204407794672 -0.010340655609292704 -0.10386398697369977 0.0097253105204020227 0.0053353870859722688 -0.0039328445563253196 0.12218004103403453 -0.092601445426835738
leaf_weight=1625 659 547 1106 33 35 3131 1939 39 462 205 31 21 25 134 46 181 35 1699 2223 1315 136 1140 1091 1152 228 28 153 151 774 68
leaf_count=1625 659 547 1106 33 35 3131 1939 39 462 205 31 21 25 134 46 181 35 1699 2223 1315 136 1140 1091 1152 228 28 153 151 774 68
internal_value=4.15474e-11 0.0843962 -0.101801 0.158391 0.0443013 -0.0609319 -0.167026 0.123494 0.104404 0.0775865 0.207564 -0.0204963 0.0112476 0.213201 0.151589 0.1031 -0.025832 0.0699476 0.0517655 -0.092955 -0.0372014 0.235471 0.0106414 -0.00631579 -0.0257923 -0.163525 0.0500862 -0.0472473 0.0998823 0.0366644
internal_weight=20412 11160 9252 3922 7238 5688 3564 2294 1747 1285 1628 238 217 1597 424 290 109 4108 2409 2421 3267 1173 3130 2039 1380 63 192 186 1047 273
internal_count=20412 11160 9252 3922 7238 5688 3564 2294 1747 1285 1628 238 217 1597 424 290 109 4108 2409 2421 3267 1173 3130 2039 1380 63 192 186 1047 273
is_linear=0
shrinkage=0.1


Tree=13
num_leaves=31
num_cat=0
split_feature=47 47 47 47 47 144 47 144 145 130 9 144 144 143 60 16 145 54 66 125 74 144 49 43 29 28 141 18 95 95
split_gain=14216.1 2869 2046.96 508.542 493.642 348.558 316.347 252.781 262.992 333.675 298.486 196.825 247.543 201.825 253.87 241.726 201.24 292.161 196.419 211.577 281.507 185.721 186.207 185.88 183.78 180.866 180.222 261.825 230.999 363.015
threshold=10.500000000000002 6.5000000000000009 16.500000000000004 12.500000000000002 4.5000000000000009 0.1521739130434783 8.5000000000000018 0.84782608695652184 0.75000000000000011 16.500000000000004 11.500000000000002 0.19565217391304349 0.80434782608695665 7.5000000000000009 4.5000000000000009 18.500000000000004 0.25000000000000006 5.5000000000000009 1.0000000180025095e-35 7.5000000000000009 4.5000000000000009 0.32608695652173919 5.5000000000000009 17.500000000000004 12.500000000000002 12.500000000000002 4.5000000000000009 4.5000000000000009 10.500000000000002 4.5000000000000009
decision_type=2 2 2 2 2 2 2 2 2 2 2 2 2 2 2 2 2 2 2 2 2 2 2 2 2 2 2 2 2 2
left_child=1 4 3 -2 -1 -4 -3 8 9 26 25 -5 13 14 -13 16 17 -16 -18 -20 -21 -10 -23 -24 -15 -11 27 -7 29 -29
right_child=2 6 5 11 -6 7 -8 -9 21 10 -12 12 -14 24 15 -17 18 -19 19 20 -22 22 23 -25 -26 -27 -28 28 -30 -31
leaf_value=-0.16683521787982344 0.032135778061034008 -0.05750388128554558 0.24396322842023169 0.12485932389508964 -0.10189250028078459 0.3523535332896493 -0.012080073552577102 0.23771488377292244 0.25858028343292921 -0.042274882438881646 0.10784401487973001 0.094574554740583586 0.1234174994439745 0.058062622490528099 -0.40021577592818969 0.16819461052705134 -0.28073386389600191 -0.058573473187593317 0.062554022306661822 0.13915822252631188 -0.17518507965529961 0.20447791517315586 0.17472392928972841 -0.042483484601399987 0.13616152075212656 -0.39545326263740144 0.14791963549972709 -0.20051868788897995 -0.27588290795683862 0.17082842007859964
leaf_weight=2541 3064 2872 516 984 2170 22 3289 280 221 29 54 359 764 916 31 70 23 130 327 40 99 209 75 83 449 29 621 40 28 77
leaf_count=2541 3064 2872 516 984 2170 22 3289 280 221 29 54 359 764 916 31 70 23 130 327 40 99 209 75 83 449 29 621 40 28 77
internal_value=3.39293e-10 -0.0781749 0.0890899 0.0631015 -0.136921 0.171652 -0.0332547 0.150548 0.134145 0.100164 -0.0613441 0.0857348 0.073734 0.0582029 0.0258813 -0.0083699 -0.0273845 -0.124356 0.00454252 0.0186227 -0.0847266 0.186157 0.142545 0.0606213 0.0837523 -0.218864 0.12312 0.0308988 -0.0178737 0.0438721
internal_weight=20412 10872 9540 7256 4711 2284 6161 1768 1488 900 112 4192 3208 2444 1079 720 650 161 489 466 139 588 367 158 1365 58 788 167 145 117
internal_count=20412 10872 9540 7256 4711 2284 6161 1768 1488 900 112 4192 3208 2444 1079 720 650 161 489 466 139 588 367 158 1365 58 788 167 145 117
is_linear=0
shrinkage=0.1


Tree=14
num_leaves=31
num_cat=0
split_feature=47 47 47 47 47 47 47 109 27 35 144 88 50 102 94 48 62 35 144 144 117 44 144 121 75 116 56 4 144 50
split_gain=11558.5 2228.4 1619.71 659.79 291.109 249.978 222.97 195.688 191.464 212.586 168.282 175.163 376.197 201.588 237.997 162.597 270.552 284.346 157.035 208.84 188.387 186.121 184.101 165.168 225.343 156.617 162.002 156.122 145.124 220.917
threshold=9.5000000000000018 13.500000000000002 5.5000000000000009 17.500000000000004 7.5000000000000009 2.5000000000000004 11.500000000000002 19.500000000000004 7.5000000000000009 5.5000000000000009 0.19565217391304349 13.500000000000002 12.500000000000002 6.5000000000000009 16.500000000000004 8.5000000000000018 18.500000000000004 13.500000000000002 0.23913043478260873 0.71739130434782616 2.5000000000000004 11.500000000000002 0.58695652173913049 1.5000000000000002 7.5000000000000009 3.5000000000000004 17.500000000000004 1.5000000000000002 0.58695652173913049 18.500000000000004
decision_type=2 2 2 2 2 2 2 2 2 2 2 2 2 2 2 2 2 2 2 2 2 2 2 2 2 2 2 2 2 2
left_child=2 6 5 8 -4 -1 -2 10 9 -3 -5 -12 13 -13 -15 -11 17 -17 -10 20 23 22 -22 -20 -25 -7 -27 -23 -6 -30
right_child=1 3 4 7 28 25 -8 -9 18 15 11 12 -14 14 -16 16 -18 -19 19 -21 21 27 -24 24 -26 26 -28 -29 29 -31
leaf_value=-0.17924688098383251 0.0086521864844301636 0.15353678289048422 -0.075806071194375796 0.2223219912454486 -0.049338939378438237 -0.065949033180960515 0.047222163524577115 -0.079434283807753567 0.14034131092490518 0.063662252294519661 0.17408999312656931 0.22875681447752175 -0.2154631588910077 -0.12297085231790941 0.17317135092513314 0.042063186227094609 -0.35414480039104823 -0.27684659145095131 0.075152784143237103 0.13333388927447445 0.097086522934076047 -0.18583606328815222 -0.20184335070765683 0.011669249630513344 -0.3182534942755828 -0.1377184895902607 -0.023782621503324438 0.096359962291429735 -0.015116487111149129 0.17623497827776843
leaf_weight=956 3130 151 2421 500 1778 452 2876 31 850 356 846 105 37 51 58 183 25 33 69 680 38 20 45 47 37 2023 133 992 1426 63
leaf_count=956 3130 151 2421 500 1778 452 2876 31 850 356 846 105 37 51 58 183 25 33 69 680 38 20 45 47 37 2023 133 992 1426 63
internal_value=-5.29598e-10 0.0685162 -0.082646 0.116754 -0.0495261 -0.135504 0.0271216 0.169409 0.0924419 0.0475345 0.17424 0.152324 0.0789632 0.129869 0.0346094 0.0207232 -0.0427054 -0.00665914 0.104534 0.0887471 0.064453 0.078976 -0.0649839 -0.0394862 -0.133654 -0.11947 -0.13069 0.090783 -0.0300514 -0.00702035
internal_weight=20412 11160 9252 5154 5688 3564 6006 1628 3526 748 1597 1097 251 214 109 597 241 216 2778 1928 1248 1095 83 153 84 2608 2156 1012 3267 1489
internal_count=20412 11160 9252 5154 5688 3564 6006 1628 3526 748 1597 1097 251 214 109 597 241 216 2778 1928 1248 1095 83 153 84 2608 2156 1012 3267 1489
is_linear=0
shrinkage=0.1


Tree=15
num_leaves=31
num_cat=0
split_feature=47 47 47 47 144 47 144 144 144 50 145 127 64 81 143 144 144 145 62 84 113 135 18 102 50 114 144 88 109 26
split_gain=9365.99 1889.83 1359.65 338.05 278.645 244.972 238.452 232.657 309.397 252.393 219.187 202.417 241.035 194.641 169.473 165.909 152.959 202.097 327.544 150.287 184.798 148.785 139.902 137.185 242.893 171.474 135.852 149.192 134.011 129.215
threshold=10.500000000000002 6.5000000000000009 15.500000000000002 4.5000000000000009 0.1521739130434783 12.500000000000002 0.89130434782608703 0.50000000000000011 0.23913043478260873 17.500000000000004 0.75000000000000011 18.500000000000004 10.500000000000002 8.5000000000000018 8.5000000000000018 0.282608695652174 0.50000000000000011 0.75000000000000011 15.500000000000002 18.500000000000004 15.500000000000002 12.500000000000002 1.0000000180025095e-35 7.5000000000000009 11.500000000000002 16.500000000000004 0.76086956521739146 16.500000000000004 16.500000000000004 6.5000000000000009
decision_type=2 2 2 2 2 2 2 2 2 2 2 2 2 2 2 2 2 2 2 2 2 2 2 2 2 2 2 2 2 2
left_child=1 3 5 16 -4 -2 10 8 -3 -9 11 14 13 -13 19 -12 -1 18 26 20 -6 -11 -7 24 25 -17 27 -18 -16 -19
right_child=2 7 4 -5 6 22 -8 9 -10 21 15 12 -14 -15 28 23 17 29 -20 -21 -22 -23 -24 -25 -26 -27 -28 -29 -30 -31
leaf_value=-0.16695516196071919 0.026100787672994771 -0.016435075709096667 0.18616468091625088 -0.082144819941663533 0.037392002093435836 -0.18647174339064143 0.19393566857336217 -0.016440886510716027 -0.083096479850927163 0.060176888786806874 0.22538511555560015 -0.031631196507563193 0.12559930447376136 -0.44342404937540947 0.13544919849649228 0.1186062679052407 -0.093549647463137306 -0.23052493017604095 0.060131006895518695 -0.165906622633338 0.23257398099284965 0.29105856346361564 0.066505275333939101 0.16982842255739197 -0.2483125548471104 -0.15489380502700806 -0.15122427335199046 0.10499674063630221 -0.013017011269488754 -0.11958034469921519
leaf_weight=976 3064 1454 646 2170 477 22 309 3157 1336 181 182 24 33 22 574 276 492 213 122 32 54 33 3448 262 22 25 490 41 68 207
leaf_count=976 3064 1454 646 2170 477 22 309 3157 1336 181 182 24 33 22 574 276 492 213 122 32 54 33 3448 262 22 25 490 41 68 207
internal_value=-4.81255e-10 -0.0634532 0.0723127 -0.111132 0.127972 0.0467066 0.112043 -0.0269957 -0.0483561 -0.0093168 0.0997046 0.0744384 -0.0806291 -0.228576 0.0846047 0.142002 -0.135887 -0.116511 -0.0947471 0.0445577 0.057241 0.0957801 0.0649014 0.11606 0.0724462 0.0958903 -0.113217 -0.0782768 0.119724 -0.175845
internal_weight=20412 10872 9540 4711 3006 6534 2360 6161 2790 3371 2051 1284 79 46 1205 767 2541 1565 1145 563 531 214 3470 585 323 301 1023 533 642 420
internal_count=20412 10872 9540 4711 3006 6534 2360 6161 2790 3371 2051 1284 79 46 1205 767 2541 1565 1145 563 531 214 3470 585 323 301 1023 533 642 420
is_linear=0
shrinkage=0.1


Tree=16
num_leaves=31
num_cat=0
split_feature=47 47 47 47 47 47 109 144 144 3 73 23 60 79 85 89 76 60 1 17 1 25 144 65 39 31 142 117 16 47
split_gain=7691.6 1466.34 1055.06 377.821 314.873 248.392 209.228 180.334 331.386 185.354 176.325 213.486 186.567 180.478 242.46 168.962 166.918 198.134 165.933 291.888 154.547 154.161 152.252 148.941 236.04 281.53 144.196 143.496 140.565 133.862
threshold=9.5000000000000018 14.500000000000002 4.5000000000000009 18.500000000000004 7.5000000000000009 11.500000000000002 19.500000000000004 0.36956521739130438 0.76086956521739146 18.500000000000004 3.5000000000000004 18.500000000000004 17.500000000000004 15.500000000000002 19.500000000000004 6.5000000000000009 8.5000000000000018 13.500000000000002 12.500000000000002 12.500000000000002 7.5000000000000009 1.5000000000000002 0.5434782608695653 12.500000000000002 19.500000000000004 13.500000000000002 1.0000000180025095e-35 10.500000000000002 7.5000000000000009 1.5000000000000002
decision_type=2 2 2 2 2 2 2 2 2 2 2 2 2 2 2 2 2 2 2 2 2 2 2 2 2 2 2 2 2 2
left_child=2 5 29 7 22 -2 23 -3 9 10 -9 12 13 15 -15 18 27 -18 19 -12 -14 28 -4 26 -25 -26 -5 -17 -7 -1
right_child=1 3 4 6 -6 21 -8 8 -10 -11 11 -13 20 14 -16 16 17 -19 -20 -21 -22 -23 -24 24 25 -27 -28 -29 -30 -31
leaf_value=-0.1686710430249572 0.0079866826084379946 0.11217557275918895 -0.090761382690045661 -0.06936432421207428 -0.024399606750626374 0.029817898039306914 -0.16508823193609715 0.086841730101512804 0.12222189741514611 0.25026362305240973 -0.10076216786495738 0.2524469651024917 0.22299291428923609 -0.42104103914622604 -0.0084880556379045759 0.13887505148679524 -0.13602226009627558 0.13838899922158038 0.050837368078720885 -0.52318197375252129 -0.019924188743938101 0.047594390157265673 -0.048536352862835058 0.13849242857624111 0.11606018878519536 -0.39194503069855274 0.19026368475634636 -0.069344432554815136 -0.29641463640332222 -0.11093790244894255
leaf_weight=500 3130 1363 1566 22 3267 28 20 249 561 35 74 29 50 29 28 118 106 35 39 21 55 4055 1878 224 24 20 774 46 25 2041
leaf_count=500 3130 1363 1566 22 3267 28 20 249 561 35 74 29 50 29 28 118 106 35 39 21 55 4055 1878 224 24 20 774 46 25 2041
internal_value=2.35987e-10 0.0558922 -0.0674186 0.105135 -0.0466394 0.0292095 0.155355 0.0859527 0.0617209 0.0245863 0.0156002 -0.0125571 -0.0253443 -0.0509793 -0.218383 -0.0292435 0.0118776 -0.067906 -0.12284 -0.194139 0.0957506 0.0453797 -0.0677362 0.161379 0.0968987 -0.114851 0.183088 0.080472 -0.124065 -0.122298
internal_weight=20412 11160 9252 3922 6711 7238 1084 2838 1475 914 879 630 601 496 57 439 305 141 134 95 105 4108 3444 1064 268 44 796 164 53 2541
internal_count=20412 11160 9252 3922 6711 7238 1084 2838 1475 914 879 630 601 496 57 439 305 141 134 95 105 4108 3444 1064 268 44 796 164 53 2541
is_linear=0
shrinkage=0.1


Tree=17
num_leaves=31
num_cat=0
split_feature=47 47 47 47 144 144 144 144 145 60 66 90 81 25 1 84 14 134 79 3 115 144 144 55 144 81 4 47 90 75
split_gain=6230.19 1207.57 862.555 400.391 205.492 276.15 180.416 204.612 178.493 233.693 193.996 174.094 180.778 164.67 157.207 155.678 143.145 139.98 131.911 124.532 123.782 123.512 157.173 326.046 343.441 255.446 226.532 189.984 182.875 118.289
threshold=9.5000000000000018 13.500000000000002 5.5000000000000009 18.500000000000004 0.76086956521739146 0.19565217391304349 0.5434782608695653 0.23913043478260873 0.75000000000000011 15.500000000000002 20.500000000000004 19.500000000000004 9.5000000000000018 1.5000000000000002 13.500000000000002 9.5000000000000018 12.500000000000002 18.500000000000004 8.5000000000000018 19.500000000000004 9.5000000000000018 0.23913043478260873 0.67391304347826098 11.500000000000002 0.58695652173913049 10.500000000000002 12.500000000000002 19.500000000000004 8.5000000000000018 17.500000000000004
decision_type=2 2 2 2 2 2 2 2 2 2 2 2 2 2 2 2 2 2 2 2 2 2 2 2 2 2 2 2 2 2
left_child=2 4 8 13 5 -2 7 -4 9 -1 16 21 -13 18 29 -8 -11 -7 -3 -10 -18 -5 23 24 26 -25 -23 -26 -28 -15
right_child=1 3 6 11 -6 17 15 -9 19 10 -12 12 -14 14 -16 -17 20 -19 -20 -21 -22 22 -24 25 27 -27 28 -29 -30 -31
leaf_value=-0.096692063287688451 0.048452717217636526 -0.26522957619566184 -0.026395869977374115 0.19025793124223669 0.051454579802552407 -0.012365052858303104 -0.038145136476034264 -0.08107479410421492 -0.14402520839477082 -0.028233537425948009 -0.1961814939298413 0.15372559572088307 -0.19362502672499227 0.054572547417457207 0.10381440263822206 0.0087601268900378716 0.24809455209308201 0.069603357703558036 0.071742354120526999 0.078045204070468374 0.021574702715644472 0.2032602323202394 0.19606776291664729 -0.30440714584929607 0.049262285232543945 0.136756574681827 0.15081835240125657 -0.36805254653096203 -0.18271082610853259 0.12955614526849646
leaf_weight=2364 1271 26 1310 431 1531 2980 1763 1433 878 155 44 29 31 2588 1206 1182 45 224 21 26 52 241 186 35 24 21 35 20 31 229
leaf_count=2364 1271 26 1310 431 1531 2980 1763 1433 878 155 44 29 31 2588 1206 1182 45 224 21 26 52 241 186 35 24 21 35 20 31 229
internal_value=-5.86586e-10 0.050303 -0.0606767 0.0858125 0.0198308 0.00901155 -0.0365074 -0.0549613 -0.09925 -0.0862038 -0.00243934 0.13982 -0.0257389 0.0714282 0.0736024 -0.0193193 0.0313887 -0.00663443 -0.114668 -0.137638 0.126661 0.14952 0.119912 0.0851086 0.120859 -0.138971 0.158307 -0.140426 -0.00583929 0.0606681
internal_weight=20412 11160 9252 5154 6006 4475 5688 2743 3564 2660 296 1084 60 4070 4023 2945 252 3204 47 904 97 1024 593 407 351 56 307 44 66 2817
internal_count=20412 11160 9252 5154 6006 4475 5688 2743 3564 2660 296 1084 60 4070 4023 2945 252 3204 47 904 97 1024 593 407 351 56 307 44 66 2817
is_linear=0
shrinkage=0.1


Tree=18
num_leaves=31
num_cat=0
split_feature=47 47 47 47 144 144 134 35 114 144 111 137 112 102 74 23 20 101 17 88 13 3 47 144 51 37 93 4 77 45
split_gain=5059.17 1034.33 775.736 214.512 198.932 293.3 204.615 189.872 168.454 158.153 157.444 191.317 173.552 170.243 147.186 144.737 137.341 220.713 135.07 131.023 217.747 210.204 172.983 134.837 190.906 197.309 184.569 139.781 128.981 130.368
threshold=10.500000000000002 6.5000000000000009 16.500000000000004 3.5000000000000004 0.19565217391304349 0.67391304347826098 18.500000000000004 12.500000000000002 1.0000000180025095e-35 0.1521739130434783 16.500000000000004 7.5000000000000009 18.500000000000004 12.500000000000002 2.5000000000000004 3.5000000000000004 4.5000000000000009 13.500000000000002 9.5000000000000018 17.500000000000004 10.500000000000002 7.5000000000000009 13.500000000000002 0.58695652173913049 7.5000000000000009 12.500000000000002 4.5000000000000009 1.5000000000000002 17.500000000000004 9.5000000000000018
decision_type=2 2 2 2 2 2 2 2 2 2 2 2 2 2 2 2 2 2 2 2 2 2 2 2 2 2 2 2 2 2
left_child=1 3 4 -1 -2 6 8 -3 14 -4 -11 -12 13 -13 -6 -10 17 -17 -16 22 21 -21 -18 27 25 -25 -26 -24 29 -7
right_child=2 7 9 -5 5 28 -8 -9 15 10 11 12 -14 -15 18 16 19 -19 -20 20 -22 -23 23 24 26 -27 -28 -29 -30 -31
leaf_value=-0.11131492457802479 0.068105916813352915 -0.02943848344543944 0.15268124383161588 -0.066424044710327465 -0.31692799207355299 -0.0091576807224439429 0.094445173087340781 0.011865274051513488 -0.086717108860611916 0.099958234691985934 0.17188339324630039 -0.4037442424080589 0.047928402821222946 -0.0603536127223855 0.093115183048778111 0.057528774118395035 -0.0073235676054464807 0.41792939245700844 -0.16806909651918844 -0.031749417750458968 0.0029858815946553381 -0.36018213942646982 -0.17859210222959521 -0.13290219050029228 -0.41326382954915364 0.20623803037617888 -0.055474113332836528 0.065988473671382816 0.12397877285483855 0.059960742204104467
leaf_weight=1625 1614 4703 516 3086 28 329 266 1458 155 1583 49 22 72 42 36 113 1508 20 44 38 163 40 24 29 21 42 46 886 254 1600
leaf_count=1625 1614 4703 516 3086 28 329 266 1458 155 1583 49 22 72 42 36 113 1508 20 44 38 163 40 24 29 21 42 46 886 254 1600
internal_value=-3.74714e-10 -0.0466355 0.0531469 -0.0819086 0.0371482 0.0282922 0.0101792 -0.019664 0.00315921 0.103973 0.0897567 0.00246436 -0.0585763 -0.178394 -0.119601 0.00745681 0.0124387 0.111724 -0.0505362 0.00771757 -0.0627679 -0.200176 0.0143635 0.0455697 -0.04654 0.067716 -0.167617 0.059538 0.0569926 0.0481723
internal_weight=20412 10872 9540 4711 7256 5642 3459 6161 3193 2284 1768 185 136 64 108 3085 2930 133 80 2797 241 78 2556 1048 138 71 67 910 2183 1929
internal_count=20412 10872 9540 4711 7256 5642 3459 6161 3193 2284 1768 185 136 64 108 3085 2930 133 80 2797 241 78 2556 1048 138 71 67 910 2183 1929
is_linear=0
shrinkage=0.1


Tree=19
num_leaves=31
num_cat=0
split_feature=47 47 47 47 144 144 35 109 33 133 25 42 65 144 145 63 1 16 144 89 60 144 73 141 135 145 131 54 96 135
split_gain=4164.8 1062.31 387.369 284.264 187.619 160.686 156.139 150.501 146.205 149.631 131.777 125.62 126.867 123.171 137.526 242.057 121.998 112.827 154.444 147.97 183.808 174.648 211.966 285.346 239.508 217.617 158.286 177.354 142.551 116.584
threshold=8.5000000000000018 13.500000000000002 4.5000000000000009 18.500000000000004 0.89130434782608703 0.23913043478260873 10.500000000000002 19.500000000000004 9.5000000000000018 17.500000000000004 1.5000000000000002 5.5000000000000009 1.5000000000000002 0.50000000000000011 0.75000000000000011 14.500000000000002 13.500000000000002 9.5000000000000018 0.36956521739130438 10.500000000000002 4.5000000000000009 0.89130434782608703 3.5000000000000004 9.5000000000000018 6.5000000000000009 0.25000000000000006 14.500000000000002 1.5000000000000002 8.5000000000000018 17.500000000000004
decision_type=2 2 2 2 2 2 2 2 2 2 2 2 2 2 2 2 2 2 2 2 2 2 2 2 2 2 2 2 2 2
left_child=2 4 13 10 5 -2 11 -5 -4 -10 -3 12 -7 -1 15 -15 17 -12 29 20 -20 22 -22 24 -24 -26 27 -21 -29 -19
right_child=1 3 8 7 -6 6 -8 -9 9 -11 16 -13 -14 14 -16 -17 -18 18 19 26 21 -23 23 -25 25 -27 -28 28 -30 -31
leaf_value=-0.11847017113058295 0.029374516386446954 -0.10875167334650426 -0.057587776595339618 0.12045793840403432 0.052156898182256488 0.27587431208653884 0.013896031110429861 -0.15642677649855616 -0.029754278638542898 0.081682171198190198 0.071522127797775087 -0.029753528857172404 0.023582226986873827 -0.073238827171289975 -0.12214948176982857 0.062269293768392679 0.086282603515124429 0.055219147282388727 0.051290520622770598 -0.24260698149725798 0.029277032292840711 0.08214452867396177 -0.09949412231936175 -0.0231184722117052 -0.62823857317368192 -0.25076342860148071 0.15438428141141886 0.098418866699938878 -0.051231042488794266 0.21371668795496226
leaf_weight=976 1948 47 2859 1064 974 22 2312 20 2055 128 1199 2207 212 993 420 152 1206 646 181 25 83 60 51 87 24 42 107 153 109 50
leaf_count=976 1948 47 2859 1064 974 22 2312 20 2055 128 1199 2207 212 993 420 152 1206 646 181 25 83 60 51 87 24 42 107 153 109 50
internal_value=-2.25098e-10 0.0347279 -0.058753 0.0698431 0.0111469 0.00518606 -0.00472749 0.115349 -0.0427079 -0.0232202 0.057723 -0.0223668 0.047302 -0.0905907 -0.0732038 -0.05525 0.0596679 0.0482738 0.0310459 0.0042026 -0.0304035 -0.0730162 -0.105454 -0.160271 -0.262256 -0.388027 0.0505783 0.0118771 0.0361599 0.0666055
internal_weight=20412 12829 7583 5154 7675 6701 4753 1084 5042 2183 4070 2441 234 2541 1565 1145 4023 2817 1618 922 528 347 287 204 117 66 394 287 262 696
internal_count=20412 12829 7583 5154 7675 6701 4753 1084 5042 2183 4070 2441 234 2541 1565 1145 4023 2817 1618 922 528 347 287 204 117 66 394 287 262 696
is_linear=0
shrinkage=0.1


Tree=20
num_leaves=31
num_cat=0
split_feature=47 47 47 47 47 144 144 145 127 64 81 140 144 144 10 112 86 125 18 117 31 19 11 43 22 39 125 2 26 88
split_gain=3399.16 663.316 472.166 176.236 166.996 136.037 153.409 160.13 149.543 183.714 137.05 136.126 132.672 137.537 125.774 115.433 118.099 187.161 113.99 107.568 106.201 104.787 103.887 103.671 138.87 147.176 121.448 149.949 118.281 116.262
threshold=9.5000000000000018 15.500000000000002 4.5000000000000009 12.500000000000002 7.5000000000000009 0.1521739130434783 0.89130434782608703 0.75000000000000011 18.500000000000004 10.500000000000002 8.5000000000000018 1.0000000180025095e-35 0.67391304347826098 0.23913043478260873 16.500000000000004 17.500000000000004 4.5000000000000009 15.500000000000002 1.0000000180025095e-35 6.5000000000000009 8.5000000000000018 18.500000000000004 4.5000000000000009 13.500000000000002 17.500000000000004 11.500000000000002 1.0000000180025095e-35 10.500000000000002 6.5000000000000009 13.500000000000002
decision_type=2 2 2 2 2 2 2 2 2 2 2 2 2 2 2 2 2 2 2 2 2 2 2 2 2 2 2 2 2 2
left_child=2 3 19 12 14 -3 7 8 11 10 -10 -7 13 -2 20 22 -17 -18 -5 -1 -4 -22 -9 24 25 28 27 -25 -13 -28
right_child=1 5 4 18 -6 6 -8 15 9 -11 -12 23 -14 -15 -16 16 17 -19 -20 -21 21 -23 -24 26 -26 -27 29 -29 -30 -31
leaf_value=-0.055325459791068669 0.024716555801639492 0.11796973254070287 -0.072045396726936814 -0.18746966279365801 -0.014721429249813954 -0.17448903535093582 0.13186514649094117 0.22528765770105219 -0.062500205954226354 0.08144677246384549 -0.40804309286177159 -0.12300157549125808 0.033087520225169385 -0.018840096868394364 0.0081440379388541696 0.12344372416536015 -0.35773669540882114 0.064938164570114837 0.040881892268024897 -0.097685389029947486 -0.030321076084221871 -0.18351295786282129 0.092503322717245859 0.077268720709759264 0.2208345589430436 -0.14092249478920396 0.094090672231977812 -0.2923248526595888 0.095054216115453907 0.015430891125890099
leaf_weight=969 1164 646 1497 22 3267 28 309 65 24 33 22 35 1598 1922 378 30 20 22 3448 1572 1523 46 630 23 23 83 640 21 86 266
leaf_count=969 1164 646 1497 22 3267 28 309 65 24 33 22 35 1598 1922 378 30 20 22 3448 1572 1523 46 630 23 23 83 640 21 86 266
internal_value=-1.10609e-11 0.037156 -0.0448185 0.0223534 -0.0309177 0.0773091 0.0661791 0.056283 0.0346872 -0.0985976 -0.22776 0.0434254 0.00969967 -0.00241108 -0.0462817 0.0924355 -0.0280942 -0.136336 0.0394341 -0.0815316 -0.0529917 -0.0348124 0.104922 0.0486094 -0.0121047 -0.0383674 0.0631168 -0.0991282 0.0319802 0.0709963
internal_weight=20412 11160 9252 8154 6711 3006 2360 2051 1284 79 46 1205 4684 3086 3444 767 72 42 3470 2541 3066 1569 695 1177 227 204 950 44 121 906
internal_count=20412 11160 9252 8154 6711 3006 2360 2051 1284 79 46 1205 4684 3086 3444 767 72 42 3470 2541 3066 1569 695 1177 227 204 950 44 121 906
is_linear=0
shrinkage=0.1


Tree=21
num_leaves=31
num_cat=0
split_feature=47 47 47 26 18 47 6 54 36 77 144 142 145 62 145 66 51 138 64 82 70 92 9 80 71 35 88 107 47 0
split_gain=2770.72 565.595 427.741 205.224 194.938 183.857 180.292 205.743 218.011 186.883 169.081 160.318 152.878 138.41 221.238 137.94 135.494 120.902 119.283 114.945 214.717 131.822 118.714 132.743 115.403 111.591 108.388 108.108 106.966 103.554
threshold=10.500000000000002 7.5000000000000009 17.500000000000004 11.500000000000002 10.500000000000002 1.5000000000000002 5.5000000000000009 7.5000000000000009 12.500000000000002 4.5000000000000009 0.5434782608695653 10.500000000000002 0.75000000000000011 15.500000000000002 0.75000000000000011 1.0000000180025095e-35 18.500000000000004 17.500000000000004 4.5000000000000009 16.500000000000004 10.500000000000002 1.5000000000000002 14.500000000000002 2.5000000000000004 9.5000000000000018 12.500000000000002 2.5000000000000004 5.5000000000000009 12.500000000000002 11.500000000000002
decision_type=2 2 2 2 2 2 2 2 2 2 2 2 2 2 2 2 2 2 2 2 2 2 2 2 2 2 2 2 2 2
left_child=1 5 3 4 6 -1 7 8 -2 -10 -7 12 15 -12 -15 -6 25 28 -8 21 -21 24 23 -23 27 -3 -25 -17 -9 -24
right_child=2 16 -4 -5 11 10 18 17 9 -11 13 -13 -14 14 -16 19 -18 -19 -20 20 -22 22 29 26 -26 -27 -28 -29 -30 -31
leaf_value=-0.11317393214553595 -0.026743928115932722 -0.021366444560492869 0.08601110182238883 0.047873236113257292 -0.26962248091736146 -0.069114880404716625 0.077546655487590183 -0.0096113614176202757 -0.36097205928748566 -0.045596509887015121 -0.041704832047073523 0.025578045077349204 0.037654911203636593 0.069315919201807241 -0.11575838406296338 -0.079755019040211386 0.067238319489885776 -0.20505953952670097 0.028207524926332175 -0.40267486364509053 -0.037016053604228154 0.081414601380865162 0.19102444948096362 -0.28443850415920763 0.03413041844254449 0.015335735471135726 -0.059160639266062992 -0.36792119652032856 0.095326899654359976 -0.0012865671887993813
leaf_weight=500 253 3589 1628 3486 31 2486 734 180 42 34 2645 601 191 269 85 23 221 20 1474 26 42 65 42 23 21 1077 299 30 211 84
leaf_count=500 253 3589 1628 3486 31 2486 734 180 42 34 2645 601 191 269 85 23 221 20 1474 26 42 65 42 23 21 1077 299 30 211 84
internal_value=-1.51587e-10 -0.0345123 0.0393309 0.0297259 0.0154327 -0.0551227 0.0302926 -0.0124251 -0.0713596 -0.219883 -0.0498309 -0.0142067 -0.0414708 -0.0338455 0.0248772 -0.0635014 -0.00927111 0.0347512 0.0446092 -0.0537461 -0.176827 -0.039488 -0.0214897 -0.0489384 -0.16426 -0.0128949 -0.0752519 -0.242868 0.0470177 0.0628171
internal_weight=20412 10872 9540 7912 4426 5985 2948 740 329 76 5485 1478 877 2999 354 686 4887 411 2208 655 68 587 513 387 74 4666 322 53 391 126
internal_count=20412 10872 9540 7912 4426 5985 2948 740 329 76 5485 1478 877 2999 354 686 4887 411 2208 655 68 587 513 387 74 4666 322 53 391 126
is_linear=0
shrinkage=0.1


Tree=22
num_leaves=31
num_cat=0
split_feature=47 47 47 47 51 28 82 21 15 90 108 65 73 144 114 50 24 32 64 95 117 93 84 93 53 91 54 16 108 136
split_gain=2251.04 589.154 224.666 172.698 147.622 125.795 168.85 131.162 136.987 123.716 133.081 114.299 140.315 111.852 108.226 107.226 104.787 112.138 103.225 95.1351 127.561 95.647 96.9605 99.0274 94.2598 93.7046 126.118 92.3188 137.952 113.865
threshold=8.5000000000000018 13.500000000000002 3.5000000000000004 18.500000000000004 18.500000000000004 3.5000000000000004 18.500000000000004 5.5000000000000009 16.500000000000004 19.500000000000004 9.5000000000000018 5.5000000000000009 5.5000000000000009 0.065217391304347838 14.500000000000002 2.5000000000000004 2.5000000000000004 11.500000000000002 2.5000000000000004 3.5000000000000004 1.0000000180025095e-35 7.5000000000000009 9.5000000000000018 5.5000000000000009 7.5000000000000009 8.5000000000000018 20.500000000000004 9.5000000000000018 19.500000000000004 18.500000000000004
decision_type=2 2 2 2 2 2 2 2 2 2 2 2 2 2 2 2 2 2 2 2 2 2 2 2 2 2 2 2 2 2
left_child=2 4 19 13 11 7 25 8 14 -5 -11 -2 -13 -3 -4 -9 17 -15 -8 21 -21 22 23 24 -1 26 -7 28 -18 -29
right_child=1 3 5 9 -6 6 18 15 -10 10 -12 12 -14 16 -16 -17 27 -19 -20 20 -22 -23 -24 -25 -26 -27 -28 29 -30 -31
leaf_value=-0.1127052896506303 0.021270736003478209 0.094503395044074595 -0.066566185719437065 0.09532914781930231 0.069246341691372351 -0.0251148897612136 0.25122472857651501 -0.24980629227917503 0.22543459695472851 0.12998898675044376 -0.17401308191086476 -0.035232408647389572 0.0052463439030420054 -0.0080238703827279195 0.17617446517571808 -0.095249535230205476 0.056090297770913136 -0.27193908194700878 0.029414739667254827 0.066356658732847254 -0.0950324700815212 -0.19972255607446035 0.079036426129529172 0.16014731143202102 0.034105733202563396 -0.050960165992034762 0.16058517729696767 0.020161575378075031 0.32064180284738542 0.10169713790802395
leaf_weight=143 2678 372 225 1024 374 3165 23 54 20 24 36 1135 3488 69 20 266 1364 21 239 51 1233 30 84 21 63 1909 37 2037 20 187
leaf_count=143 2678 372 225 1024 374 3165 23 54 20 24 36 1135 3488 69 20 266 1364 21 239 51 1233 30 84 21 63 1909 37 2037 20 187
internal_value=-6.39809e-11 0.0255313 -0.0431942 0.0516821 0.00797024 -0.0342049 -0.0294103 -0.0782412 -0.0262083 0.0871516 -0.0524123 0.00483132 -0.00469166 0.0422352 -0.0467506 -0.121331 0.0369773 -0.0696041 0.0488866 -0.076153 -0.0886222 -0.0292015 -0.0127525 -0.0467185 -0.0678068 -0.033424 -0.0229691 0.0396359 0.0599133 0.0270173
internal_weight=20412 12829 7583 5154 7675 5958 5373 585 265 1084 60 7301 4623 4070 245 320 3698 90 262 1625 1284 341 311 227 206 5111 3202 3608 1384 2224
internal_count=20412 12829 7583 5154 7675 5958 5373 585 265 1084 60 7301 4623 4070 245 320 3698 90 262 1625 1284 341 311 227 206 5111 3202 3608 1384 2224
is_linear=0
shrinkage=0.1


Tree=23
num_leaves=31
num_cat=0
split_feature=47 47 47 26 145 18 133 66 2 92 84 144 144 92 133 52 24 95 66 123 91 117 100 75 103 5 130 40 47 72
split_gain=1866.43 491.874 218.224 176.263 174.592 161.53 159.836 162.404 146.176 144.734 205.682 128.996 130.726 123.375 122.731 163.23 196.301 136.125 198.225 118.449 196.699 111.508 126.276 176.752 111.413 110.959 143.372 131.157 110.634 108.526
threshold=11.500000000000002 7.5000000000000009 17.500000000000004 11.500000000000002 0.75000000000000011 10.500000000000002 15.500000000000002 1.0000000180025095e-35 5.5000000000000009 8.5000000000000018 9.5000000000000018 0.58695652173913049 0.065217391304347838 1.5000000000000002 6.5000000000000009 11.500000000000002 5.5000000000000009 2.5000000000000004 12.500000000000002 9.5000000000000018 12.500000000000002 7.5000000000000009 8.5000000000000018 7.5000000000000009 7.5000000000000009 2.5000000000000004 2.5000000000000004 13.500000000000002 1.0000000180025095e-35 4.5000000000000009
decision_type=2 2 2 2 2 2 2 2 2 2 2 2 2 2 2 2 2 2 2 2 2 2 2 2 2 2 2 2 2 2
left_child=1 9 3 4 5 8 7 -7 19 10 28 12 -3 -9 -15 16 -16 -18 -19 20 25 22 -12 -24 -8 -2 -27 -28 -1 -13
right_child=2 11 -4 -5 -6 6 24 13 -10 -11 21 29 -14 14 15 -17 17 18 -20 -21 -22 -23 23 -25 -26 26 27 -29 -30 -31
leaf_value=-0.17385319401368951 0.10263393336818333 0.027673679247761148 0.070239860201938106 0.047510314954598808 0.049427997043037353 -0.3110413230955601 0.17444637965548923 -0.18703322930817021 0.034024543142768045 -0.062797798708044486 0.0063063116763879216 -0.01759157391478634 -0.02577244989003551 0.025967018603192716 -0.34175204919143159 0.021474961510873126 0.074944285005331041 -0.065435913840109217 -0.32569198889305467 0.029781359011090736 -0.28739063082597194 -0.026957549589772728 0.25150408467898772 0.033571459580098793 -0.0096607855609839866 0.1203629809697824 -0.076795775622465756 -0.33989646583795552 -0.042643157182486548 0.024373302197050327
leaf_weight=66 42 539 1628 2893 1003 24 54 57 1292 2584 307 908 3032 223 33 136 45 140 37 158 39 430 60 98 84 28 90 24 2440 1918
leaf_count=66 42 539 1628 2893 1003 24 54 57 1292 2584 307 908 3032 223 33 136 45 140 37 158 39 430 60 98 84 28 90 24 2440 1918
internal_value=-1.33947e-10 -0.0243515 0.0375492 0.0292361 0.0141698 5.80925e-05 -0.035922 -0.0554412 0.0179729 -0.0449572 -0.0314023 -0.00507286 -0.0177054 -0.046299 -0.0332341 -0.0669984 -0.114184 -0.0803565 -0.11984 -0.0364596 -0.0833927 0.00974809 0.0436909 0.116331 0.0623811 -0.0401541 -0.0823871 -0.132185 -0.0460988 0.0108899
internal_weight=20412 12382 8030 6402 3509 2506 833 695 1673 5985 3401 6397 3571 671 614 391 255 222 177 381 223 895 465 158 138 184 142 114 2506 2826
internal_count=20412 12382 8030 6402 3509 2506 833 695 1673 5985 3401 6397 3571 671 614 391 255 222 177 381 223 895 465 158 138 184 142 114 2506 2826
is_linear=0
shrinkage=0.1


Tree=24
num_leaves=31
num_cat=0
split_feature=47 47 47 56 116 90 29 18 0 21 14 123 38 88 131 9 10 134 145 32 142 144 134 112 47 108 21 128 73 69
split_gain=1524.23 308.969 240.138 143.604 138.859 122.083 121.983 141.714 140.191 133.744 238.625 118.022 113.262 111.929 102.319 199.576 101.446 101.002 100.236 107.586 99.0379 164.537 174.211 222.364 170.278 196.179 155.598 145.98 106.551 105.28
threshold=10.500000000000002 6.5000000000000009 16.500000000000004 9.5000000000000018 8.5000000000000018 7.5000000000000009 12.500000000000002 10.500000000000002 5.5000000000000009 4.5000000000000009 5.5000000000000009 10.500000000000002 2.5000000000000004 17.500000000000004 19.500000000000004 11.500000000000002 14.500000000000002 18.500000000000004 0.75000000000000011 15.500000000000002 10.500000000000002 0.5434782608695653 6.5000000000000009 10.500000000000002 11.500000000000002 7.5000000000000009 11.500000000000002 9.5000000000000018 8.5000000000000018 5.5000000000000009
decision_type=2 2 2 2 2 2 2 2 2 2 2 2 2 2 2 2 2 2 2 2 2 2 2 2 2 2 2 2 2 2
left_child=1 3 6 -1 5 -5 7 8 -2 10 -8 13 -7 16 -4 -16 -3 18 19 20 21 -9 28 24 -24 -26 -27 -25 29 -23
right_child=2 11 14 4 -6 12 9 17 -10 -11 -12 -13 -14 -15 15 -17 -18 -19 -20 -21 -22 22 23 27 25 26 -28 -29 -30 -31
leaf_value=-0.058859587705629546 -0.018605101683291877 -0.02422854270584884 0.061482726328371574 0.046464032695750689 -0.052122774497750282 0.12468470532811532 0.10535293395320576 -0.0079947189467125812 0.036387285656287224 0.041649686990991933 -0.30128593454437874 0.0078536418724776055 -0.038788526318448979 -0.085325621690337125 -0.25221941581656859 0.071985677542278956 0.019516299523857014 0.070970583572642701 0.022172749790774687 -0.1668023478505867 0.013855099838649075 -0.010015539238368398 -0.059160771220922476 0.18566799231550912 -0.13650645981392553 -0.27152512105910676 -0.63192893159389496 -0.12075964549099499 0.10231749855305011 -0.23808816897458046
leaf_weight=2870 584 3088 2204 387 869 46 27 475 2248 2452 31 2179 539 254 31 49 640 142 483 56 427 67 32 22 31 23 25 53 49 29
leaf_count=2870 584 3088 2204 387 869 46 27 475 2248 2452 31 2179 539 254 31 49 640 142 483 56 427 67 32 22 31 23 25 53 49 29
internal_value=-7.11952e-11 -0.0255977 0.0291718 -0.0448762 -0.0230769 0.00289101 0.0202704 0.0108412 0.025047 0.0380995 -0.111989 -0.0108565 -0.0259342 -0.0210949 0.0574503 -0.0536438 -0.0167187 -0.010178 -0.0166809 -0.0312398 -0.0250828 -0.0457112 -0.0998361 -0.163891 -0.253767 -0.332595 -0.459235 -0.0308742 -0.0176692 -0.0789125
internal_weight=20412 10872 9540 4711 1841 972 7256 4746 2832 2510 58 6161 585 3982 2284 80 3728 1914 1772 1289 1233 806 331 186 111 79 48 75 145 96
internal_count=20412 10872 9540 4711 1841 972 7256 4746 2832 2510 58 6161 585 3982 2284 80 3728 1914 1772 1289 1233 806 331 186 111 79 48 75 145 96
is_linear=0
shrinkage=0.1


Tree=25
num_leaves=31
num_cat=0
split_feature=47 47 143 134 144 75 31 113 144 59 73 24 67 95 27 51 140 47 144 29 18 93 31 105 14 76 87 145 32 144
split_gain=1248.89 326.86 181.85 259.33 169.697 200.38 166.022 249.214 162.525 194.954 207.213 281.812 218.569 140.116 137.785 147.6 121.48 118.718 114.313 110.847 171.3 126.992 126.34 113.35 109.259 108.044 106.536 115.254 103.181 102.292
threshold=11.500000000000002 7.5000000000000009 7.5000000000000009 5.5000000000000009 0.76086956521739146 7.5000000000000009 15.500000000000002 9.5000000000000018 0.19565217391304349 13.500000000000002 12.500000000000002 8.5000000000000018 5.5000000000000009 8.5000000000000018 6.5000000000000009 7.5000000000000009 4.5000000000000009 2.5000000000000004 0.5434782608695653 12.500000000000002 15.500000000000002 1.5000000000000002 7.5000000000000009 14.500000000000002 17.500000000000004 16.500000000000004 9.5000000000000018 0.41666666666666669 11.500000000000002 0.58695652173913049
decision_type=2 2 2 2 2 2 2 2 2 2 2 2 2 2 2 2 2 2 2 2 2 2 2 2 2 2 2 2 2 2
left_child=1 17 3 -2 5 6 14 -8 -7 10 11 16 -13 -12 15 -5 -10 -1 -19 20 22 -22 -4 26 -25 -6 28 -28 -23 -3
right_child=2 29 19 4 25 8 7 -9 9 -11 13 12 -14 -15 -16 -17 -18 18 -20 -21 21 23 -24 24 -26 -27 27 -29 -30 -31
leaf_value=-0.069019626481283194 0.039344961772741466 -0.015453307478419316 0.069498525563908523 0.015519738335261178 0.022860544349811971 0.056881518348835515 -0.35792887768437787 -0.0022007150782479184 -0.17846776002340697 -0.013827003520244444 -0.47024679837688321 -0.40132516297511761 -0.11785337167627673 -0.16444547236736479 0.040659649571855125 -0.21494417286788425 0.092870558267741488 -0.047045236851409163 -0.016774063454031634 0.060527886281247369 -0.27050637203184041 -0.0010931602583944121 0.022945544259988685 -0.048403966686753341 -0.32667956011635918 0.1896228030566936 -0.037950066307590152 0.14453528931830079 -0.22476063693563142 0.010010722730709512
leaf_weight=956 1605 3571 879 66 250 69 31 54 22 142 31 40 85 29 485 48 66 2293 2736 2028 22 66 1731 43 21 46 61 80 30 2826
leaf_count=956 1605 3571 879 66 250 69 31 54 22 142 31 40 85 29 485 48 66 2293 2736 2028 22 66 1731 43 21 46 61 80 30 2826
internal_value=-8.2004e-11 -0.0199196 0.0307154 0.0115823 -0.0188542 -0.0359934 -0.00115164 -0.131937 -0.0852326 -0.108861 -0.158293 -0.112053 -0.208564 -0.322443 0.0174072 -0.0815177 0.025036 -0.036717 -0.0305764 0.0425516 0.0301221 -0.0385755 0.0386237 -0.0216237 -0.139713 0.0487763 0.0102654 0.0655877 -0.0709892 -0.00420407
internal_weight=20412 12382 8030 3069 1464 1168 684 85 484 415 273 213 125 60 599 114 88 5985 5029 4961 2933 323 2610 301 64 296 237 141 96 6397
internal_count=20412 12382 8030 3069 1464 1168 684 85 484 415 273 213 125 60 599 114 88 5985 5029 4961 2933 323 2610 301 64 296 237 141 96 6397
is_linear=0
shrinkage=0.1


Tree=26
num_leaves=31
num_cat=0
split_feature=47 47 47 106 117 25 9 1 48 14 144 123 115 84 111 23 90 14 134 145 91 15 140 42 89 6 143 123 96 93
split_gain=1026.27 226.724 171.974 109.302 104.272 104.081 161.929 113.511 121.737 107.906 123.299 98.8644 141.755 129.949 117.173 98.5936 97.3003 134.919 105.531 96.2211 117.092 102.081 94.004 95.4766 94.1761 133.399 153.881 163.776 170.079 218.976
threshold=9.5000000000000018 15.500000000000002 4.5000000000000009 18.500000000000004 17.500000000000004 1.5000000000000002 11.500000000000002 5.5000000000000009 19.500000000000004 4.5000000000000009 0.89130434782608703 11.500000000000002 7.5000000000000009 8.5000000000000018 9.5000000000000018 18.500000000000004 20.500000000000004 9.5000000000000018 18.500000000000004 0.41666666666666669 14.500000000000002 13.500000000000002 1.0000000180025095e-35 16.500000000000004 13.500000000000002 3.5000000000000004 8.5000000000000018 3.5000000000000004 8.5000000000000018 13.500000000000002
decision_type=2 2 2 2 2 2 2 2 2 2 2 2 2 2 2 2 2 2 2 2 2 2 2 2 2 2 2 2 2 2
left_child=2 5 -1 22 -5 6 -2 8 -7 -9 16 15 13 -13 -15 -4 18 -18 -11 20 21 -20 23 -3 -24 -26 27 -27 -29 -30
right_child=1 3 11 4 -6 7 -8 9 -10 10 -12 12 -14 14 -16 -17 17 -19 19 -21 -22 -23 24 -25 25 26 -28 28 29 -31
leaf_value=-0.046783237241068178 -0.022288541083938435 0.0080249957424008613 -0.020953515800485857 -0.12311762592981797 0.068607502888240246 -0.010313031761611503 -0.30600095037557185 0.057748391599000526 -0.24764309558509426 0.0076221972850873988 0.052811690365383468 0.0041224260796729672 -0.007020005516399629 0.087639523278196144 0.31285978860475799 -0.09390760089217691 -0.24341204791433282 -0.00274638675830581 0.13152452381485599 0.025818063874831262 -0.068674760051071648 0.37988918488440304 0.061112798247241196 -0.243926416408448 0.15368879665479518 -0.25270942620073378 0.037834977289276997 0.057836234223904076 -0.40731961144642392 -0.0089260813754958087
leaf_weight=2541 103 53 4611 74 46 1229 25 629 22 5038 731 118 1679 77 33 193 36 66 59 173 20 23 2125 21 66 39 426 97 22 37
leaf_count=2541 103 53 4611 74 46 1229 25 629 22 5038 731 118 1679 77 33 193 36 66 59 173 20 23 2125 21 66 39 426 97 22 37
internal_value=-1.54087e-10 0.0204162 -0.0246265 0.0438913 -0.049623 0.011762 -0.0777011 0.0131888 -0.0144867 0.018299 0.0142617 -0.0162373 0.00302699 0.0770134 0.155206 -0.0238844 0.00905761 -0.0876872 0.0109149 0.0712379 0.148274 0.201188 0.0477796 -0.0634747 0.0507073 0.0185216 0.00415596 -0.0694197 -0.0235973 -0.15748
internal_weight=20412 11160 9252 3006 120 8154 128 8026 1251 6775 6146 6711 1907 228 110 4804 5415 102 5313 275 102 82 2886 74 2812 687 621 195 156 59
internal_count=20412 11160 9252 3006 120 8154 128 8026 1251 6775 6146 6711 1907 228 110 4804 5415 102 5313 275 102 82 2886 74 2812 687 621 195 156 59
is_linear=0
shrinkage=0.1


Tree=27
num_leaves=31
num_cat=0
split_feature=47 47 144 144 145 144 144 38 114 144 144 1 124 99 88 68 43 140 45 117 118 91 86 27 22 114 34 96 144 69
split_gain=841.77 219.429 154.146 167.802 228.864 165.07 205.95 173.076 205.396 142.07 341.792 215.615 216.093 208.25 175.558 162.532 158.398 158.055 128.001 126.024 120.915 120.854 120.197 117.322 142.214 216.253 202.003 152.788 112.731 120.069
threshold=11.500000000000002 7.5000000000000009 0.10869565217391305 0.89130434782608703 0.75000000000000011 0.32608695652173919 0.5434782608695653 19.500000000000004 9.5000000000000018 0.58695652173913049 0.67391304347826098 16.500000000000004 12.500000000000002 15.500000000000002 6.5000000000000009 4.5000000000000009 12.500000000000002 4.5000000000000009 7.5000000000000009 3.5000000000000004 2.5000000000000004 3.5000000000000004 13.500000000000002 4.5000000000000009 4.5000000000000009 14.500000000000002 8.5000000000000018 12.500000000000002 0.41304347826086962 1.0000000180025095e-35
decision_type=2 2 2 2 2 2 2 2 2 2 2 2 2 2 2 2 2 2 2 2 2 2 2 2 2 2 2 2 2 2
left_child=1 -1 -2 4 9 -6 7 28 -9 18 11 12 13 14 15 16 -11 19 -4 -16 -12 -17 -8 24 -20 27 -27 -26 -7 -30
right_child=2 -3 3 -5 5 6 22 8 -10 10 20 -13 -14 -15 17 21 -18 -19 23 -21 -22 -23 -24 -25 25 26 -28 -29 29 -31
leaf_value=-0.030116542916141572 0.059559926489571785 -0.00347727053116731 0.20797771414120994 0.059843654406903327 0.084024363825571963 0.043218504650599607 0.031153465174611102 -0.44855855017900464 -0.028970694275838989 -0.022570278518127675 0.10554822282357651 0.17713247406482699 0.018117895928444341 0.134270730756578 -0.13020830700794858 -0.27171972147349654 -0.33736424196150994 -0.20649785132227857 0.060365430508033335 0.16758982169407388 -0.0073214466798804285 -0.57174538278579712 0.12251957233833231 0.016659669080454863 -0.093150967893908254 -0.091918156290641775 -0.50363730016079822 0.13648124019566335 0.17625641890547494 -0.066794218980159595
leaf_weight=5985 1124 6397 33 902 632 252 473 20 28 33 110 25 80 21 30 29 31 81 83 27 692 25 207 2595 122 26 22 38 22 267
leaf_count=5985 1124 6397 33 902 632 252 473 20 28 33 110 25 80 21 30 29 31 81 83 27 692 25 207 2595 122 26 22 38 22 267
internal_value=-6.47423e-11 -0.0163537 0.0252169 0.0196273 0.0135855 0.0422687 0.0214732 -0.0218127 -0.203799 0.000295988 -0.0289214 -0.106772 -0.126653 -0.168464 -0.193298 -0.282853 -0.175049 -0.116722 0.0121471 0.010854 0.00815943 -0.41062 0.0589664 0.00990788 -0.0503014 -0.0944617 -0.280623 -0.0386133 -0.00566609 -0.0482921
internal_weight=20412 12382 8030 6906 6004 1901 1269 589 48 4103 1184 382 357 277 256 118 64 138 2919 57 802 54 680 2886 291 208 48 160 541 289
internal_count=20412 12382 8030 6906 6004 1901 1269 589 48 4103 1184 382 357 277 256 118 64 138 2919 57 802 54 680 2886 291 208 48 160 541 289
is_linear=0
shrinkage=0.1


Tree=28
num_leaves=31
num_cat=0
split_feature=47 47 6 17 123 26 105 55 27 19 92 48 23 145 144 144 144 26 112 92 48 61 144 107 111 79 118 24 39 1
split_gain=692.791 209.322 112.988 211.031 165.834 124.785 140.657 112.884 123.736 120.013 110.901 108.657 134.238 108.219 120.158 235.723 190.017 139.069 115.437 110.426 206.522 124.509 136.563 106.327 172.066 126.807 106.918 106.108 104.297 103.571
threshold=8.5000000000000018 14.500000000000002 10.500000000000002 9.5000000000000018 2.5000000000000004 9.5000000000000018 18.500000000000004 9.5000000000000018 6.5000000000000009 3.5000000000000004 10.500000000000002 5.5000000000000009 14.500000000000002 0.75000000000000011 0.89130434782608703 0.58695652173913049 0.63043478260869579 9.5000000000000018 16.500000000000004 17.500000000000004 19.500000000000004 3.5000000000000004 0.19565217391304349 10.500000000000002 11.500000000000002 9.5000000000000018 13.500000000000002 11.500000000000002 1.5000000000000002 3.5000000000000004
decision_type=2 2 2 2 2 2 2 2 2 2 2 2 2 2 2 2 2 2 2 2 2 2 2 2 2 2 2 2 2 2
left_child=7 2 3 5 -5 -2 -7 8 10 -10 11 28 -13 14 15 19 17 -17 -15 29 21 22 -21 26 25 -25 -18 -26 -1 -3
right_child=1 13 -4 4 -6 6 -8 -9 9 -11 -12 12 -14 18 -16 16 23 -19 -20 20 -22 -23 -24 24 27 -27 -28 -29 -30 -31
leaf_value=0.082676477643639557 -0.002624055333864539 -0.065874193805854686 0.017557472323905914 -0.095809722479526252 -0.017108011989716478 0.033906449308047759 0.21699601899493826 -0.008697718358159778 0.071048577273982574 -0.026701887849362477 -0.10052079897747526 -0.014302762308424073 0.23943255953490736 0.066193433724279202 0.08750349751858158 -0.030077485740184786 0.065174423664072417 -0.27883942961354147 -0.035916542084734951 0.042064515426754955 -0.3001934919022024 0.028803777858670172 -0.30851624453067783 -0.32766649645442764 -0.08202559532673688 -0.078850798515809908 -0.16098759621381761 0.12828526932032819 -0.078984830781496512 0.046971098652799123
leaf_weight=43 1753 86 4220 319 1666 905 44 2956 131 3047 430 399 22 1197 250 38 162 55 122 20 25 236 25 33 49 54 24 47 555 1499
leaf_count=43 1753 86 4220 319 1666 905 44 2956 131 3047 430 399 22 1197 250 38 162 55 122 20 25 236 25 33 49 54 24 47 555 1499
internal_value=-7.52749e-11 0.0141639 0.00568771 -0.00499937 -0.0297558 0.0131877 0.0423953 -0.0239626 -0.0337147 -0.0226725 -0.0579329 -0.0399615 -0.00104343 0.0334136 0.021589 0.0145858 -0.0494488 -0.177195 0.0567488 0.0302304 -0.0247672 -0.000263076 -0.152703 -0.0172527 -0.0713704 -0.173229 0.0359922 0.0209391 -0.0673604 0.0408483
internal_weight=20412 12829 8907 4687 1985 2702 949 7583 4627 3178 1449 1019 421 3922 2603 2353 462 93 1319 1891 306 281 45 369 183 87 186 96 598 1585
internal_count=20412 12829 8907 4687 1985 2702 949 7583 4627 3178 1449 1019 421 3922 2603 2353 462 93 1319 1891 306 281 45 369 183 87 186 96 598 1585
is_linear=0
shrinkage=0.1


Tree=29
num_leaves=31
num_cat=0
split_feature=47 47 143 134 29 70 76 33 83 143 105 74 117 111 124 85 111 19 17 31 101 88 82 21 87 145 47 19 39 112
split_gain=568.7 168.576 122.318 188.66 139.668 187.752 137.602 147.882 156.157 142.232 222.56 130.539 144.614 168.264 179.711 148.91 121.343 133.652 127.462 120.192 116.365 166.175 114.865 135.225 112.235 164.909 140.889 106.899 105.359 102.317
threshold=11.500000000000002 4.5000000000000009 7.5000000000000009 5.5000000000000009 3.5000000000000004 8.5000000000000018 16.500000000000004 16.500000000000004 1.5000000000000002 3.5000000000000004 10.500000000000002 5.5000000000000009 6.5000000000000009 7.5000000000000009 4.5000000000000009 17.500000000000004 4.5000000000000009 11.500000000000002 16.500000000000004 9.5000000000000018 9.5000000000000018 10.500000000000002 10.500000000000002 12.500000000000002 4.5000000000000009 0.75000000000000011 14.500000000000002 10.500000000000002 16.500000000000004 5.5000000000000009
decision_type=2 2 2 2 2 2 2 2 2 2 2 2 2 2 2 2 2 2 2 2 2 2 2 2 2 2 2 2 2 2
left_child=1 -1 3 -2 5 -5 7 11 -9 10 -10 22 13 14 -13 -14 -11 -18 -19 27 21 -15 23 -6 -16 26 -26 -3 29 -25
right_child=2 19 -4 4 6 -7 -8 8 9 16 -12 12 15 20 24 -17 17 18 -20 -21 -22 -23 -24 28 25 -27 -28 -29 -30 -31
leaf_value=-0.036404470609110576 0.02871478926835036 -0.0077355995098660679 0.030434362173705206 -0.0018347524106502534 -0.041470481309286773 -0.31852830782946617 0.094110316440565611 0.15249845208156676 -0.53699893161654477 0.13979515121096658 -0.10023141125483173 0.083632936860833854 0.014138575416835284 -0.51482803517061737 0.053141306567451231 -0.23841321869194509 -0.29693981812846276 0.041971181953946751 -0.25850431591272355 0.0038958302614906914 -0.044091072864830494 -0.1386775598861277 0.14069953036661714 0.23848810195922854 -0.15180178688218196 0.020164888352155685 -0.5111735667288303 -0.038304304989591878 0.224190722506594 -0.00063226500079651511
leaf_weight=2541 1605 3336 4961 39 235 36 109 21 20 21 28 63 353 23 23 25 31 48 20 4764 22 24 78 21 24 22 20 1741 37 121
leaf_count=2541 1605 3336 4961 39 235 36 109 21 20 21 28 63 353 23 23 25 31 48 20 4764 22 24 78 21 24 22 20 1741 37 121
internal_value=1.4522e-12 -0.0134419 0.020727 0.00503516 -0.0209251 -0.153848 -0.0137478 -0.0229326 -0.104597 -0.136734 -0.282218 -0.00878541 -0.0401347 -0.104395 -0.045605 -0.00256459 -0.0785409 -0.124855 -0.046404 -0.00751286 -0.233903 -0.322751 0.0293817 0.00840879 -0.137088 -0.20338 -0.315153 -0.0182182 0.0738928 0.0347306
internal_weight=20412 12382 8030 3069 1464 75 1389 1280 189 168 48 1091 599 221 152 378 120 99 68 9841 69 47 492 414 89 66 44 5077 179 142
internal_count=20412 12382 8030 3069 1464 75 1389 1280 189 168 48 1091 599 221 152 378 120 99 68 9841 69 47 492 414 89 66 44 5077 179 142
is_linear=0
shrinkage=0.1


Tree=30
num_leaves=31
num_cat=0
split_feature=47 47 29 17 43 101 109 47 82 145 79 113 28 144 86 91 54 87 67 39 68 105 77 37 77 11 40 128 42 77
split_gain=472.328 159.391 115.624 148.395 128.073 106.801 101.256 95.7692 116.563 114.92 149.305 117.572 112.343 99.0314 101.985 98.248 107.647 97.5383 95.4543 102.633 107.776 139.075 95.2172 99.6561 185.114 90.61 105.502 86.9687 84.0491 83.5229
threshold=8.5000000000000018 18.500000000000004 12.500000000000002 9.5000000000000018 19.500000000000004 1.0000000180025095e-35 19.500000000000004 1.5000000000000002 18.500000000000004 1.0000000180025095e-35 19.500000000000004 17.500000000000004 4.5000000000000009 0.67391304347826098 20.500000000000004 8.5000000000000018 20.500000000000004 15.500000000000002 14.500000000000002 19.500000000000004 17.500000000000004 7.5000000000000009 8.5000000000000018 1.5000000000000002 3.5000000000000004 14.500000000000002 16.500000000000004 9.5000000000000018 3.5000000000000004 10.500000000000002
decision_type=2 2 2 2 2 2 2 2 2 2 2 2 2 2 2 2 2 2 2 2 2 2 2 2 2 2 2 2 2 2
left_child=7 2 3 4 -2 -5 18 -1 15 10 -10 12 27 14 17 16 22 -14 -3 20 21 -20 23 24 -9 -25 -27 -11 -7 -4
right_child=1 6 29 5 -6 28 -8 8 9 11 -12 -13 13 -15 -16 -17 -18 -19 19 -21 -22 -23 -24 25 -26 26 -28 -29 -30 -31
leaf_value=-0.062083478682790884 0.016175251947172627 0.067207431921581448 0.011282473709962748 -0.091564547124526371 -0.16827256283477734 0.11669746621583517 -0.17453585594892504 0.27353931991383434 0.33146693482995038 -0.19832713395695797 -0.0047545912787318231 -0.16478568978720542 0.018829295323008585 0.0073619953264862717 -0.0021162627315199057 -0.034917477170325673 0.13873875766876154 0.27348640531231211 0.082550505804829311 -0.16204239734345013 0.091070304158134302 -0.20039744018331956 0.010671964487240379 -0.034065206370649123 -0.041078757991393405 0.031745895937707248 -0.12975461044245296 0.04622070219081182 -0.011375446382696183 0.041546298679724862
leaf_weight=500 4033 859 2514 166 38 52 20 32 28 33 25 33 21 142 37 2644 48 53 32 36 99 38 1272 2199 45 400 45 26 3511 1431
leaf_count=500 4033 859 2514 166 38 52 20 32 28 33 25 33 21 142 37 2644 48 53 32 36 99 38 1272 2199 45 400 45 26 3511 1431
internal_value=-6.97341e-11 0.0116951 0.00830879 0.00125254 0.0144536 -0.0131592 0.0483851 -0.0197859 -0.0168 0.0357752 0.172872 0.0147139 0.0336995 0.0626771 0.13344 -0.0199301 -0.010124 0.201219 0.0525753 -0.00873684 0.02392 -0.0710498 -0.0119135 -0.0224716 0.0896716 -0.0257375 0.0154144 -0.0905603 -0.00950629 0.0222603
internal_weight=20412 12829 11745 7800 4071 3729 1084 7583 7083 398 53 345 312 253 111 6685 4041 74 1064 205 169 70 3993 2721 77 2644 445 59 3563 3945
internal_count=20412 12829 11745 7800 4071 3729 1084 7583 7083 398 53 345 312 253 111 6685 4041 74 1064 205 169 70 3993 2721 77 2644 445 59 3563 3945
is_linear=0
shrinkage=0.1


Tree=31
num_leaves=31
num_cat=0
split_feature=47 91 83 47 134 6 144 123 28 51 67 68 145 144 144 144 1 0 49 69 119 129 120 144 144 69 41 44 84 37
split_gain=397.667 140.83 172.277 146.722 133.409 117.27 96.25 89.1367 107.726 86.3222 84.9245 110.319 82.8031 147.958 148.451 154.943 169.101 195.309 159.061 130.089 124.824 124.159 152.145 114.222 226.762 152.092 155.86 105.152 126.99 124.339
threshold=12.500000000000002 14.500000000000002 15.500000000000002 8.5000000000000018 8.5000000000000018 3.5000000000000004 0.065217391304347838 1.5000000000000002 2.5000000000000004 12.500000000000002 6.5000000000000009 15.500000000000002 0.75000000000000011 0.84782608695652184 0.58695652173913049 0.67391304347826098 16.500000000000004 7.5000000000000009 3.5000000000000004 8.5000000000000018 4.5000000000000009 9.5000000000000018 9.5000000000000018 0.36956521739130438 0.5434782608695653 1.0000000180025095e-35 19.500000000000004 8.5000000000000018 7.5000000000000009 10.500000000000002
decision_type=2 2 2 2 2 2 2 2 2 2 2 2 2 2 2 2 2 2 2 2 2 2 2 2 2 2 2 2 2 2
left_child=1 2 3 -1 10 -6 -2 8 -3 -5 -4 -12 13 14 -8 16 17 18 -16 20 -19 -20 -23 -14 25 -25 -27 28 -17 -30
right_child=6 7 4 9 5 -7 12 -9 -10 -11 11 -13 23 -15 15 27 -18 19 21 -21 -22 22 -24 24 -26 26 -28 -29 29 -31
leaf_value=-0.019686221833804963 0.058522224540290907 -0.26607247455976907 0.063375539003661094 -0.0030590163849651677 0.2528730169390187 0.057869905327602972 0.011666986672514331 -0.027430869884118733 -0.066069193285177741 0.029425052064962681 -0.067490533457898169 0.082878155533164258 0.064774915536836286 0.054601590440448225 0.19530853416238514 0.081666702455417683 0.17868796359925043 -0.29156794589944185 -0.23789021954421075 -0.31207540068986284 -0.059851528300958523 0.19605632200837136 -0.16386553023172462 0.17648678988417876 0.045906751013722692 -0.044220901240646114 -0.26921438995529628 0.017025644497068001 -0.043289476665465731 -0.36866423195848863
leaf_weight=5958 603 32 124 4165 33 471 2634 1674 170 1018 229 62 731 591 28 22 21 32 31 53 85 24 23 28 762 326 34 401 23 24
leaf_count=5958 603 32 124 4165 33 471 2634 1674 170 1018 229 62 731 591 28 22 21 32 31 53 85 24 23 28 762 326 34 401 23 24
internal_value=4.07078e-11 -0.00951484 -0.00555003 -0.00898273 0.0360644 0.070638 0.0204754 -0.0350029 -0.0977529 0.00332122 -0.00592366 -0.0354532 0.016569 0.00841837 0.000392996 -0.0383237 -0.094864 -0.115678 -0.00914635 -0.182103 -0.123227 -0.0825404 0.0199244 0.033867 0.0142202 -0.0480095 -0.0654703 -0.002595 -0.116622 -0.209438
internal_weight=20412 13936 12060 11141 919 504 6476 1876 202 5183 415 291 5873 3992 3401 767 297 276 106 170 117 78 47 1881 1150 388 360 470 69 47
internal_count=20412 13936 12060 11141 919 504 6476 1876 202 5183 415 291 5873 3992 3401 767 297 276 106 170 117 78 47 1881 1150 388 360 470 69 47
is_linear=0
shrinkage=0.1


Tree=32
num_leaves=31
num_cat=0
split_feature=47 91 85 137 53 50 47 63 25 16 119 1 145 76 134 143 39 30 119 27 111 96 45 129 9 139 61 57 20 42
split_gain=322.491 127.295 175.344 132.091 125.161 121.913 126.258 112.062 96.1033 125.962 93.0808 91.5212 148.792 124.51 117.729 155.542 183.935 123.085 190.671 165.722 183.369 148.335 120.235 132.222 272.262 113.823 112.797 143.088 323.576 106.785
threshold=11.500000000000002 14.500000000000002 15.500000000000002 2.5000000000000004 4.5000000000000009 12.500000000000002 5.5000000000000009 20.500000000000004 1.5000000000000002 6.5000000000000009 5.5000000000000009 13.500000000000002 0.25000000000000006 16.500000000000004 1.5000000000000002 7.5000000000000009 15.500000000000002 15.500000000000002 13.500000000000002 7.5000000000000009 16.500000000000004 3.5000000000000004 19.500000000000004 19.500000000000004 10.500000000000002 9.5000000000000018 5.5000000000000009 6.5000000000000009 13.500000000000002 19.500000000000004
decision_type=2 2 2 2 2 2 2 2 2 2 2 2 2 2 2 2 2 2 2 2 2 2 2 2 2 2 2 2 2 2
left_child=1 2 5 4 -4 6 -1 -8 9 -2 -6 13 26 14 -10 17 22 19 21 -16 -21 -19 23 -17 -25 -22 -13 28 -28 -18
right_child=8 -3 3 -5 10 -7 7 -9 11 -11 -12 12 -14 -15 15 16 29 18 -20 20 25 -23 -24 24 -26 -27 27 -29 -30 -31
leaf_value=-0.034651900991424886 0.011458772241712724 -0.035634295731351989 -0.26892847425880889 0.065998505348912134 0.046393618408844553 0.01348805178590109 -0.0058871261833121115 -0.19068645846211552 0.060631198893595972 -0.2083350570364432 -0.16586036566920856 0.043127426968283013 0.051100003872542446 0.056349482851770466 -0.068264260042924435 0.0010727011849286309 0.07652159896963448 -0.22404790468979627 -0.32504743337631226 -0.0055899990214853855 0.2215395897626877 -0.0040319203704823068 0.14517162768170239 -0.42037998645201979 0.0025592736113402579 -0.013782425194738374 -0.40394420376978818 -0.0078297105676626323 -0.0012412777825100522 -0.015229551132583286
leaf_weight=2284 64 1689 21 532 88 1889 5819 33 357 44 27 302 1565 526 400 2216 598 40 31 953 61 131 56 23 45 31 32 341 53 161
leaf_count=2284 64 1689 21 532 88 1889 5819 33 357 44 27 302 1565 526 400 2216 598 40 31 953 61 131 56 23 45 31 32 341 53 161
internal_value=-2.74411e-11 -0.0101223 -0.00609256 0.0435151 -0.0444345 -0.00939809 -0.0147117 -0.00692923 0.0156082 -0.0780869 -0.00343993 0.0168856 0.0337261 0.0100255 0.00525055 0.00108475 0.0142824 -0.023748 -0.0968642 -0.0135269 0.00742525 -0.0554976 0.000407327 -0.00314206 -0.140494 0.142246 -0.00362287 -0.0367651 -0.152847 0.0570592
internal_weight=20412 12382 10693 668 136 10025 8136 5852 8030 108 115 7922 2293 5629 5103 4746 3099 1647 202 1445 1045 171 2340 2284 68 92 728 426 85 759
internal_count=20412 12382 10693 668 136 10025 8136 5852 8030 108 115 7922 2293 5629 5103 4746 3099 1647 202 1445 1045 171 2340 2284 68 92 728 426 85 759
is_linear=0
shrinkage=0.1


Tree=33
num_leaves=31
num_cat=0
split_feature=47 145 144 62 109 138 144 36 7 65 144 29 22 29 62 125 96 84 76 79 94 68 20 7 5 49 36 71 84 0
split_gain=263.257 106.785 198.391 151.179 171.994 129.526 129.158 103.77 166.493 103.348 100.301 97.2215 113.591 142.319 139.305 142.673 174.321 104.854 134.878 101.475 174.722 129.259 94.6183 95.6702 93.9522 97.9751 101.873 85.0029 133.133 98.9881
threshold=9.5000000000000018 0.75000000000000011 0.45652173913043487 13.500000000000002 17.500000000000004 12.500000000000002 0.282608695652174 1.5000000000000002 2.5000000000000004 15.500000000000002 0.23913043478260873 12.500000000000002 4.5000000000000009 3.5000000000000004 9.5000000000000018 5.5000000000000009 5.5000000000000009 7.5000000000000009 6.5000000000000009 19.500000000000004 8.5000000000000018 11.500000000000002 1.5000000000000002 2.5000000000000004 4.5000000000000009 16.500000000000004 17.500000000000004 17.500000000000004 8.5000000000000018 5.5000000000000009
decision_type=2 2 2 2 2 2 2 2 2 2 2 2 2 2 2 2 2 2 2 2 2 2 2 2 2 2 2 2 2 2
left_child=1 2 7 4 -4 -6 -3 8 -1 -8 -9 12 -2 14 -14 16 -16 18 -17 -15 -21 -22 -5 -24 25 26 27 28 -13 -30
right_child=11 6 3 22 5 -7 9 10 -10 -11 -12 24 13 19 15 17 -18 -19 -20 20 21 -23 23 -25 -26 -27 -28 -29 29 -31
leaf_value=0.3131604592005412 0.035707740306299134 0.0080776075571321135 -0.0071819264307141474 0.19208797501355768 0.16316716579076285 -0.014138984613454164 -0.035252552334602623 -0.013543876216395837 0.010174537780589629 -0.11069314389891338 -0.0546928255522156 -0.0018568127386664091 -0.0058237458600123903 0.0042640523676685197 -0.3954207259371425 -0.32420507186935066 -0.10841778680619041 0.086438617780804639 0.0062292440980672844 0.046563611471769857 -0.41244911938905721 -0.10473171104352141 0.22294781254949392 0.031360674341595639 0.027112130411057495 -0.18976980377646055 0.073794064567482567 0.11557539678536928 -0.068040454118616062 -0.30597078701590791
leaf_weight=21 937 656 3216 42 107 67 1653 1239 133 204 1135 95 223 5635 33 21 59 40 30 51 20 43 27 752 3747 34 96 26 36 34
leaf_count=21 937 656 3216 42 107 67 1653 1239 133 204 1135 95 223 5635 33 21 59 40 30 51 20 43 27 752 3747 34 96 26 36 34
internal_value=-7.77785e-11 -0.0124727 -0.00591225 0.00738186 -0.00194263 0.0948941 -0.0300656 -0.0280568 0.0514908 -0.04354 -0.033217 0.0103403 0.00327133 -0.00166659 -0.058887 -0.123549 -0.211364 -0.034768 -0.129832 0.00237437 -0.0910325 -0.20242 0.0458837 0.0380011 0.022664 -0.0292581 -0.0102428 -0.0524812 -0.0789628 -0.183607
internal_weight=20412 9252 6739 4211 3390 174 2513 2528 154 1857 2374 11160 7092 6155 406 183 92 91 51 5749 114 63 821 779 4068 321 287 191 165 70
internal_count=20412 9252 6739 4211 3390 174 2513 2528 154 1857 2374 11160 7092 6155 406 183 92 91 51 5749 114 63 821 779 4068 321 287 191 165 70
is_linear=0
shrinkage=0.1


Tree=34
num_leaves=31
num_cat=0
split_feature=47 47 43 42 65 53 82 86 91 144 144 145 123 124 141 50 144 11 94 8 145 121 7 44 41 123 12 81 141 114
split_gain=226.486 102.264 87.1654 129.394 103.913 95.5155 133.905 89.4812 98.4007 87.029 147.06 183.391 174.525 98.8378 97.9211 88.6234 87.8785 100.381 91.44 136.384 92.3256 83.4413 79.278 105.209 85.3435 79.732 78.6298 92.2831 77.2523 76.6537
