tree
version=v4
num_class=1
num_tree_per_iteration=1
label_index=0
max_feature_idx=145
objective=regression
feature_names=Column_0 Column_1 Column_2 Column_3 Column_4 Column_5 Column_6 Column_7 Column_8 Column_9 Column_10 Column_11 Column_12 Column_13 Column_14 Column_15 Column_16 Column_17 Column_18 Column_19 Column_20 Column_21 Column_22 Column_23 Column_24 Column_25 Column_26 Column_27 Column_28 Column_29 Column_30 Column_31 Column_32 Column_33 Column_34 Column_35 Column_36 Column_37 Column_38 Column_39 Column_40 Column_41 Column_42 Column_43 Column_44 Column_45 Column_46 Column_47 Column_48 Column_49 Column_50 Column_51 Column_52 Column_53 Column_54 Column_55 Column_56 Column_57 Column_58 Column_59 Column_60 Column_61 Column_62 Column_63 Column_64 Column_65 Column_66 Column_67 Column_68 Column_69 Column_70 Column_71 Column_72 Column_73 Column_74 Column_75 Column_76 Column_77 Column_78 Column_79 Column_80 Column_81 Column_82 Column_83 Column_84 Column_85 Column_86 Column_87 Column_88 Column_89 Column_90 Column_91 Column_92 Column_93 Column_94 Column_95 Column_96 Column_97 Column_98 Column_99 Column_100 Column_101 Column_102 Column_103 Column_104 Column_105 Column_106 Column_107 Column_108 Column_109 Column_110 Column_111 Column_112 Column_113 Column_114 Column_115 Column_116 Column_117 Column_118 Column_119 Column_120 Column_121 Column_122 Column_123 Column_124 Column_125 Column_126 Column_127 Column_128 Column_129 Column_130 Column_131 Column_132 Column_133 Column_134 Column_135 Column_136 Column_137 Column_138 Column_139 Column_140 Column_141 Column_142 Column_143 Column_144 Column_145
feature_infos=[0:20] [0:20] [0:20] [0:20] [0:20] [0:20] [0:20] [0:20] [0:20] [0:20] [0:20] [0:20] [0:20] [0:20] [0:20] [0:20] [0:20] [0:20] [0:20] [0:20] [0:20] [0:20] [0:20] [0:20] [0:20] [0:20] [0:20] [0:20] [0:20] [0:20] [0:20] [0:20] [0:20] [0:20] [0:20] [0:20] [0:20] [0:20] [0:20] [0:20] [0:20] [0:20] [0:20] [0:20] [0:20] [0:20] [0:20] [0:20] [0:20] [0:20] [0:20] [0:20] [0:20] [0:20] [0:20] [0:20] [0:20] [0:20] [0:20] [0:20] [0:20] [0:20] [0:20] [0:20] [0:20] [0:20] [0:20] [0:20] [0:20] [0:20] [0:20] [0:20] [0:20] [0:20] [0:20] [0:20] [0:20] [0:20] [0:20] [0:20] [0:20] [0:20] [0:20] [0:20] [0:20] [0:20] [0:20] [0:20] [0:20] [0:20] [0:20] [0:20] [0:20] [0:20] [0:20] [0:20] [0:8] [0:8] [0:8] [0:8] [0:8] [0:8] [0:8] [0:8] [0:8] [0:8] [0:8] [0:8] [0:8] [0:8] [0:8] [0:8] [0:8] [0:8] [0:8] [0:8] [0:8] [0:8] [0:8] [0:8] [0:8] [0:8] [0:8] [0:8] [0:8] [0:8] [0:8] [0:8] [0:8] [0:8] [0:8] [0:8] [0:8] [0:8] [0:8] [0:8] [0:8] [0:8] [0:8] [0:8] [0:8] [0:8] [0:8] [0:8] [0:1] [0:1]
tree_sizes=2727 2832 2842 2832 2824 2841 2825 2847 2837 2845 2873 2845 2863 2872 2859 2856 2865 2825 2852 2870 2858 2879 2883 2869 2830 2828 2838 2862 2824 2836 2845 2839 2851 2828 2826 2849 2841 2858 2833 2862 2826 2841 2862 2853 2867 2839 2844 2857 2823 2830 2843 2843 2856 2812 2834 2835 2820 2859 2841 2872 2804 2873 2827 2810 2836 2819 2829 2873 2811 2827 2823 2830 2807 2790 2840 2826 2826 2833 2833 2803 2827 2836 2825 2835 2819 2815 2791 2818 2836 2853 2832 2817 2832 2797 2825 2812 2818 2804 2802 2850

Tree=0
num_leaves=31
num_cat=0
split_feature=47 47 47 47 47 47 47 47 47 47 42 47 47 47 47 47 62 144 45 47 144 144 144 144 108 144 144 144 144 144
split_gain=221334 39593 38947.7 7587.78 7121.44 5778.06 5747.79 1149.6 1046.45 834.252 795.221 785.269 729.995 716.384 615.784 517.962 415.203 351.446 331.623 306.822 287.362 280.684 263.38 399.868 263.375 238.044 226.969 209.794 209.602 191.897
threshold=10.500000000000002 14.500000000000002 6.5000000000000009 3.5000000000000004 17.500000000000004 12.500000000000002 8.5000000000000018 16.500000000000004 5.5000000000000009 11.500000000000002 12.500000000000002 9.5000000000000018 7.5000000000000009 1.5000000000000002 13.500000000000002 18.500000000000004 7.5000000000000009 0.76086956521739146 12.500000000000002 4.5000000000000009 0.5434782608695653 0.50000000000000011 0.80434782608695665 0.19565217391304349 3.5000000000000004 0.5434782608695653 0.19565217391304349 0.5434782608695653 0.45652173913043487 0.80434782608695665
decision_type=2 2 2 2 2 2 2 2 2 2 2 2 2 2 2 2 2 2 2 2 2 2 2 2 2 2 2 2 2 2
left_child=2 5 3 13 7 9 12 22 19 -2 16 28 27 -1 -7 -12 -6 24 -9 -5 -13 -14 23 -3 -18 -10 -17 -4 -8 -28
right_child=1 4 6 8 10 14 11 18 25 -11 15 20 21 -15 -16 26 17 -19 -20 -21 -22 -23 -24 -25 -26 -27 29 -29 -30 -31
leaf_value=9.7632086896254471 10.736251542411434 11.182328176313984 10.30784054594821 10.065755672885533 11.402248663222956 10.92327769647976 10.500751552424754 10.987742494081145 10.209804841379835 10.8324175928944 11.386478564951426 10.599549687358458 10.403251138071624 9.9315195454750071 11.013001341941957 11.593626407680219 11.137742496688849 11.335659157891756 11.299856440600294 10.163186397905175 10.680818416466357 10.48804226853451 11.201179491424339 11.075533191515875 10.664191767607814 10.302465222128658 11.4405546672364 10.387038805218998 10.574556389199486 11.578057804093795
leaf_weight=429 1973 531 663 531 81 1582 663 36 556 1662 389 854 734 616 1481 313 24 32 626 826 887 834 418 1032 23 553 323 675 917 148
leaf_count=429 1973 531 663 531 81 1582 663 36 556 1662 389 854 734 616 1481 313 24 32 626 826 887 834 418 1032 23 553 323 675 917 148
internal_value=10.6993 11.0139 10.3546 10.0883 11.2638 10.8655 10.5048 11.1688 10.184 10.7802 11.4523 10.5946 10.4021 9.86242 10.9667 11.4808 11.2432 11.08 11.2829 10.1251 10.641 10.4484 11.1307 11.1118 10.906 10.256 11.5276 10.3478 10.5436 11.4838
internal_weight=20412 10674 9738 3511 3976 6698 6227 2643 2466 3635 1333 3321 2906 1045 3063 1173 160 79 662 1357 1741 1568 1981 1563 47 1109 784 1338 1580 471
internal_count=20412 10674 9738 3511 3976 6698 6227 2643 2466 3635 1333 3321 2906 1045 3063 1173 160 79 662 1357 1741 1568 1981 1563 47 1109 784 1338 1580 471
is_linear=0
shrinkage=1


Tree=1
num_leaves=31
num_cat=0
split_feature=47 47 47 47 47 47 47 47 47 47 42 47 47 47 47 47 144 45 47 144 144 62 114 144 144 42 144 144 47 144
split_gain=179281 32070.3 31547.6 6146.1 5768.36 4680.23 4655.71 931.172 847.625 675.744 644.156 636.068 591.296 580.271 498.785 419.276 270.43 268.615 251.957 232.763 227.354 226.245 206.955 205.59 199.728 414.446 196.874 183.186 183.003 171.887
threshold=10.500000000000002 14.500000000000002 6.5000000000000009 3.5000000000000004 17.500000000000004 12.500000000000002 8.5000000000000018 16.500000000000004 5.5000000000000009 11.500000000000002 11.500000000000002 9.5000000000000018 7.5000000000000009 1.5000000000000002 13.500000000000002 18.500000000000004 0.45652173913043487 12.500000000000002 15.500000000000002 0.5434782608695653 0.50000000000000011 7.5000000000000009 4.5000000000000009 0.19565217391304349 0.71739130434782616 16.500000000000004 0.50000000000000011 0.63043478260869579 4.5000000000000009 0.50000000000000011
decision_type=2 2 2 2 2 2 2 2 2 2 2 2 2 2 2 2 2 2 2 2 2 2 2 2 2 2 2 2 2 2
left_child=2 5 3 13 7 9 12 18 16 -2 21 -8 29 -1 27 -12 -5 -9 -3 -13 -14 -6 -23 -17 25 -25 -10 -7 -18 -4
right_child=1 4 6 8 10 14 11 17 26 -11 15 19 20 -15 -16 23 28 -19 -20 -21 -22 22 -24 24 -26 -27 -28 -29 -30 -31
leaf_value=-0.84252131610483572 0.033217217628567941 0.35611513217562413 -0.35662864756241847 -0.57661640191519703 0.60009770950963426 0.17308576933311343 -0.14018141969849793 0.25955908921961157 -0.4461837503483625 0.11976666557283178 0.61713473311450229 -0.089814455241872218 -0.26648315514059745 -0.69104156124756333 0.28229202492160071 0.80468470501222833 -0.53850835536917052 0.54046162014571242 0.42784194946036785 -0.016672597850726448 -0.19017113827043874 0.51428311392664916 0.15736952351801325 0.222482724132992 0.78320307725149663 0.68308739517416273 -0.36137615057792233 0.24223444595498056 -0.44530697684691578 -0.28446485494081203
leaf_weight=429 1973 1095 592 486 62 931 1580 36 492 1662 404 854 734 616 1481 317 357 626 886 887 834 32 33 21 184 280 617 651 514 746
leaf_count=429 1973 1095 592 486 62 931 1580 36 492 1662 404 854 734 616 1481 317 357 626 886 887 834 32 33 21 184 280 617 651 514 746
internal_value=-1.18441e-09 0.283071 -0.310279 -0.549982 0.508048 0.149523 -0.175127 0.422507 -0.463853 0.0727895 0.677652 -0.0942417 -0.267562 -0.753228 0.240585 0.70021 -0.516854 0.525186 0.388195 -0.0525503 -0.225894 0.463436 0.333081 0.742059 0.701126 0.650952 -0.399 0.201541 -0.483508 -0.316394
internal_weight=20412 10674 9738 3511 3976 6698 6227 2643 2466 3635 1333 3321 2906 1045 3063 1206 1357 662 1981 1741 1568 127 65 802 485 301 1109 1582 871 1338
internal_count=20412 10674 9738 3511 3976 6698 6227 2643 2466 3635 1333 3321 2906 1045 3063 1206 1357 662 1981 1741 1568 127 65 802 485 301 1109 1582 871 1338
is_linear=0
shrinkage=0.1


Tree=2
num_leaves=31
num_cat=0
split_feature=47 47 47 47 47 47 47 47 47 47 42 47 47 47 47 47 144 144 144 144 45 144 144 144 144 60 144 144 144 144
split_gain=145217 25977 25553.6 4978.34 4672.37 3790.99 3771.13 754.249 686.576 547.353 524.146 515.215 478.95 470.02 404.016 339.163 299.621 409.129 320.893 219.048 217.578 215.182 322.641 188.538 186.045 185.908 170.897 169.778 165.792 162.717
threshold=10.500000000000002 14.500000000000002 6.5000000000000009 3.5000000000000004 17.500000000000004 12.500000000000002 8.5000000000000018 16.500000000000004 5.5000000000000009 11.500000000000002 12.500000000000002 9.5000000000000018 7.5000000000000009 1.5000000000000002 13.500000000000002 18.500000000000004 0.84782608695652184 0.58695652173913049 0.71739130434782616 0.45652173913043487 12.500000000000002 0.80434782608695665 0.19565217391304349 0.5434782608695653 0.45652173913043487 19.500000000000004 0.5434782608695653 0.45652173913043487 0.5434782608695653 0.45652173913043487
decision_type=2 2 2 2 2 2 2 2 2 2 2 2 2 2 2 2 2 2 2 2 2 2 2 2 2 2 2 2 2 2
left_child=2 5 3 13 7 9 12 21 19 26 16 27 -4 -1 -7 -12 17 -6 -19 -5 -9 22 -3 -13 -14 -24 -2 -8 -15 -10
right_child=1 4 6 8 10 14 11 20 29 -11 15 23 24 28 -16 -17 -18 18 -20 -21 -22 -23 25 -25 -26 -27 -28 -29 -30 -31
leaf_value=-0.7582692044876117 0.0019345123748310278 0.39567071650661317 -0.28475444771778202 -0.51895472938386511 0.67610932439565663 0.18138667880198373 -0.16471462633634945 0.23360316753387453 -0.4075096448076414 0.10779000274684598 0.55670806334490452 -0.080833008124621741 -0.2434960643031511 -0.667314271428182 0.25406283398361967 0.670922381813847 0.69871210098266612 -0.0011287398876682405 0.39291553193508016 -0.43515698382829826 0.48641546591878315 0.41310658277364443 0.30614929497537341 -0.015005337210894976 -0.17378299371792683 0.01862215114676434 0.060873636218090346 -0.098290276065907539 -0.56262457931086363 -0.32879136331226472
leaf_weight=429 1037 531 1338 486 32 1582 663 36 427 1662 389 854 664 349 1481 784 35 31 62 871 626 418 1009 887 904 23 936 917 267 682
leaf_count=429 1037 531 1338 486 32 1582 663 36 427 1662 389 854 664 349 1481 784 35 31 62 871 626 418 1009 887 904 23 936 917 267 682
internal_value=2.20667e-09 0.254764 -0.279251 -0.494983 0.457243 0.13457 -0.157614 0.380257 -0.417468 0.0655105 0.609887 -0.0848176 -0.240806 -0.677905 0.216527 0.633046 0.440101 0.36769 0.261567 -0.465169 0.472667 0.349375 0.332331 -0.0472953 -0.203304 0.299741 0.0298955 -0.126163 -0.621937 -0.3591
internal_weight=20412 10674 9738 3511 3976 6698 6227 2643 2466 3635 1333 3321 2906 1045 3063 1173 160 125 93 1357 662 1981 1563 1741 1568 1032 1973 1580 616 1109
internal_count=20412 10674 9738 3511 3976 6698 6227 2643 2466 3635 1333 3321 2906 1045 3063 1173 160 125 93 1357 662 1981 1563 1741 1568 1032 1973 1580 616 1109
is_linear=0
shrinkage=0.1


Tree=3
num_leaves=31
num_cat=0
split_feature=47 47 47 47 47 47 47 47 47 47 42 47 47 47 47 47 60 144 47 118 45 144 46 36 145 144 144 131 144 144
split_gain=117626 21041.3 20698.4 4032.46 3784.62 3070.7 3054.61 610.942 587.139 443.356 424.559 417.324 413.053 387.949 327.253 274.722 251.722 243.46 204.876 196.754 176.238 156.775 156.504 150.572 206.888 148.922 148.381 147.872 144.88 142.311
threshold=10.500000000000002 14.500000000000002 6.5000000000000009 3.5000000000000004 17.500000000000004 12.500000000000002 8.5000000000000018 16.500000000000004 4.5000000000000009 11.500000000000002 12.500000000000002 9.5000000000000018 2.5000000000000004 7.5000000000000009 13.500000000000002 18.500000000000004 13.500000000000002 0.45652173913043487 15.500000000000002 5.5000000000000009 12.500000000000002 0.45652173913043487 6.5000000000000009 16.500000000000004 0.41666666666666669 0.19565217391304349 0.63043478260869579 2.5000000000000004 0.50000000000000011 0.58695652173913049
decision_type=2 2 2 2 2 2 2 2 2 2 2 2 2 2 2 2 2 2 2 2 2 2 2 2 2 2 2 2 2 2
left_child=2 5 3 12 7 9 13 18 -5 -2 16 29 -1 -4 26 -12 19 -10 -3 27 -9 -13 -15 -20 -25 -17 -7 -6 -11 -8
right_child=1 4 6 8 10 14 11 20 17 28 15 21 -14 22 -16 25 -18 -19 23 -21 -22 -23 -24 24 -26 -27 -28 -29 -30 -31
leaf_value=-0.65511414949093483 0.026905947027929051 0.28551018310464138 -0.2562790066983846 -0.46886784726588965 0.30741997957229616 0.13763851931220608 -0.13933212870713507 0.21024287011888296 -0.39528491479698796 0.067874308080012047 0.5010372754387501 -0.078257768325269969 -0.52227674247854849 -0.069064168525593619 0.22865654656526449 0.65729391064506748 0.1824020767539013 -0.32227765223054983 0.3652230982933089 0.19194064126128244 0.43777392569441381 -0.017336432086486442 -0.19173620246698733 0.025582583155483007 0.33117515378528173 0.56830115925734215 0.19987233117245676 0.59726235191027321 0.12692940352530013 -0.078615921344913423
leaf_weight=691 1973 1095 1338 531 23 931 909 36 739 842 389 721 354 112 1481 313 41 1196 782 21 626 1020 1456 32 72 471 651 75 820 671
leaf_count=691 1973 1095 1338 531 23 931 909 36 739 842 389 721 354 112 1481 313 41 1196 782 21 626 1020 1456 32 72 471 651 75 820 671
internal_value=2.58409e-10 0.229287 -0.251326 -0.445485 0.411518 0.121113 -0.141853 0.342231 -0.375721 0.0589595 0.548898 -0.0763358 -0.610115 -0.216726 0.194874 0.569741 0.396091 -0.35016 0.314438 0.469715 0.425401 -0.0425658 -0.182974 0.350189 0.237147 0.60383 0.163248 0.529238 0.097011 -0.113547
internal_weight=20412 10674 9738 3511 3976 6698 6227 2643 2466 3635 1333 3321 1045 2906 3063 1173 160 1935 1981 119 662 1741 1568 886 104 784 1582 98 1662 1580
internal_count=20412 10674 9738 3511 3976 6698 6227 2643 2466 3635 1333 3321 1045 2906 3063 1173 160 1935 1981 119 662 1741 1568 886 104 784 1582 98 1662 1580
is_linear=0
shrinkage=0.1


Tree=4
num_leaves=31
num_cat=0
split_feature=47 47 47 47 47 47 47 47 47 47 42 47 47 47 47 47 62 144 108 144 144 144 145 60 24 111 144 45 144 144
split_gain=95277.1 17043.5 16765.7 3266.29 3065.55 2487.27 2474.24 503.78 494.863 359.118 343.892 338.032 334.816 314.239 265.075 230.139 217.285 216.529 180.856 172.313 256.344 167.046 162.547 166.37 158.538 236.137 148.696 142.753 140.598 140.571
threshold=10.500000000000002 14.500000000000002 6.5000000000000009 3.5000000000000004 17.500000000000004 12.500000000000002 8.5000000000000018 5.5000000000000009 16.500000000000004 11.500000000000002 12.500000000000002 9.5000000000000018 1.5000000000000002 7.5000000000000009 13.500000000000002 19.500000000000004 7.5000000000000009 0.76086956521739146 3.5000000000000004 0.80434782608695665 0.23913043478260873 0.5434782608695653 0.75000000000000011 18.500000000000004 16.500000000000004 3.5000000000000004 0.5434782608695653 12.500000000000002 0.5434782608695653 0.45652173913043487
decision_type=2 2 2 2 2 2 2 2 2 2 2 2 2 2 2 2 2 2 2 2 2 2 2 2 2 2 2 2 2 2
left_child=2 5 3 12 8 9 13 21 19 -2 16 -8 -1 28 -7 -12 -6 18 -18 20 -3 -5 23 24 -22 -26 -15 -10 -4 -14
right_child=1 4 6 7 10 14 11 -9 27 -11 15 -13 29 26 -16 -17 17 -19 -20 -21 22 -23 -24 -25 25 -27 -28 -29 -30 -31
leaf_value=-0.616930883692139 0.024215352336616005 0.3156125515213728 -0.26335926671283455 -0.41443253757786896 0.47156894972294938 0.14692320704234083 -0.10219225616088208 -0.28815157159665777 0.18921855919890934 0.087309897257963245 0.48017566390678229 -0.038309195865371459 -0.56248301090830466 -0.19523648381044595 0.20579089232991468 0.5729660963549198 0.29390808977186683 0.43912204680964351 -0.098507280712542333 0.34002466753624278 0.23338058803415418 -0.34425817731196862 0.29672956038133846 -0.016877508541801946 0.22054917793720963 -0.20840668337685719 -0.13364520286686318 0.3939965515971755 -0.19852442658389058 -0.46421979682863157
leaf_weight=429 1973 652 663 672 81 1582 1580 1109 36 1662 761 1741 236 790 1481 412 24 32 23 418 544 685 281 32 33 21 778 626 675 380
leaf_count=429 1973 652 663 672 81 1582 1580 1109 36 1662 761 1741 236 790 1481 412 24 32 23 418 544 685 281 32 33 21 778 626 675 380
internal_value=1.35027e-09 0.206359 -0.226194 -0.400937 0.370367 0.109002 -0.127667 -0.338149 0.308008 0.0530635 0.494008 -0.0687022 -0.549103 -0.195053 0.175386 0.512767 0.356482 0.238481 0.101875 0.282994 0.267742 -0.379009 0.233481 0.205271 0.217158 0.053733 -0.164677 0.382861 -0.230651 -0.501866
internal_weight=20412 10674 9738 3511 3976 6698 6227 2466 2643 3635 1333 3321 1045 2906 3063 1173 160 79 47 1981 1563 1357 911 630 598 54 1568 662 1338 616
internal_count=20412 10674 9738 3511 3976 6698 6227 2466 2643 3635 1333 3321 1045 2906 3063 1173 160 79 47 1981 1563 1357 911 630 598 54 1568 662 1338 616
is_linear=0
shrinkage=0.1


Tree=5
num_leaves=31
num_cat=0
split_feature=47 47 47 47 47 47 47 47 47 47 47 47 44 47 56 137 51 144 144 144 144 144 45 144 45 48 57 140 24 144
split_gain=77174.4 13846 13580.2 3216.92 2650.85 2004.13 1289.51 694.493 501.474 290.886 285.849 273.806 263.811 254.533 232.016 230.709 193.873 183.58 167.295 148.648 138.427 134.016 131.471 127.351 127.34 123.944 249.316 123.531 122.987 120.188
threshold=10.500000000000002 15.500000000000002 6.5000000000000009 12.500000000000002 4.5000000000000009 8.5000000000000018 18.500000000000004 2.5000000000000004 13.500000000000002 11.500000000000002 16.500000000000004 9.5000000000000018 13.500000000000002 7.5000000000000009 13.500000000000002 7.5000000000000009 7.5000000000000009 0.45652173913043487 0.45652173913043487 0.80434782608695665 0.5434782608695653 0.19565217391304349 5.5000000000000009 0.5434782608695653 6.5000000000000009 4.5000000000000009 11.500000000000002 6.5000000000000009 6.5000000000000009 0.63043478260869579
decision_type=2 2 2 2 2 2 2 2 2 2 2 2 2 2 2 2 2 2 2 2 2 2 2 2 2 2 2 2 2 2
left_child=2 3 4 9 7 13 10 -1 29 20 25 -7 14 22 -8 -12 -17 -6 -9 21 -2 -10 -4 -13 -15 26 27 -3 -14 -5
right_child=1 6 5 8 17 11 12 18 19 -11 15 23 28 24 -16 16 -18 -19 -20 -21 -22 -23 -24 -25 -26 -27 -28 -29 -30 -31
leaf_value=-0.53224935874062573 -0.0033710683237046374 0.29281645121870281 -0.1136249744625234 0.1091823458735592 -0.32160978622946268 -0.091973032266184501 0.41967300172593147 -0.45797530417511995 0.22649681743858868 0.078578908047521157 0.37217131853103641 -0.062041785517397752 0.2838556656880038 -0.065109768627267903 0.0035105529995191663 -0.089209537506103526 0.31549904963065845 -0.25821324367264803 -0.36670060192381698 0.24862368874615287 0.049674143577710939 0.17209393707274653 -0.21804344902353431 -0.0079402406092023373 -0.15798175542144716 0.30578508437889762 -0.086972197269399976 0.032602187707310631 0.49716023855703134 0.16519277568237023
leaf_weight=691 1037 139 134 931 739 1580 37 308 692 1662 1079 854 28 165 21 20 29 1196 577 574 936 1310 1204 887 1403 702 24 21 781 651
leaf_count=691 1037 139 134 931 739 1580 37 308 692 1662 1079 854 28 165 21 20 29 1196 577 574 936 1310 1204 887 1403 702 24 21 781 651
internal_value=-5.88869e-10 0.185723 -0.203574 0.116473 -0.360843 -0.114901 0.373041 -0.457124 0.176546 0.0477572 0.329145 -0.061832 0.475008 -0.175548 0.268993 0.362534 0.150312 -0.282425 -0.398466 0.203761 0.0217938 0.190899 -0.207586 -0.0344783 -0.148209 0.286636 0.21358 0.258663 0.489778 0.132231
internal_weight=20412 10674 9738 7793 3511 6227 2881 1576 4158 3635 2014 3321 867 2906 58 1128 49 1935 885 2576 1973 2002 1338 1741 1568 886 184 160 809 1582
internal_count=20412 10674 9738 7793 3511 6227 2881 1576 4158 3635 2014 3321 867 2906 58 1128 49 1935 885 2576 1973 2002 1338 1741 1568 886 184 160 809 1582
is_linear=0
shrinkage=0.1


Tree=6
num_leaves=31
num_cat=0
split_feature=47 47 47 47 47 47 47 47 47 144 144 38 47 47 144 144 45 98 59 18 144 145 15 47 72 144 144 145 45 126
split_gain=62511.3 11301.4 11000 2165.64 2017.91 1623.35 1601.85 365.026 323.256 289.529 370.363 303.724 235.617 233.204 230.953 218.384 208.621 291.99 198.539 189.935 169.972 209.584 166.154 160.366 154.195 138.549 227.802 148.237 151.838 189.426
threshold=10.500000000000002 14.500000000000002 6.5000000000000009 3.5000000000000004 17.500000000000004 8.5000000000000018 12.500000000000002 5.5000000000000009 15.500000000000002 0.19565217391304349 0.84782608695652184 11.500000000000002 11.500000000000002 1.5000000000000002 0.58695652173913049 0.5434782608695653 12.500000000000002 5.5000000000000009 13.500000000000002 7.5000000000000009 0.67391304347826098 0.75000000000000011 10.500000000000002 13.500000000000002 7.5000000000000009 0.84782608695652184 0.19565217391304349 0.75000000000000011 14.500000000000002 2.5000000000000004
decision_type=2 2 2 2 2 2 2 2 2 2 2 2 2 2 2 2 2 2 2 2 2 2 2 2 2 2 2 2 2 2
left_child=2 6 3 13 8 15 12 -5 -3 -6 11 18 -2 -1 -7 -4 17 24 22 -13 21 -17 -11 -8 -10 26 -18 28 29 -28
right_child=1 4 5 7 9 14 23 -9 16 10 -12 19 -14 -15 -16 20 25 -19 -20 -21 -22 -23 -24 -25 -26 -27 27 -29 -30 -31
leaf_value=-0.50201284413015379 0.01961443499561439 0.20852765396713668 -0.18540627843147439 -0.3084138562003742 0.4640650825642223 -0.079322197019285112 0.1190077972020271 -0.23107411990142063 0.3295104334751765 0.39708012812253507 0.47888342158435143 0.12725872954024989 0.07072101838788114 -0.40598270482347387 -0.026272699928637622 -0.035863641313385888 0.32738126871537188 -0.18949391671589444 -0.068368675863301309 0.37124624983281707 -0.1529739146973414 -0.19150292234761376 0.072281103474753236 0.16479554682326109 0.052489685080945495 0.35639814355794125 0.24512348004749845 0.29850681212896757 0.22641316920459742 -0.11103386450558901
leaf_weight=429 1973 1095 1453 1357 471 1839 1582 1109 54 36 219 34 1662 616 1482 317 490 21 27 518 1017 119 28 1481 32 255 28 258 378 32
leaf_count=429 1973 1095 1453 1357 471 1839 1582 1109 54 36 219 34 1662 616 1482 317 490 21 27 518 1017 119 28 1481 32 255 28 258 378 32
internal_value=-2.14466e-10 0.167151 -0.183217 -0.324759 0.300703 -0.10341 0.0878725 -0.273633 0.250109 0.401017 0.366567 0.328313 0.0429815 -0.445406 -0.0556488 -0.157993 0.279523 0.144802 0.159042 0.356218 -0.13058 -0.0783432 0.254981 0.141147 0.226433 0.289526 0.275149 0.238375 0.202956 0.0551729
internal_weight=20412 10674 9738 3511 3976 6227 6698 2466 2643 1333 862 643 3635 1045 3321 2906 1548 107 91 552 1453 436 64 3063 86 1441 1186 696 438 60
internal_count=20412 10674 9738 3511 3976 6227 6698 2466 2643 1333 862 643 3635 1045 3321 2906 1548 107 91 552 1453 436 64 3063 86 1441 1186 696 438 60
is_linear=0
shrinkage=0.1


Tree=7
num_leaves=31
num_cat=0
split_feature=47 47 47 47 47 47 47 47 47 144 144 145 144 47 47 140 144 28 14 144 144 145 144 144 29 144 71 144 46 36
split_gain=50634.1 9154.12 8909.98 1793.89 1634.5 1314.91 1297.5 457.546 265.571 234.518 299.994 266.474 227.472 219.916 209.435 177.146 183.586 219.169 157.91 153.713 204.584 183.529 136.428 173.775 139.425 136.001 131.572 130.32 127.627 128.707
threshold=10.500000000000002 14.500000000000002 6.5000000000000009 4.5000000000000009 17.500000000000004 8.5000000000000018 12.500000000000002 2.5000000000000004 16.500000000000004 0.19565217391304349 0.84782608695652184 0.75000000000000011 0.5434782608695653 9.5000000000000018 7.5000000000000009 2.5000000000000004 0.58695652173913049 10.500000000000002 15.500000000000002 0.5434782608695653 0.67391304347826098 0.75000000000000011 0.67391304347826098 0.19565217391304349 2.5000000000000004 0.5434782608695653 3.5000000000000004 0.19565217391304349 11.500000000000002 16.500000000000004
decision_type=2 2 2 2 2 2 2 2 2 2 2 2 2 2 2 2 2 2 2 2 2 2 2 2 2 2 2 2 2 2
left_child=2 6 3 7 8 14 12 -1 28 -6 11 15 27 -7 -4 18 -17 -18 -11 -5 21 -21 23 -8 -25 -9 -19 -2 -3 -30
right_child=1 4 5 19 9 13 22 25 -10 10 -12 -13 -14 -15 -16 16 17 26 -20 20 -22 -23 -24 24 -26 -27 -28 -29 29 -31
leaf_value=-0.43246422849929805 0.045716408043358463 0.027663568579233612 -0.17125537671449476 -0.25582780300413449 0.41765857593269112 -0.077096434161067012 0.14794501327551329 -0.36259248511133985 0.27993317273223151 0.36530430164337163 0.43099508614844928 0.367860156659719 0.0651372591159491 -0.025569402329336979 -0.11739475393420731 0.27130792201112169 -0.18676367369682895 0.32502028961335461 0.062669221833348276 -0.095177197535248365 -0.23273715001617751 -0.27313168748219807 0.15530525931585445 -0.15139308894673986 0.092107521439562148 -0.28418394250441475 0.063790320064507286 -0.0071010563325454301 0.21923932728040021 0.13563717206921971
leaf_weight=691 804 39 1338 972 471 1580 780 448 662 125 219 284 1716 1741 1568 109 23 31 20 255 633 75 1096 24 1163 437 51 1115 1736 206
leaf_count=691 804 39 1338 972 471 1580 780 448 662 125 219 284 1716 1741 1568 109 23 31 20 255 633 75 1096 24 1163 437 51 1115 1736 206
internal_value=-1.07349e-10 0.150435 -0.164895 -0.292283 0.270633 -0.0930694 0.0790853 -0.371486 0.225099 0.360915 0.32991 0.295482 0.0386833 -0.0500839 -0.142194 0.238224 0.180402 0.0860321 0.323562 -0.227774 -0.199458 -0.135621 0.127032 0.111278 0.0871842 -0.323875 0.162548 0.0150278 0.206774 0.210371
internal_weight=20412 10674 9738 3511 3976 6227 6698 1576 2643 1333 862 643 3635 3321 2906 359 214 105 145 1935 963 330 3063 1967 1187 885 82 1919 1981 1942
internal_count=20412 10674 9738 3511 3976 6227 6698 1576 2643 1333 862 643 3635 3321 2906 359 214 105 145 1935 963 330 3063 1967 1187 885 82 1919 1981 1942
is_linear=0
shrinkage=0.1


Tree=8
num_leaves=31
num_cat=0
split_feature=47 47 47 47 47 47 47 47 47 144 47 144 144 145 144 98 144 144 144 60 144 145 82 81 128 120 145 144 42 144
split_gain=41013.7 7435.22 7229.97 1771.06 1691.69 789.757 764.727 374.094 291.869 192.334 189.971 189.417 356.846 267.08 182.516 322.076 167.64 173.275 155.621 155.33 144.195 122.898 114.488 309.736 129.284 162.561 139.569 108.699 105.679 98.6766
threshold=10.500000000000002 15.500000000000002 5.5000000000000009 8.5000000000000018 12.500000000000002 2.5000000000000004 18.500000000000004 7.5000000000000009 13.500000000000002 0.45652173913043487 11.500000000000002 0.19565217391304349 0.80434782608695665 0.75000000000000011 0.58695652173913049 5.5000000000000009 0.5434782608695653 0.71739130434782616 0.45652173913043487 17.500000000000004 0.19565217391304349 0.58333333333333337 17.500000000000004 12.500000000000002 1.5000000000000002 4.5000000000000009 0.41666666666666669 0.80434782608695665 9.5000000000000018 0.50000000000000011
decision_type=2 2 2 2 2 2 2 2 2 2 2 2 2 2 2 2 2 2 2 2 2 2 2 2 2 2 2 2 2 2
left_child=2 4 5 7 10 -1 11 16 -6 20 -2 -3 13 14 -13 22 -4 21 -7 28 -5 -18 23 24 -16 26 -26 -10 -8 -12
right_child=1 6 3 9 8 18 19 -9 27 -11 29 12 -14 -15 15 -17 17 -19 -20 -21 -22 -23 -24 -25 25 -27 -28 -29 -30 -31
leaf_value=-0.3892178087369923 0.013833149565970058 0.28353361022564794 -0.19449250087496492 -0.035429422088147859 0.094400730559557652 -0.30255514429942254 0.20233906558374082 -0.1056552821922363 0.13797220783764041 -0.024733384364372564 0.035677040784206075 0.18514476697248072 0.2972685575056821 0.2549767736548339 0.32220701957360293 -0.18886022453124707 -0.058777598147622692 -0.17433633007382776 -0.23981425646969093 0.11948563137224742 -0.10087972242135564 -0.15809286744986181 0.35401452347636225 -0.17749407235532999 -0.18632066353507665 0.29447231991537687 0.1345780356815367 0.187334868555908 0.36695917082324925 0.084414135352140526
leaf_weight=691 1973 645 1219 578 1582 620 41 1568 2002 1937 842 405 400 349 39 39 313 708 1091 28 806 207 20 32 23 29 33 574 798 820
leaf_count=691 1973 645 1219 578 1582 620 41 1568 2002 1937 842 405 400 349 39 39 313 708 1091 28 806 207 20 32 23 29 33 574 798 820
internal_value=-5.53902e-10 0.135392 -0.148406 -0.0991007 0.0846458 -0.298989 0.272658 -0.143787 0.128209 -0.0450755 0.034815 0.238855 0.217804 0.185002 0.145613 0.0711461 -0.168222 -0.142144 -0.262549 0.351182 -0.0735457 -0.0983127 0.128761 0.0998824 0.171463 0.102299 0.00278036 0.148971 0.358915 0.059723
internal_weight=20412 10674 9738 7336 7793 2402 2881 4015 4158 3321 3635 2014 1369 969 620 215 2447 1228 1711 867 1384 520 176 156 124 85 56 2576 839 1662
internal_count=20412 10674 9738 7336 7793 2402 2881 4015 4158 3321 3635 2014 1369 969 620 215 2447 1228 1711 867 1384 520 176 156 124 85 56 2576 839 1662
is_linear=0
shrinkage=0.1


Tree=9
num_leaves=31
num_cat=0
split_feature=47 47 47 47 47 47 47 47 47 47 144 144 145 144 144 140 144 144 19 15 44 46 144 60 46 144 144 145 30 93
split_gain=33221.1 6067.09 5907.6 1218.87 1086.76 847.592 836.11 280.174 181.234 176.903 172.293 224.299 197.321 167.472 160.95 135.225 137.768 174.641 151.32 133.909 113.307 107.57 105.869 103.788 105.359 103.475 139.636 126.104 114.341 98.8867
threshold=10.500000000000002 14.500000000000002 6.5000000000000009 4.5000000000000009 17.500000000000004 8.5000000000000018 12.500000000000002 2.5000000000000004 16.500000000000004 9.5000000000000018 0.19565217391304349 0.84782608695652184 0.75000000000000011 0.5434782608695653 0.50000000000000011 2.5000000000000004 0.58695652173913049 0.67391304347826098 8.5000000000000018 15.500000000000002 3.5000000000000004 9.5000000000000018 0.19565217391304349 19.500000000000004 11.500000000000002 0.67391304347826098 0.19565217391304349 0.75000000000000011 6.5000000000000009 4.5000000000000009
decision_type=2 2 2 2 2 2 2 2 2 2 2 2 2 2 2 2 2 2 2 2 2 2 2 2 2 2 2 2 2 2
left_child=2 6 3 7 8 14 13 -1 23 -7 -6 12 15 22 -4 19 29 -18 -19 -12 -5 -11 -2 24 -3 26 -8 28 -28 -17
right_child=1 4 5 20 10 9 25 -9 -10 21 11 -13 -14 -15 -16 16 17 18 -20 -21 -22 -23 -24 -25 -26 -27 27 -29 -30 -31
leaf_value=-0.35029602412635791 0.03869642597803874 0.00083776774505774174 -0.14020948840086075 -0.1015342179758876 0.34195935253583831 -0.064795228393771984 0.12140338528184938 -0.26532299642761553 0.22787602573768251 0.028699382997318036 0.30399217884071539 0.35415409411469551 0.29926073134575093 0.054031990660845124 -0.092960478067398072 0.4168628811836243 -0.16936677648470955 0.28068161689572863 0.0027895056924154595 0.040937786711298906 -0.19120896154832762 -0.031649157652888137 -0.0089090633606162314 -0.014097994229485912 0.17351366289306916 0.12687811168440938 -0.05491026918976926 0.11042136637149358 0.057949715780332783 0.17078520951980958
leaf_weight=691 804 36 1326 153 471 1580 780 885 662 377 122 219 284 1716 1580 20 26 36 43 23 1782 1364 1115 31 1914 1096 104 427 656 89
leaf_count=691 804 36 1326 153 471 1580 780 885 662 377 122 219 284 1716 1580 20 26 36 43 23 1782 1364 1115 31 1914 1096 104 427 656 89
internal_value=1.89077e-10 0.121853 -0.133565 -0.237293 0.219706 -0.0750797 0.063766 -0.30258 0.182577 -0.040568 0.293323 0.266748 0.236978 0.0313335 -0.11452 0.187707 0.137187 0.0554376 0.129424 0.262266 -0.184118 -0.0185812 0.0110361 0.16744 0.170326 0.102255 0.0885353 0.066937 0.0425057 0.215937
internal_weight=20412 10674 9738 3511 3976 6227 6698 1576 2643 3321 1333 862 643 3635 2906 359 214 105 79 145 1935 1741 1919 1981 1950 3063 1967 1187 760 109
internal_count=20412 10674 9738 3511 3976 6227 6698 1576 2643 3321 1333 862 643 3635 2906 359 214 105 79 145 1935 1741 1919 1981 1950 3063 1967 1187 760 109
is_linear=0
shrinkage=0.1


Tree=10
num_leaves=31
num_cat=0
split_feature=47 47 47 47 47 47 47 47 47 144 47 144 144 145 144 144 119 17 64 84 59 145 144 144 144 46 144 45 46 144
split_gain=26909.1 4926.89 4804.99 1182.69 1098.71 528.266 507.061 329.043 209.798 164.515 153.157 142.908 265.991 195.765 124.616 120.811 116.956 228.494 114.484 114.161 114.937 105.295 143.267 192.059 103.616 102.101 94.6104 91.1956 87.1316 84.0383
threshold=10.500000000000002 15.500000000000002 5.5000000000000009 7.5000000000000009 12.500000000000002 18.500000000000004 2.5000000000000004 9.5000000000000018 13.500000000000002 0.45652173913043487 11.500000000000002 0.84782608695652184 0.19565217391304349 0.75000000000000011 0.45652173913043487 0.50000000000000011 6.5000000000000009 8.5000000000000018 10.500000000000002 17.500000000000004 11.500000000000002 0.75000000000000011 0.71739130434782616 0.58695652173913049 0.71739130434782616 16.500000000000004 0.19565217391304349 4.5000000000000009 9.5000000000000018 0.5434782608695653
decision_type=2 2 2 2 2 2 2 2 2 2 2 2 2 2 2 2 2 2 2 2 2 2 2 2 2 2 2 2 2 2
left_child=2 4 6 15 10 11 29 9 -6 26 -2 12 -3 16 -8 -4 -14 -18 -19 -7 -21 22 23 -11 27 -10 -5 -17 -9 -1
right_child=1 5 3 7 8 19 14 28 25 21 -12 -13 13 -15 -16 24 17 18 -20 20 -22 -23 -24 -25 -26 -27 -28 -29 -30 -31
leaf_value=-0.34127738298260951 0.0093606960188901429 0.23186857881472092 -0.16168359781158367 -0.065495791753096416 0.074802613205849827 0.29465077053192451 -0.24956925442382213 0.025829445240668342 0.12392675933293798 -0.056510714648630681 0.050564887987003718 0.25316025509803863 0.13440344914481903 0.20826624531469579 -0.19342515108121797 -0.0028880515126954946 -0.26002505071785137 0.21037351663519696 -0.051942916161247667 0.29118624091148376 -0.047837311625480654 -0.088716684198111628 -0.068114072773549653 0.054717568791918941 -0.14347244226978828 -0.017633524565742568 -0.11983271717134172 -0.10459052000804381 -0.028484242061109357 -0.26850985964300178
leaf_weight=444 1973 645 1084 541 1582 827 620 377 2524 313 1662 333 573 371 1091 105 23 41 28 20 20 534 666 308 708 52 786 550 1364 247
leaf_count=444 1973 645 1084 541 1582 827 620 377 2524 313 1662 333 573 371 1091 105 23 41 28 20 20 534 666 308 708 52 786 550 1364 247
internal_value=1.02413e-10 0.109667 -0.120209 -0.0800139 0.0683587 0.221406 -0.242968 -0.0516077 0.103466 -0.0709007 0.0282001 0.193311 0.181455 0.150068 -0.21377 -0.136768 0.117599 0.0129384 0.103926 0.28667 0.121674 -0.0513858 -0.0358965 -0.00134435 -0.116953 0.121069 -0.0976803 -0.0882871 -0.016723 -0.315266
internal_weight=20412 10674 9738 7336 7793 2881 2402 4889 4158 3148 3635 2014 1681 1036 1711 2447 665 92 69 867 40 1821 1287 621 1363 2576 1327 655 1741 691
internal_count=20412 10674 9738 7336 7793 2881 2402 4889 4158 3148 3635 2014 1681 1036 1711 2447 665 92 69 867 40 1821 1287 621 1363 2576 1327 655 1741 691
is_linear=0
shrinkage=0.1


Tree=11
num_leaves=31
num_cat=0
split_feature=47 47 47 47 47 47 47 144 144 144 144 144 144 145 47 46 59 45 45 120 23 93 61 144 145 30 47 144 145 74
split_gain=21796.3 4024.07 3918.06 830.091 722.475 569.452 537.927 198.211 138.398 135.012 131.796 128.901 165.73 150.459 123.133 118.857 117.849 112.466 106.087 122.809 167.668 199.579 233.245 104 149.961 106.2 101.821 100.274 99.4622 96.977
threshold=10.500000000000002 14.500000000000002 6.5000000000000009 4.5000000000000009 17.500000000000004 8.5000000000000018 12.500000000000002 0.5434782608695653 0.50000000000000011 0.67391304347826098 0.58695652173913049 0.19565217391304349 0.84782608695652184 0.75000000000000011 16.500000000000004 1.5000000000000002 17.500000000000004 5.5000000000000009 10.500000000000002 1.5000000000000002 11.500000000000002 10.500000000000002 7.5000000000000009 0.71739130434782616 0.75000000000000011 8.5000000000000018 7.5000000000000009 0.19565217391304349 0.75000000000000011 4.5000000000000009
decision_type=2 2 2 2 2 2 2 2 2 2 2 2 2 2 2 2 2 2 2 2 2 2 2 2 2 2 2 2 2 2
left_child=2 6 3 7 14 17 8 15 27 28 -7 -6 13 16 29 -1 18 -4 -13 -20 21 22 -21 24 25 -12 -19 -2 -9 -3
right_child=1 4 5 -5 11 10 -8 9 -10 -11 23 12 -14 -15 -16 -17 -18 26 19 20 -22 -23 -24 -25 -26 -27 -28 -29 -30 -31
leaf_value=-0.3388065965129779 0.031881753823242674 0.094655610024262329 -0.021100149215589017 -0.14878007996086157 0.28048539307213644 -0.05015351546147373 0.082266532020035865 -0.13602960017594423 0.044663108646658983 -0.24782005655207251 -0.032442223451223717 0.38414784014225006 0.29056347077839995 0.24422771379115504 0.18545851953710316 -0.25582634000996513 -0.089068524241447455 -0.11993334055491461 0.23854670038819314 0.099501018509978348 0.16923095652387599 0.18208998436889343 -0.3525689948238433 -0.027991317671191614 -0.059689762349481937 0.098304901287140645 -0.080882804083194926 -0.015636732573470764 -0.29489758558895279 0.14758662396733499
leaf_weight=234 804 447 203 1935 471 1839 3063 275 1839 363 83 20 219 284 662 658 20 1204 100 21 142 31 25 1017 135 247 1499 992 46 1534
leaf_count=234 804 447 203 1935 471 1839 3063 275 1839 363 83 20 219 284 662 658 20 1204 100 21 142 31 25 1017 135 247 1499 992 46 1534
internal_value=5.70816e-10 0.0987007 -0.108188 -0.192662 0.178393 -0.0605581 0.0513943 -0.24654 0.0253801 -0.206041 -0.0322701 0.238417 0.215431 0.189841 0.14812 -0.277595 0.146817 -0.0928859 0.160733 0.146726 0.104799 -0.0140249 -0.146189 -0.0100787 0.0290978 0.06542 -0.0982771 0.00563546 -0.158796 0.135643
internal_weight=20412 10674 9738 3511 3976 6227 6698 1576 3635 684 3321 1333 862 643 2643 892 359 2906 339 319 219 77 46 1482 465 330 2703 1796 321 1981
internal_count=20412 10674 9738 3511 3976 6227 6698 1576 3635 684 3321 1333 862 643 2643 892 359 2906 339 319 219 77 46 1482 465 330 2703 1796 321 1981
is_linear=0
shrinkage=0.1


Tree=12
num_leaves=31
num_cat=0
split_feature=47 47 47 47 47 47 47 47 144 144 145 15 144 44 137 51 144 145 144 144 145 144 46 41 44 24 130 92 49 73
split_gain=17684.6 4332.14 2275.03 1034.36 491.784 373.472 351.181 190.761 128.096 149.004 136.127 145.148 122.711 120.89 118.33 135.051 99.5103 111.791 97.8783 114.147 98.5098 92.0904 96.3861 91.6943 125.982 218.625 147.47 95.6049 129.987 108.823
threshold=9.5000000000000018 13.500000000000002 5.5000000000000009 16.500000000000004 11.500000000000002 7.5000000000000009 3.5000000000000004 18.500000000000004 0.80434782608695665 0.19565217391304349 0.75000000000000011 18.500000000000004 0.45652173913043487 7.5000000000000009 7.5000000000000009 7.5000000000000009 0.5434782608695653 0.58333333333333337 0.5434782608695653 0.71739130434782616 0.41666666666666669 0.50000000000000011 13.500000000000002 5.5000000000000009 13.500000000000002 16.500000000000004 7.5000000000000009 10.500000000000002 1.5000000000000002 1.5000000000000002
decision_type=2 2 2 2 2 2 2 2 2 2 2 2 2 2 2 2 2 2 2 2 2 2 2 2 2 2 2 2 2 2
left_child=2 4 6 8 13 18 16 14 9 -3 11 23 -7 -2 -5 -16 -1 -18 -4 20 -20 22 -6 -11 25 26 27 28 -25 -30
right_child=1 3 5 7 21 12 -8 -9 -10 10 -12 -13 -14 -15 15 -17 17 -19 19 -21 -22 -23 -24 24 -26 -27 -28 -29 29 -31
leaf_value=-0.26569747794932047 0.05541473966066926 0.1303786807096666 -0.13040534135158968 0.17855153368359589 0.042416099548054656 -0.08137730479285335 -0.16382463770227434 0.23403050197662215 0.14509152833047331 0.18074223266585787 0.12145124581822178 -0.14155243943061899 -0.041394923439705598 -0.008080133573599043 -0.18024684458971024 0.15753185070794207 -0.16184191247996163 -0.26974525728396009 -0.006897995739065587 -0.11653417884714186 -0.094353062360661863 0.067811024185293209 -0.036927699493734464 0.20457414500415327 0.083074283421771172 -0.26351050858696307 0.28280634880065919 0.13193510184233839 -0.25708147856806007 -0.016386051666451972
leaf_weight=636 329 944 1219 1079 1463 1327 1357 867 745 68 570 34 1821 3385 20 29 255 154 235 708 285 1610 171 24 774 27 22 55 21 178
leaf_count=636 329 944 1219 1079 1463 1327 1357 867 745 68 570 34 1821 3385 20 29 255 154 235 708 285 1610 171 24 774 27 22 55 21 178
internal_value=3.99383e-10 0.0747043 -0.115975 0.141407 0.0223909 -0.0810277 -0.197379 0.198759 0.108357 0.0982847 0.0811969 0.0621238 -0.058249 -0.00245552 0.171649 0.019663 -0.240951 -0.202471 -0.110332 -0.0904054 -0.0548301 0.0508372 0.0341127 0.0680477 0.0610874 0.00904507 0.0335751 0.0138517 -0.015272 -0.0417861
internal_weight=20412 12415 7997 5457 6958 5595 2402 1995 3462 2717 1773 1203 3148 3714 1128 49 1045 409 2447 1228 520 3244 1634 1169 1101 327 300 278 223 199
internal_count=20412 12415 7997 5457 6958 5595 2402 1995 3462 2717 1773 1203 3148 3714 1128 49 1045 409 2447 1228 520 3244 1634 1169 1101 327 300 278 223 199
is_linear=0
shrinkage=0.1


Tree=13
num_leaves=31
num_cat=0
split_feature=47 47 47 47 47 47 47 47 47 144 144 144 145 144 46 84 119 144 144 144 145 59 144 44 46 144 26 117 144 145
split_gain=14360.8 2693.07 2583.7 571.512 552.99 374.697 284.561 145.975 109.393 101.947 101.602 180.712 134.927 97.513 107.915 88.2872 87.7522 182.01 87.4467 169.68 134.03 87.1577 87.0179 80.7871 79.7076 78.9922 78.7193 82.5289 77.4406 71.691
threshold=10.500000000000002 15.500000000000002 6.5000000000000009 12.500000000000002 4.5000000000000009 8.5000000000000018 18.500000000000004 1.5000000000000002 13.500000000000002 0.50000000000000011 0.84782608695652184 0.19565217391304349 0.75000000000000011 0.45652173913043487 10.500000000000002 17.500000000000004 6.5000000000000009 0.58695652173913049 0.58695652173913049 0.67391304347826098 0.58333333333333337 11.500000000000002 0.45652173913043487 3.5000000000000004 16.500000000000004 0.19565217391304349 5.5000000000000009 2.5000000000000004 0.282608695652174 0.75000000000000011
decision_type=2 2 2 2 2 2 2 2 2 2 2 2 2 2 2 2 2 2 2 2 2 2 2 2 2 2 2 2 2 2
left_child=2 3 4 9 7 18 10 -1 -5 25 11 -3 16 14 -7 26 -13 -18 -4 20 -20 -17 -9 -6 -10 -2 27 -8 -16 -15
right_child=1 6 5 8 23 13 15 22 24 -11 -12 12 -14 29 28 21 17 -19 19 -21 -22 -23 -24 -25 -26 -27 -28 -29 -30 -31
leaf_value=-0.25015306095125933 0.026960613080925906 0.17366386632586636 -0.091066997487631002 0.054197827879664422 -0.050864879256175236 -0.034324371560454321 0.22732133285506914 -0.21870533420908742 0.090131411600984174 0.037161658730210011 0.19257128696899872 0.093839781364039199 0.15455581908116767 0.0012577931150547913 -0.22608423302274036 0.21314163148403167 0.098844408077236864 -0.19086994141340258 0.068788973704950337 -0.075493349207083504 -0.068424608988490537 -0.082083237171173107 -0.16123281334257678 -0.1265851056196452 -0.034945323776740297 -0.015214988125127652 0.22521887967124199 -0.037761931338657934 -0.080188649104929524 -0.040253613418784029
leaf_weight=429 804 645 1597 1582 153 1164 23 410 2524 1839 333 573 371 1332 46 20 57 35 169 1017 123 20 737 1782 52 992 780 24 174 605
leaf_count=429 804 645 1597 1582 153 1164 23 410 2524 1839 333 573 371 1332 46 20 57 35 169 1017 123 20 737 1782 52 992 780 24 174 605
internal_value=-6.07239e-11 0.0801158 -0.0878164 0.0495751 -0.156414 -0.0491386 0.162727 -0.200389 0.0748955 0.0206117 0.142107 0.13211 0.106239 -0.0261922 -0.0464641 0.210627 0.079284 -0.011373 -0.0753619 -0.0562014 0.0109901 0.0655292 -0.181777 -0.120598 0.0876066 0.0036654 0.217646 0.0919597 -0.110694 -0.0117078
internal_weight=20412 10674 9738 7793 3511 6227 2881 1576 4158 3635 2014 1681 1036 3321 1384 867 665 92 2906 1309 292 40 1147 1935 2576 1796 827 47 220 1937
internal_count=20412 10674 9738 7793 3511 6227 2881 1576 4158 3635 2014 1681 1036 3321 1384 867 665 92 2906 1309 292 40 1147 1935 2576 1796 827 47 220 1937
is_linear=0
shrinkage=0.1


Tree=14
num_leaves=31
num_cat=0
split_feature=47 47 47 47 47 47 47 45 46 41 25 113 44 46 34 142 144 144 30 144 144 145 144 144 145 60 33 114 144 46
split_gain=11696.7 2889.11 1499.12 580.504 381.396 245.098 242.084 109.566 97.8014 117.939 96.1971 186.657 92.3492 88.5645 81.9887 118.582 81.4274 99.0217 111.76 79.9069 135.09 103.671 75.1987 117.642 84.2722 132.944 72.9247 83.7024 70.9723 72.6323
threshold=9.5000000000000018 14.500000000000002 5.5000000000000009 11.500000000000002 17.500000000000004 7.5000000000000009 2.5000000000000004 6.5000000000000009 11.500000000000002 8.5000000000000018 10.500000000000002 7.5000000000000009 7.5000000000000009 18.500000000000004 12.500000000000002 3.5000000000000004 0.67391304347826098 0.19565217391304349 6.5000000000000009 0.5434782608695653 0.67391304347826098 0.75000000000000011 0.84782608695652184 0.19565217391304349 0.91666666666666685 19.500000000000004 18.500000000000004 4.5000000000000009 0.45652173913043487 7.5000000000000009
decision_type=2 2 2 2 2 2 2 2 2 2 2 2 2 2 2 2 2 2 2 2 2 2 2 2 2 2 2 2 2 2
left_child=2 3 6 12 8 28 -1 -7 9 -3 11 14 -2 -12 -6 -16 17 -5 -19 -8 21 -21 23 -10 25 -25 -20 -28 29 -4
right_child=1 4 5 16 10 7 19 -9 22 -11 13 -13 -14 -15 15 -17 -18 18 26 20 -22 -23 -24 24 -26 -27 27 -29 -30 -31
leaf_value=-0.21035390651842795 0.048639640149215985 0.11467593812942506 -0.096961998623428927 0.063797095528590794 0.18956466309768571 0.013045147722015574 -0.16162066166202918 -0.053245820277249035 0.13492621067185415 -0.20279006199403243 0.15362809978792133 -0.15845088268714874 -0.0068561753538743959 0.21203821235075773 0.13651973083615304 -0.13260719694874504 0.06839884264500859 -0.043946813184767966 0.039847481116711624 -0.041210308292908455 -0.15070135493951967 -0.18028438286994822 0.14820612608434963 0.078915215661363752 0.13838647243110427 -0.1812566649913788 0.0061199736629020084 -0.2246725143356757 -0.076064220906282731 -0.16524578077832655
leaf_weight=691 329 25 759 1172 154 273 864 2875 771 22 442 22 3385 629 64 22 1701 200 1575 268 512 67 462 1092 251 20 55 22 1492 196
leaf_count=691 329 25 759 1172 154 273 864 2875 771 22 442 22 3385 629 64 22 1701 200 1575 268 512 67 462 1092 251 20 55 22 1492 196
internal_value=6.57666e-10 0.0607546 -0.0943189 0.0276425 0.131034 -0.0659501 -0.160399 -0.047497 0.109039 -0.0339252 0.174646 0.120332 -0.00194015 0.187932 0.145887 0.0676733 0.0508954 0.0410497 0.0266545 -0.140224 -0.118397 -0.0690251 0.111627 0.103708 0.0860494 0.0742359 0.0352019 -0.0598207 -0.0896895 -0.110976
internal_weight=20412 12415 7997 8439 3976 5595 2402 3148 2643 47 1333 262 3714 1071 240 86 4725 3024 1852 1711 847 335 2596 2134 1363 1112 1652 77 2447 955
internal_count=20412 12415 7997 8439 3976 5595 2402 3148 2643 47 1333 262 3714 1071 240 86 4725 3024 1852 1711 847 335 2596 2134 1363 1112 1652 77 2447 955
is_linear=0
shrinkage=0.1


Tree=15
num_leaves=31
num_cat=0
split_feature=47 47 47 47 47 47 47 46 88 45 144 46 47 25 34 117 72 144 46 48 46 144 144 144 145 74 96 62 45 145
split_gain=9474.32 2340.18 1214.29 470.208 318.397 199.839 198.529 115.342 91.5071 88.7482 82.3793 97.8731 80.478 73.7832 142.457 97.0576 93.1485 163.842 86.2518 73.2554 69.7214 89.1362 65.4383 85.7374 64.3005 63.7687 106.02 69.8634 60.1398 59.2152
threshold=9.5000000000000018 14.500000000000002 5.5000000000000009 11.500000000000002 16.500000000000004 3.5000000000000004 7.5000000000000009 19.500000000000004 16.500000000000004 6.5000000000000009 0.45652173913043487 11.500000000000002 13.500000000000002 10.500000000000002 11.500000000000002 1.5000000000000002 4.5000000000000009 0.41304347826086962 13.500000000000002 1.5000000000000002 13.500000000000002 0.32608695652173919 0.5434782608695653 0.71739130434782616 0.41666666666666669 4.5000000000000009 6.5000000000000009 7.5000000000000009 4.5000000000000009 0.75000000000000011
decision_type=2 2 2 2 2 2 2 2 2 2 2 2 2 2 2 2 2 2 2 2 2 2 2 2 2 2 2 2 2 2
left_child=2 3 5 10 25 22 28 13 19 -8 11 -2 20 14 -6 -16 -17 -18 -15 -9 -5 -22 -1 24 -24 26 -3 -28 -4 -12
right_child=1 4 6 12 7 -7 9 8 -10 -11 29 -13 -14 18 15 16 17 -19 -20 -21 21 -23 23 -25 -26 -27 27 -29 -30 -31
leaf_value=-0.19729502747221939 -0.0090171127101995822 0.07156356319428149 -0.025741463539231086 0.041467220137064657 0.15074231058283888 -0.11904694143951754 0.011740633370968832 0.052203094107764109 0.045052532145851538 -0.047921238390161942 0.022986900893306565 -0.081081030575490196 0.065121136543169311 -0.042185765629013383 0.11966776878107339 0.077992903320118795 0.01836647877798361 -0.32721160183782166 0.14928076256297834 0.22029722352871406 -0.088883978287534179 0.030320321309550032 -0.053644822717740619 -0.19923130888705967 -0.15827055222847886 0.099217824368692711 0.033105573207139971 -0.23121136531233788 -0.085190766910111626 -0.012743677993885417
leaf_weight=636 1391 407 184 2967 198 1357 273 28 38 2875 1415 218 1481 24 64 40 34 23 1196 350 96 181 116 174 119 1534 20 20 2263 690
leaf_count=636 1391 407 184 2967 198 1357 273 28 38 2875 1415 218 1481 24 64 40 34 23 1196 350 96 181 116 174 119 1534 20 20 2263 690
internal_value=1.91377e-10 0.0546791 -0.084887 0.0248783 0.117931 -0.144359 -0.059355 0.14613 0.192975 -0.0427473 -0.00174613 -0.0187809 0.0458059 0.133788 0.0939388 0.024081 -0.0389865 -0.121077 0.145514 0.207846 0.0369878 -0.0109924 -0.177228 -0.146023 -0.106626 0.0895328 0.0562959 -0.0990529 -0.0807205 0.0112747
internal_weight=20412 12415 7997 8439 3976 2402 5595 1995 416 3148 3714 1609 4725 1579 359 161 97 57 1220 378 3244 277 1045 409 235 1981 447 40 2447 2105
internal_count=20412 12415 7997 8439 3976 2402 5595 1995 416 3148 3714 1609 4725 1579 359 161 97 57 1220 378 3244 277 1045 409 235 1981 447 40 2447 2105
is_linear=0
shrinkage=0.1


Tree=16
num_leaves=31
num_cat=0
split_feature=47 47 47 47 47 47 47 144 145 45 144 144 60 37 44 98 72 19 6 35 144 144 42 144 144 45 144 144 145 142
split_gain=7696.9 1461.82 1392.48 312.132 311.395 201.048 151.735 89.2835 86.0851 85.6345 82.8352 73.9713 73.0585 71.7351 177.282 254.752 138.75 112.055 80.8294 69.9418 72.412 67.9537 82.9017 67.4205 90.2844 66.6918 66.0708 107.419 94.3578 65.6888
threshold=10.500000000000002 15.500000000000002 6.5000000000000009 12.500000000000002 4.5000000000000009 8.5000000000000018 18.500000000000004 0.5434782608695653 0.75000000000000011 9.5000000000000018 0.71739130434782616 0.84782608695652184 17.500000000000004 9.5000000000000018 11.500000000000002 5.5000000000000009 7.5000000000000009 4.5000000000000009 11.500000000000002 8.5000000000000018 0.45652173913043487 0.71739130434782616 4.5000000000000009 0.45652173913043487 0.19565217391304349 5.5000000000000009 0.19565217391304349 0.32608695652173919 0.58333333333333337 7.5000000000000009
decision_type=2 2 2 2 2 2 2 2 2 2 2 2 2 2 2 2 2 2 2 2 2 2 2 2 2 2 2 2 2 2
left_child=2 3 4 9 7 25 13 -1 10 -2 -9 26 -8 -3 15 16 18 -16 -15 -6 -21 22 -22 24 -7 -4 -5 28 -28 -24
right_child=1 6 5 11 19 23 12 8 -10 -11 -12 -13 -14 14 17 -17 -18 -19 -20 20 21 -23 29 -25 -26 -27 27 -29 -30 -31
leaf_value=-0.1684916214591452 0.056268121893741446 0.14470856358905224 0.00017528944268015219 0.068988690113717374 -0.10528196480086049 -0.0057825529528942902 0.15979764732278004 -0.06854257606819518 -0.18313632756920464 0.0090730589769636195 -0.1506050514122147 0.082085014774192194 -0.0044068285397120882 0.30008377676660364 -0.098145331828682514 -0.32623558251754098 -0.12071021028927394 0.10736759372803273 0.034716962588330111 -0.11175196780137314 0.10230627199436755 -0.088945717261478374 -0.053495876545525872 -0.0070433239911470869 -0.057572215104651249 -0.059255695911303523 -0.032664286470156755 0.051335083474022714 0.049381473297253259 0.10409116258138214
leaf_weight=892 437 363 203 1059 1047 578 839 317 166 3198 201 805 28 22 27 23 28 1527 24 258 47 253 301 1937 806 2703 337 1717 240 29
leaf_count=892 437 363 203 1059 1047 578 839 317 166 3198 201 805 28 22 27 23 28 1527 24 258 47 253 301 1937 806 2703 337 1717 240 29
internal_value=-1.04141e-10 0.0586525 -0.06429 0.0361515 -0.11465 -0.0358955 0.119517 -0.147649 -0.120468 0.0147469 -0.100385 0.0548638 0.154495 0.104459 0.09561 -0.035549 0.0547995 0.103797 0.161632 -0.087773 -0.0671289 -0.0488547 -0.0219502 -0.0190872 -0.0359433 -0.0551041 0.0483284 0.0387908 0.0014622 -0.0396473
internal_weight=20412 10674 9738 7793 3511 6227 2881 1576 684 3635 518 4158 867 2014 1651 97 74 1554 46 1935 888 630 377 3321 1384 2906 3353 2294 577 330
internal_count=20412 10674 9738 7793 3511 6227 2881 1576 684 3635 518 4158 867 2014 1651 97 74 1554 46 1935 888 630 377 3321 1384 2906 3353 2294 577 330
is_linear=0
shrinkage=0.1


Tree=17
num_leaves=31
num_cat=0
split_feature=47 47 47 47 47 47 144 144 145 53 54 144 144 1 98 42 67 47 46 144 144 145 144 46 47 86 2 89 50 103
split_gain=6254.88 1554.45 801.749 311.827 214.221 206.05 94.448 141.054 149.477 111.691 212.024 85.9689 191.568 236.063 224.49 126.445 125.682 85.873 77.1087 70.6497 136.041 133.026 77.9278 68.305 67.3277 64.9 61.9079 70.3554 107.263 118.758
threshold=9.5000000000000018 14.500000000000002 4.5000000000000009 11.500000000000002 7.5000000000000009 16.500000000000004 0.19565217391304349 0.84782608695652184 0.75000000000000011 16.500000000000004 14.500000000000002 0.58695652173913049 0.71739130434782616 13.500000000000002 1.5000000000000002 14.500000000000002 1.5000000000000002 1.5000000000000002 6.5000000000000009 0.5434782608695653 0.67391304347826098 0.75000000000000011 0.58695652173913049 9.5000000000000018 19.500000000000004 13.500000000000002 13.500000000000002 9.5000000000000018 8.5000000000000018 4.5000000000000009
decision_type=2 2 2 2 2 2 2 2 2 2 2 2 2 2 2 2 2 2 2 2 2 2 2 2 2 2 2 2 2 2
left_child=2 3 17 23 19 -3 24 8 9 10 11 15 13 14 -13 -8 -14 -1 25 -4 21 22 -21 -2 -7 -6 27 -17 29 -29
right_child=1 5 4 -5 18 6 7 -9 -10 -11 -12 12 16 -15 -16 26 -18 -19 -20 20 -22 -23 -24 -25 -26 -27 -28 28 -30 -31
leaf_value=-0.17105240320780324 0.031480066263492208 0.073134065375807675 -0.085904592850469114 0.037182340627782563 -0.0041071194205678221 0.12838382855263453 0.30989615172147755 0.15781105401483433 0.13165470494429271 0.24155535163550546 -0.19093760239916879 0.054793660677969459 -0.11538088088450225 0.15438614537318548 -0.35728237078740049 0.096373728047543711 0.14811603253378589 -0.11860837785311128 -0.038210862678089652 -0.047190565524001915 -0.077122874354868032 -0.10515149883752646 0.042413686093958944 -0.0071110932890541476 0.19641575158811084 0.14394008591771126 0.1433258441055105 -0.28795465606710186 0.093883157284422369 0.016322505949386234
leaf_weight=429 536 1981 1635 4725 114 507 24 339 375 29 37 20 23 24 39 109 85 1147 2994 150 1084 129 275 3178 204 40 84 23 44 29
leaf_count=429 536 1981 1635 4725 114 507 24 339 375 29 37 20 23 24 39 109 85 1147 2994 150 1084 129 275 3178 204 40 84 23 44 29
internal_value=1.53093e-10 0.044428 -0.0689726 0.0201399 -0.0532859 0.0959791 0.118664 0.102473 0.0826212 0.0503623 0.0401135 0.0570756 0.0042054 -0.110035 -0.217596 0.0893382 0.0920009 -0.132884 -0.0346614 -0.0711991 -0.0565205 -0.0162082 0.0107887 -0.00154166 0.147904 0.0343467 0.071022 0.0413951 -0.0210286 -0.118262
internal_weight=20412 12415 7997 8439 6421 3976 1995 1284 945 570 541 504 191 83 59 313 108 1576 3148 3273 1638 554 425 3714 711 154 289 205 96 52
internal_count=20412 12415 7997 8439 6421 3976 1995 1284 945 570 541 504 191 83 59 313 108 1576 3148 3273 1638 554 425 3714 711 154 289 205 96 52
is_linear=0
shrinkage=0.1


Tree=18
num_leaves=31
num_cat=0
split_feature=47 47 47 47 47 47 22 47 44 144 27 144 5 37 44 136 92 25 49 46 29 46 47 33 29 45 144 144 145 144
split_gain=5077.95 965.284 926.845 217.396 207.218 130.378 105.392 100.999 98.8878 85.5307 65.0608 75.499 76.404 68.556 149.044 198.711 145.636 137.272 80.6744 64.6682 59.3589 58.807 58.6667 80.2179 58.5106 68.3597 57.6359 99.0017 104.782 56.9532
threshold=10.500000000000002 15.500000000000002 6.5000000000000009 13.500000000000002 3.5000000000000004 8.5000000000000018 3.5000000000000004 19.500000000000004 13.500000000000002 0.63043478260869579 5.5000000000000009 0.23913043478260873 9.5000000000000018 9.5000000000000018 12.500000000000002 4.5000000000000009 8.5000000000000018 12.500000000000002 7.5000000000000009 13.500000000000002 4.5000000000000009 16.500000000000004 11.500000000000002 18.500000000000004 7.5000000000000009 4.5000000000000009 0.5434782608695653 0.67391304347826098 0.75000000000000011 0.58695652173913049
decision_type=2 2 2 2 2 2 2 2 2 2 2 2 2 2 2 2 2 2 2 2 2 2 2 2 2 2 2 2 2 2
left_child=2 3 4 9 -1 -4 -3 10 -9 19 11 -8 -13 -12 15 18 17 -17 -15 22 -21 -5 -2 -24 -7 -26 -6 28 29 -28
right_child=1 6 5 21 26 24 7 8 -10 -11 13 12 -14 14 -16 16 -18 -19 -20 20 -22 -23 23 -25 25 -27 27 -29 -30 -31
leaf_value=-0.13062465490603989 -0.006117711201792264 -0.075371514516217375 -0.04452202801563164 0.055293292814628449 -0.092840494340170387 -0.041724931528231347 0.087511633018429361 -0.029795704926213914 0.15526688116781787 0.033280938405824301 0.13235909563641821 0.024182448252325968 -0.20586211501874707 0.21786185012144199 0.09540860640191004 -0.083765895421115261 0.064581613063812257 -0.43223767787218093 0.0071167642871538808 -0.17709620136382254 -0.024379517954702563 -0.052140589459584309 0.026040766173682301 -0.12690674449716297 0.12806299430602749 -0.010685069874978593 -0.051671844697915595 -0.083485280329624975 -0.11712983072890591 0.031813478554514323
leaf_weight=1045 1161 35 2906 2524 1228 678 89 31 421 2090 409 42 22 34 1688 26 25 20 39 29 208 52 1694 35 36 2607 130 792 96 220
leaf_count=1045 1161 35 2906 2524 1228 678 89 31 421 2090 409 42 22 34 1688 26 25 20 39 29 208 52 1694 35 36 2607 130 792 96 220
internal_value=-8.63134e-12 0.0476401 -0.0522192 0.0293556 -0.0933051 -0.0290535 0.097099 0.09922 0.142575 0.0176191 0.0910345 0.0279427 -0.0548954 0.095342 0.0870778 -0.0105783 -0.129692 -0.235275 0.105272 0.00715124 -0.0430664 0.0531246 0.0112694 0.0229447 -0.015518 -0.0087952 -0.0774904 -0.0622643 -0.0245804 0.000804644
internal_weight=20412 10674 9738 7793 3511 6227 2881 2846 452 5217 2394 153 64 2241 1832 144 71 46 73 3127 237 2576 2890 1729 3321 2643 2466 1238 446 350
internal_count=20412 10674 9738 7793 3511 6227 2881 2846 452 5217 2394 153 64 2241 1832 144 71 46 73 3127 237 2576 2890 1729 3321 2643 2466 1238 446 350
is_linear=0
shrinkage=0.1


Tree=19
num_leaves=31
num_cat=0
split_feature=47 47 47 47 47 47 144 144 144 145 145 144 144 144 144 145 86 15 35 128 46 61 41 92 131 93 2 88 144 144
split_gain=4129.94 1035.15 547.528 241.046 108.487 105.313 95.7997 135.952 86.6124 93.2394 86.1761 114.237 174.747 69.5292 72.4877 72.7767 107.434 97.1908 82.6581 144.3 122.096 82.9014 77.2085 75.4735 196.385 91.2773 70.0988 70.8484 69.4851 103.811
threshold=9.5000000000000018 13.500000000000002 5.5000000000000009 16.500000000000004 11.500000000000002 1.5000000000000002 0.45652173913043487 0.19565217391304349 0.32608695652173919 0.75000000000000011 0.75000000000000011 0.71739130434782616 0.58695652173913049 0.80434782608695665 0.23913043478260873 0.75000000000000011 1.0000000180025095e-35 18.500000000000004 11.500000000000002 6.5000000000000009 11.500000000000002 19.500000000000004 5.5000000000000009 1.5000000000000002 3.5000000000000004 4.5000000000000009 6.5000000000000009 10.500000000000002 0.19565217391304349 0.84782608695652184
decision_type=2 2 2 2 2 2 2 2 2 2 2 2 2 2 2 2 2 2 2 2 2 2 2 2 2 2 2 2 2 2
left_child=2 4 5 13 -2 -1 7 -4 9 -9 11 12 -8 14 -3 16 -16 18 19 20 -18 22 -20 24 -24 -25 -22 -28 -5 -30
right_child=1 3 6 28 -6 -7 10 8 -10 -11 -12 -13 -14 -15 15 -17 17 -19 21 -21 26 -23 23 25 -26 -27 27 -29 29 -31
leaf_value=-0.14088469573181547 -0.0011407294182867159 0.064498906399751588 -0.024254104625058656 0.12147264864934942 0.023889769238687401 -0.086216387791427873 -0.033396046982096854 -0.12582533277818095 -0.052713327698588566 -0.033542097247334139 -0.05397382499629963 -0.040575412449176618 0.041959539370573937 0.079815886134669292 0.21708554230057278 0.062069833939015752 -0.27039140388369559 -0.17596393952629083 0.22889022022485733 0.20375524170696738 -0.20376324451395444 -0.14327184428219442 0.072222127552543369 0.11577931908875938 -0.29917691076795261 0.02250065917510595 0.049466042703306179 -0.14347956793812605 0.065475037921239779 0.12997934233279115
leaf_weight=429 3714 1143 894 711 3244 1973 634 447 796 145 924 1157 598 745 26 519 28 27 20 20 21 27 35 127 24 603 71 26 945 339
leaf_count=429 3714 1143 894 711 3244 1973 634 447 796 145 924 1157 598 745 26 519 28 27 20 20 21 27 35 127 24 603 71 26 945 339
internal_value=1.21326e-10 0.036101 -0.0560452 0.0687066 0.0105291 -0.0959802 -0.0389007 -0.0546672 -0.074256 -0.103222 -0.0280407 -0.0180105 0.00318077 0.0527522 0.0453314 0.0314124 0.0163306 0.0112581 0.016303 -0.0481522 -0.08266 0.0291015 0.0348544 0.0299359 -0.0788554 0.0387286 -0.0381136 -0.00225134 0.096393 0.0825054
internal_weight=20412 12415 7997 5457 6958 2402 5595 2282 1388 592 3313 2389 1232 3462 2717 1574 1055 1029 1002 166 146 836 809 789 59 730 118 97 1995 1284
internal_count=20412 12415 7997 5457 6958 2402 5595 2282 1388 592 3313 2389 1232 3462 2717 1574 1055 1029 1002 166 146 836 809 789 59 730 118 97 1995 1284
is_linear=0
shrinkage=0.1


Tree=20
num_leaves=31
num_cat=0
split_feature=47 47 47 47 47 47 144 144 45 45 24 85 43 145 60 73 71 144 93 102 17 36 87 71 46 26 29 49 144 144
split_gain=3345.25 839.697 449.549 162.806 129.675 129.345 62.4936 66.4056 61.2304 54.5285 60.5698 54.3259 72.6203 69.7196 82.7306 67.183 102.264 153.687 91.3705 74.972 98.3119 85.1877 81.4622 56.8045 51.1927 50.5036 108.988 53.2361 49.3311 84.6075
threshold=9.5000000000000018 14.500000000000002 4.5000000000000009 11.500000000000002 18.500000000000004 7.5000000000000009 0.5434782608695653 0.67391304347826098 2.5000000000000004 7.5000000000000009 7.5000000000000009 3.5000000000000004 8.5000000000000018 0.75000000000000011 19.500000000000004 5.5000000000000009 6.5000000000000009 0.58695652173913049 1.0000000180025095e-35 1.5000000000000002 7.5000000000000009 17.500000000000004 7.5000000000000009 3.5000000000000004 4.5000000000000009 12.500000000000002 12.500000000000002 4.5000000000000009 0.50000000000000011 0.19565217391304349
decision_type=2 2 2 2 2 2 2 2 2 2 2 2 2 2 2 2 2 2 2 2 2 2 2 2 2 2 2 2 2 2
left_child=2 3 6 9 11 24 -1 -8 -7 10 -2 12 -3 14 15 16 19 -18 -17 -13 22 -22 -21 -20 -4 26 27 -25 29 -5
right_child=1 4 5 28 -6 8 7 -9 -10 -11 -12 13 -14 -15 -16 18 17 -19 23 20 21 -23 -24 25 -26 -27 -28 -29 -30 -31
leaf_value=-0.11573557645216118 -0.035919929620239044 0.25254886734485626 -0.0084516561643791545 0.036419272713948035 0.1045780617627718 0.14202288380739364 -0.042423732923430824 -0.10485823971345076 -0.025392388177529736 -0.0040450283776955935 0.081029012298752229 0.10197714723646641 0.079031514656750401 0.080344961584753377 -0.14158753570324431 -0.13539221432680887 -0.0066359741035206567 -0.32236020416021349 0.19992395767877844 -0.2493748584985733 0.056812875264571343 -0.12682094165477262 0.01446813622658903 -0.048009670184304319 -0.056155412054948034 0.07774686157862884 -0.089979241226540246 0.062987257057357818 0.037503845515379143 -0.00086627848038823597
leaf_weight=892 62 25 243 1172 867 22 321 363 3126 3497 155 115 685 695 24 24 58 21 29 25 196 29 22 48 3030 619 61 433 2287 1266
leaf_count=892 62 25 243 1172 867 22 321 363 3126 3497 155 115 685 695 24 24 58 21 29 25 196 29 22 48 3030 619 61 433 2287 1266
internal_value=-5.64533e-11 0.0324909 -0.0504407 0.0146398 0.0703796 -0.0386944 -0.098298 -0.0755578 -0.0242224 -0.00102666 0.047615 0.0608428 0.0851413 0.0536515 0.0427642 0.0453978 0.013121 -0.0905627 0.0577875 0.0342863 0.00566707 0.0331445 -0.125874 0.0616835 -0.0526137 0.0582305 0.0359415 0.0519106 0.0269541 0.0170577
internal_weight=20412 12415 7997 8439 3976 6421 1576 684 3148 3714 217 3109 710 2399 1704 1680 466 79 1214 387 272 225 47 1190 3273 1161 542 481 4725 2438
internal_count=20412 12415 7997 8439 3976 6421 1576 684 3148 3714 217 3109 710 2399 1704 1680 466 79 1214 387 272 225 47 1190 3273 1161 542 481 4725 2438
is_linear=0
shrinkage=0.1


Tree=21
num_leaves=31
num_cat=0
split_feature=47 47 47 47 47 144 144 145 144 145 144 144 22 144 18 1 60 108 45 24 57 144 144 144 74 30 30 85 42 145
split_gain=2721.3 529.317 520.189 120.81 119.499 85.3555 141.211 94.4604 109.596 90.884 115.04 105.756 78.6177 73.6709 85.3891 68.1247 94.9508 253.655 61.4699 60.1526 55.6091 53.8085 57.1992 55.0781 53.733 89.4242 62.5378 76.0664 57.4 53.2139
threshold=10.500000000000002 15.500000000000002 6.5000000000000009 12.500000000000002 2.5000000000000004 0.45652173913043487 0.19565217391304349 0.75000000000000011 0.32608695652173919 0.75000000000000011 0.76086956521739146 0.58695652173913049 3.5000000000000004 0.67391304347826098 15.500000000000002 13.500000000000002 17.500000000000004 3.5000000000000004 9.5000000000000018 10.500000000000002 3.5000000000000004 0.45652173913043487 0.23913043478260873 0.32608695652173919 2.5000000000000004 16.500000000000004 6.5000000000000009 5.5000000000000009 14.500000000000002 0.75000000000000011
decision_type=2 2 2 2 2 2 2 2 2 2 2 2 2 2 2 2 2 2 2 2 2 2 2 2 2 2 2 2 2 2
left_child=2 3 4 18 -1 6 -4 8 -8 10 11 -7 -3 14 19 16 -14 -18 -2 20 -13 22 -6 -24 25 26 27 -5 -27 -23
right_child=1 12 5 24 21 9 7 -9 -10 -11 -12 13 15 -15 -16 -17 17 -19 -20 -21 -22 29 23 -25 -26 28 -28 -29 -30 -31
leaf_value=-0.10627675314181838 0.043197441421602631 -0.077460831446307055 -0.0069226408133746739 0.0063864147608600017 -0.046234065543960881 -0.014047401348379122 -0.10381207722543491 -0.012440366438955446 -0.040852401967110104 -0.034725482681676509 -0.025173679581522557 -0.1057722307741642 0.066761539845540965 0.010276584417499859 -0.090512436556239292 0.093750941042782948 0.077313172110056477 -0.28817754217556546 0.003211843865627121 0.12814400852798966 0.064613817588943107 -0.039472293771021738 -0.13917939846217633 -0.076660734752439119 0.037321773871046293 -0.26032334260642526 0.028941878031501 -0.21777232363820076 -0.02074042521417141 -0.079924168949404031
leaf_weight=691 437 35 1065 41 370 603 505 395 611 1122 1083 21 1721 408 31 1038 59 28 3198 165 218 1344 200 477 3628 20 425 24 20 429
leaf_count=691 437 35 1065 41 370 603 505 395 611 1122 1083 21 1721 408 31 1038 59 28 3198 165 218 1344 200 477 3628 20 425 24 20 429
internal_value=7.74904e-12 0.0348752 -0.0382274 0.0213354 -0.0690074 -0.0208725 -0.0348107 -0.0544671 -0.0693422 -0.0110382 -0.000529205 0.0179286 0.0715 0.0408011 0.069431 0.0733319 0.061609 -0.040316 0.00801892 0.0817039 0.0496427 -0.0598751 -0.0778507 -0.0951301 0.0329768 0.00323458 0.0149706 -0.0763799 -0.140532 -0.0492601
internal_weight=20412 10674 9738 7793 3511 6227 2576 1511 1116 3651 2529 1446 2881 843 435 2846 1808 87 3635 404 239 2820 1047 677 4158 530 490 65 40 1773
internal_count=20412 10674 9738 7793 3511 6227 2576 1511 1116 3651 2529 1446 2881 843 435 2846 1808 87 3635 404 239 2820 1047 677 4158 530 490 65 40 1773
is_linear=0
shrinkage=0.1


Tree=22
num_leaves=31
num_cat=0
split_feature=47 47 47 47 144 144 145 144 89 144 144 145 144 144 144 144 145 71 98 63 18 144 134 5 0 141 47 94 88 100
split_gain=2232.82 562.779 302.907 134.56 72.3154 104.696 118.205 92.8885 71.6116 61.5635 87.0687 66.1307 64.7236 150.626 60.6424 79.0264 79.3167 84.3331 110.499 96.4112 138.152 86.1759 208.948 190.575 115.005 84.4583 79.5375 64.6799 63.9625 59.5132
threshold=9.5000000000000018 13.500000000000002 5.5000000000000009 17.500000000000004 0.50000000000000011 0.19565217391304349 0.75000000000000011 0.32608695652173919 16.500000000000004 0.45652173913043487 0.19565217391304349 0.41666666666666669 0.71739130434782616 0.58695652173913049 0.80434782608695665 0.23913043478260873 0.75000000000000011 6.5000000000000009 2.5000000000000004 9.5000000000000018 8.5000000000000018 0.63043478260869579 1.5000000000000002 11.500000000000002 11.500000000000002 3.5000000000000004 15.500000000000002 3.5000000000000004 3.5000000000000004 3.5000000000000004
decision_type=2 2 2 2 2 2 2 2 2 2 2 2 2 2 2 2 2 2 2 2 2 2 2 2 2 2 2 2 2 2
left_child=2 4 8 14 5 -2 7 -7 -1 10 -4 12 13 -11 15 -3 17 18 -17 20 25 27 23 -23 26 -20 -24 -19 -22 -26
right_child=1 3 9 -5 -6 6 -8 -9 -10 11 -12 -13 -14 -15 -16 16 -18 21 19 -21 28 22 24 -25 29 -27 -28 -29 -30 -31
leaf_value=-0.064627754499802945 0.01700738487240425 0.052956259199162706 -0.01675744696251498 0.078206021170811671 0.017583662494115103 -0.063666586195132269 0.017352683750704919 -0.0094993894653866238 -0.11835006963680383 -0.026378575015764735 -0.056772684659647847 -0.031358360930739577 -0.027258894602293793 0.063666263434382198 0.064807020131968429 0.087367253530503342 0.051250878391392501 0.13019767287664882 -0.053638541698455812 0.075078880448726196 -0.164450502730906 -0.057626484930515288 -0.029349245598067099 -0.49417549207806588 -0.040274904897579782 -0.31916510224342348 -0.22307205978901157 -0.0043230082809263574 0.027264267022707567 0.15223359667385619
leaf_weight=2121 1489 1422 894 1333 3583 619 619 648 281 385 1388 1978 591 359 888 237 599 39 23 103 20 20 67 20 26 25 31 428 134 42
leaf_count=2121 1489 1422 894 1333 3583 619 619 648 281 385 1388 1978 591 359 888 237 599 39 23 103 20 20 67 20 26 25 31 428 134 42
internal_value=6.43512e-11 0.0265445 -0.0412092 0.050586 0.00768933 -0.00281479 -0.0184644 -0.0359631 -0.0709125 -0.0284572 -0.0410963 -0.0197514 -0.00255398 0.0170705 0.0416583 0.035306 0.0214699 0.00678782 0.0361453 -0.00365668 -0.043804 -0.0168552 -0.0707331 -0.275901 -0.021295 -0.191934 -0.0906289 0.00691105 0.00236624 0.0786274
internal_weight=20412 12415 7997 5457 6958 3375 1886 1267 2402 5595 2282 3313 1335 744 4124 3236 1814 1215 542 305 202 673 206 40 166 48 98 467 154 68
internal_count=20412 12415 7997 5457 6958 3375 1886 1267 2402 5595 2282 3313 1335 744 4124 3236 1814 1215 542 305 202 673 206 40 166 48 98 467 154 68
is_linear=0
shrinkage=0.1


Tree=23
num_leaves=31
num_cat=0
split_feature=47 47 47 47 144 144 145 144 145 144 137 22 47 122 144 25 86 27 144 68 90 92 73 30 45 117 22 44 95 9
split_gain=1816.52 496.693 246.273 124.375 69.674 95.0637 75.3132 97.079 66.7138 67.9868 65.5475 61.3554 55.2713 87.2741 177.472 54.8209 65.4818 49.557 55.1843 75.6012 48.1741 48.0316 47.115 78.7295 58.2713 52.1708 45.97 64.7034 61.1632 98.7049
threshold=11.500000000000002 7.5000000000000009 15.500000000000002 4.5000000000000009 0.45652173913043487 0.19565217391304349 0.75000000000000011 0.32608695652173919 0.75000000000000011 0.76086956521739146 5.5000000000000009 3.5000000000000004 19.500000000000004 6.5000000000000009 0.36956521739130438 8.5000000000000018 14.500000000000002 5.5000000000000009 0.23913043478260873 11.500000000000002 12.500000000000002 13.500000000000002 1.5000000000000002 16.500000000000004 6.5000000000000009 3.5000000000000004 7.5000000000000009 9.5000000000000018 2.5000000000000004 16.500000000000004
decision_type=2 2 2 2 2 2 2 2 2 2 2 2 2 2 2 2 2 2 2 2 2 2 2 2 2 2 2 2 2 2
left_child=1 3 20 -1 5 -3 7 -7 9 10 21 -4 17 -14 -15 -12 -17 18 -13 -20 22 -6 23 -2 25 -24 27 -19 29 -28
right_child=2 4 11 -5 8 6 -8 -9 -10 -11 15 12 13 14 -16 16 -18 26 19 -21 -22 -23 24 -25 -26 -27 28 -29 -30 -31
leaf_value=-0.073292549886282185 0.0080368471535458615 0.00054119156899236961 -0.073073664871709687 -0.039099276606579678 0.016842364001264206 -0.080678382072371352 -0.0037239151269431673 -0.022613798715740135 -0.019055814592980364 -0.0083188950137324854 0.0070581040409563485 0.049948284917333156 0.1090705371310528 0.10458810486291584 -0.26343289852142332 0.05161922169257066 0.15653568730448131 0.27162899900050391 -0.1804878410883248 0.036884570401161908 0.0056207263489380984 -0.053431920809756728 0.022788717885586351 -0.15338364787625547 0.029415881035603511 0.22857118988675729 0.027128112958492462 0.084584722065877527 0.059437249180888919 -0.18842335293690365
leaf_weight=1576 358 1271 35 3273 903 543 509 613 1224 1226 159 89 394 38 20 224 81 21 32 32 1278 109 22 33 4101 28 185 155 1856 24
leaf_count=1576 358 1271 35 3273 903 543 509 613 1224 1226 159 89 394 38 20 224 81 21 32 32 1278 109 22 33 4101 28 185 155 1856 24
internal_value=1.36645e-10 -0.0257137 0.0346091 -0.0502126 -0.00840172 -0.0200539 -0.0357754 -0.0498881 0.000312182 0.00908584 0.0235426 0.058521 0.0601393 0.0922112 -0.0223157 0.0546645 0.0794823 0.054084 -0.000979786 -0.0718016 0.0227723 0.0092733 0.0275983 -0.00558688 0.0307241 0.138027 0.0578433 0.106903 0.053662 0.00237579
internal_weight=20412 11711 8701 4849 6862 2936 1665 1156 3926 2702 1476 2881 2846 452 58 464 305 2394 153 64 5820 1012 4542 391 4151 50 2241 176 2065 209
internal_count=20412 11711 8701 4849 6862 2936 1665 1156 3926 2702 1476 2881 2846 452 58 464 305 2394 153 64 5820 1012 4542 391 4151 50 2241 176 2065 209
is_linear=0
shrinkage=0.1


Tree=24
num_leaves=31
num_cat=0
split_feature=47 47 47 25 23 29 109 21 65 46 28 48 25 47 17 29 30 40 44 144 144 46 86 44 44 16 45 20 37 53
split_gain=1493.88 375.489 204.22 73.6949 117.696 91.1215 124.948 89.951 82.1827 80.8897 73.6369 67.8182 108.67 67.6334 65.0686 71.6697 64.6342 57.894 79.5901 103.937 235.171 117.459 108.24 59.8691 49.8182 46.0188 45.7566 45.1591 44.7106 75.8458
threshold=9.5000000000000018 14.500000000000002 4.5000000000000009 10.500000000000002 13.500000000000002 11.500000000000002 6.5000000000000009 10.500000000000002 9.5000000000000018 18.500000000000004 4.5000000000000009 8.5000000000000018 8.5000000000000018 12.500000000000002 15.500000000000002 6.5000000000000009 9.5000000000000018 6.5000000000000009 12.500000000000002 0.63043478260869579 0.67391304347826098 14.500000000000002 9.5000000000000018 10.500000000000002 3.5000000000000004 11.500000000000002 9.5000000000000018 8.5000000000000018 10.500000000000002 18.500000000000004
decision_type=2 2 2 2 2 2 2 2 2 2 2 2 2 2 2 2 2 2 2 2 2 2 2 2 2 2 2 2 2 2
left_child=2 10 -1 4 5 -3 7 11 -6 17 25 12 -7 14 26 -16 24 23 19 -19 -21 -22 -23 -5 -4 -2 28 -18 -12 -30
right_child=1 3 16 9 8 6 -8 -9 -10 -11 13 -13 -14 -15 15 -17 27 18 -20 20 21 22 -24 -25 -26 -27 -28 -29 29 -31
leaf_value=-0.065963295860636192 -0.016264782718748653 0.046885066273182952 0.017291190307587384 0.2310875425284559 -0.22442651525620494 0.013494765141180585 -0.25461208739063962 0.11947390254173014 0.0077474686006704973 0.086714680579025302 0.01089183809992865 0.045554635618278327 -0.23752393810735906 0.024025861102313452 -0.19987832132888878 -0.019667903773076492 0.0056716866320122954 0.13069514174286911 0.049545685118290148 -0.31798661174597564 0.074215939037663783 -0.20675499072441689 0.056654092547698667 0.066534030056600246 -0.038277995979631801 -0.1048714069754515 0.0041884537590485852 -0.02231808333390228 0.069933469697751313 -0.13081637479364872
leaf_weight=1576 336 829 170 33 31 35 22 45 30 640 492 47 34 2918 23 545 767 41 1938 27 92 39 26 67 3164 71 3715 2320 319 20
leaf_count=1576 336 829 170 33 31 35 22 45 30 640 492 47 34 2918 23 545 767 41 1938 27 92 39 26 67 3164 71 3715 2320 319 20
internal_value=2.66323e-11 0.0217123 -0.0337074 0.0470489 0.0246555 0.0327867 -0.0310796 -0.000534805 -0.110243 0.0553258 0.00977506 -0.0470899 -0.110196 0.0118778 0.00494625 -0.0269652 -0.0257904 0.0464487 0.0430096 -0.0132876 -0.0453707 0.00151228 -0.101391 0.120837 -0.0354445 -0.031722 0.00893342 -0.0153637 0.0301459 0.0580898
internal_weight=20412 12415 7997 3976 1073 1012 183 161 61 2903 8439 116 69 8032 5114 568 6421 2263 2163 225 184 157 65 100 3334 407 4546 3087 831 339
internal_count=20412 12415 7997 3976 1073 1012 183 161 61 2903 8439 116 69 8032 5114 568 6421 2263 2163 225 184 157 65 100 3334 407 4546 3087 831 339
is_linear=0
shrinkage=0.1


Tree=25
num_leaves=31
num_cat=0
split_feature=47 47 47 47 31 43 50 47 86 95 7 90 2 91 139 33 43 94 18 78 81 15 47 41 52 74 89 18 65 83
split_gain=1214.43 241.71 234.959 71.9094 52.7996 52.1232 55.7476 51.2229 50.8894 65.9595 125.162 84.4883 55.2424 74.2815 60.2748 145.356 69.9146 91.2476 52.3232 50.7073 55.5427 45.1427 45.0088 44.2227 43.6012 85.2903 51.0904 40.6268 40.2676 49.1516
threshold=10.500000000000002 6.5000000000000009 15.500000000000002 1.5000000000000002 10.500000000000002 1.5000000000000002 1.5000000000000002 12.500000000000002 1.5000000000000002 1.5000000000000002 14.500000000000002 1.5000000000000002 12.500000000000002 1.0000000180025095e-35 5.5000000000000009 17.500000000000004 13.500000000000002 8.5000000000000018 3.5000000000000004 6.5000000000000009 4.5000000000000009 2.5000000000000004 19.500000000000004 9.5000000000000018 11.500000000000002 6.5000000000000009 3.5000000000000004 12.500000000000002 10.500000000000002 13.500000000000002
decision_type=2 2 2 2 2 2 2 2 2 2 2 2 2 2 2 2 2 2 2 2 2 2 2 2 2 2 2 2 2 2
left_child=1 3 7 24 27 6 -5 -2 23 10 11 -10 13 -11 18 16 17 -16 -15 20 -13 -9 -14 -4 26 -26 -1 -3 -20 -30
right_child=2 4 8 5 -6 -7 -8 21 9 12 -12 19 22 14 15 -17 -18 -19 28 -21 -22 -23 -24 -25 25 -27 -28 -29 29 -31
leaf_value=0.013487767647294438 0.0056058090097562989 -0.016303901747260399 0.18595602641764442 0.15792834609746934 -0.0033697493394799598 -0.044272151384580655 -0.0098928468825223229 0.087234681815777024 -0.12909959091080561 -0.11922870090892237 -0.18641744843551092 0.089132154388635448 0.054408179381568458 -0.11410796530544759 -0.2295191509568173 -0.2561599755829031 0.054206939809955661 0.05879339263552711 0.063394302361051244 0.15203547237744167 -0.11599661745131017 0.020196534180443516 0.10776105204071754 0.07136296947782457 0.15193301548826554 -0.074508395702578126 -0.11598946475899037 -0.042783730122811947 0.040132456695191047 -0.051084744692262679
leaf_weight=34 3635 2737 38 23 2755 2917 142 103 27 31 35 33 836 20 23 22 128 21 710 43 22 4055 195 296 21 80 294 735 329 72
leaf_count=34 3635 2737 38 23 2755 2917 142 103 27 31 35 33 836 20 23 22 128 21 710 43 22 4055 195 296 21 80 294 735 329 72
internal_value=1.62016e-10 -0.0255371 0.0232977 -0.0465186 -0.013707 -0.0411792 0.0135004 0.0142768 0.047699 0.0428862 -0.0192709 0.0275302 0.0470526 0.0337875 0.0373675 -0.0141305 0.0168268 -0.0919154 0.0462009 0.0706833 0.00708065 0.0218572 0.0644992 0.0844005 -0.0848774 -0.0274265 -0.102568 -0.0219095 0.0490868 0.0237543
internal_weight=20412 9738 10674 3511 6227 3082 165 7793 2881 2547 160 125 2387 1356 1325 194 172 44 1131 98 55 4158 1031 334 429 101 328 3472 1111 401
internal_count=20412 9738 10674 3511 6227 3082 165 7793 2881 2547 160 125 2387 1356 1325 194 172 44 1131 98 55 4158 1031 334 429 101 328 3472 1111 401
is_linear=0
shrinkage=0.1


Tree=26
num_leaves=31
num_cat=0
split_feature=47 47 47 27 20 32 86 42 40 120 22 86 145 48 34 46 87 144 45 29 47 74 31 116 117 144 43 144 145 144
split_gain=994.868 250.557 140.208 79.0789 104.644 75.6846 59.3199 78.2876 146.482 110.849 95.8266 85.1683 58.2902 71.9904 172.982 52.3336 50.643 48.2885 56.408 78.8662 48.1424 47.8741 75.5792 45.7888 49.8986 45.2888 42.6583 40.2008 55.6394 55.2977
threshold=9.5000000000000018 13.500000000000002 4.5000000000000009 13.500000000000002 18.500000000000004 11.500000000000002 2.5000000000000004 8.5000000000000018 6.5000000000000009 6.5000000000000009 10.500000000000002 10.500000000000002 1.0000000180025095e-35 3.5000000000000004 15.500000000000002 18.500000000000004 6.5000000000000009 0.63043478260869579 13.500000000000002 3.5000000000000004 7.5000000000000009 1.5000000000000002 17.500000000000004 5.5000000000000009 2.5000000000000004 0.32608695652173919 10.500000000000002 0.5434782608695653 0.75000000000000011 0.71739130434782616
decision_type=2 2 2 2 2 2 2 2 2 2 2 2 2 2 2 2 2 2 2 2 2 2 2 2 2 2 2 2 2 2
left_child=2 17 27 4 6 -6 26 8 16 10 -10 -12 13 14 -5 21 -8 18 -2 -20 -4 22 -14 24 -18 -21 -3 -1 29 -29
right_child=1 3 20 12 5 -7 7 -9 9 -11 11 -13 15 -15 -16 -17 23 -19 19 25 -22 -23 -24 -25 -26 -27 -28 28 -30 -31
leaf_value=-0.068219849519377304 0.0022580863114934637 0.13205714311231584 -0.029439421540613922 0.050644678617582511 -0.013156362347877943 -0.19555138149431775 -0.056534859379072017 0.026118195124276475 -0.04175056497807856 0.06579157750714909 -0.40873662040879327 -0.13297744932628813 0.028809631477680897 0.0319974423566999 -0.28805082631111145 0.087922061431570914 0.14600434079766275 0.015201982070090096 -0.18950137649813006 -0.072644637299235912 -0.012118347463277293 0.051547601606314268 -0.19069043082140744 0.19927902998321731 -0.039136749787910569 -0.001016313447193666 0.046873877565419386 0.0061670781239538163 -0.086377276946981274 -0.060881680830275245
leaf_weight=892 3693 68 3273 38 65 35 41 2391 27 22 24 21 62 365 25 400 24 2829 31 130 3148 1334 21 23 37 275 434 317 166 201
leaf_count=892 3693 68 3273 38 65 35 41 2391 27 22 24 21 62 365 25 400 24 2829 31 130 3148 1334 21 23 37 275 434 317 166 201
internal_value=5.00942e-11 0.0177186 -0.0275074 0.0337601 0.0236961 -0.0769946 0.0269316 0.0208767 -0.0363494 -0.13066 -0.190687 -0.280049 0.0481592 0.0149586 -0.0837583 0.0559796 0.0345723 0.00513764 -0.00175798 -0.0357748 -0.0209475 0.0469627 -0.0267265 0.0790412 0.0337056 -0.0240081 0.0584126 -0.0542341 -0.0359954 -0.0198499
internal_weight=20412 12415 7997 5457 3212 100 3112 2610 219 94 72 45 2245 428 63 1817 125 6958 4129 436 6421 1417 83 84 61 405 502 1576 684 518
internal_count=20412 12415 7997 5457 3212 100 3112 2610 219 94 72 45 2245 428 63 1817 125 6958 4129 436 6421 1417 83 84 61 405 502 1576 684 518
is_linear=0
shrinkage=0.1


Tree=27
num_leaves=31
num_cat=0
split_feature=47 47 47 47 44 145 144 144 40 33 8 145 84 18 26 95 137 98 107 34 144 72 144 144 144 145 144 42 144 65
split_gain=815.899 225.716 110.347 65.9028 49.7508 53.6081 53.988 54.665 46.4887 67.6392 79.9303 172.567 45.7502 43.6063 42.6451 74.3957 46.0457 72.9475 63.211 96.8317 44.2551 41.1853 40.3755 64.0447 53.4873 57.3331 95.3099 40.2139 38.8846 38.3834
threshold=11.500000000000002 7.5000000000000009 15.500000000000002 2.5000000000000004 6.5000000000000009 0.41666666666666669 0.67391304347826098 0.5434782608695653 8.5000000000000018 4.5000000000000009 13.500000000000002 0.41666666666666669 7.5000000000000009 15.500000000000002 4.5000000000000009 7.5000000000000009 6.5000000000000009 7.5000000000000009 4.5000000000000009 16.500000000000004 0.58695652173913049 7.5000000000000009 0.45652173913043487 0.19565217391304349 0.71739130434782616 0.75000000000000011 0.58695652173913049 5.5000000000000009 0.89130434782608703 10.500000000000002
decision_type=2 2 2 2 2 2 2 2 2 2 2 2 2 2 2 2 2 2 2 2 2 2 2 2 2 2 2 2 2 2
left_child=1 3 27 8 5 6 7 -3 9 -1 12 -12 -11 -6 15 -4 29 18 19 20 -18 -17 23 -5 25 26 -24 -2 -29 -16
right_child=2 4 14 22 13 -7 -8 -9 -10 10 11 -13 -14 -15 16 21 17 -19 -20 -21 -22 -23 24 -25 -26 -27 -28 28 -30 -31
leaf_value=-0.08892320273397257 0.057308875026870265 0.0055458166204938077 -0.14239683368376324 -0.012685024239195203 -0.0049320356416517278 -0.011477123371635874 0.01548899812255539 0.14560382224448112 -0.10029778597029773 -0.1082461300573937 0.31124289699576124 -0.022860804631804621 -0.0086109394580125825 -0.030037357878556898 0.054237445981647786 -0.085117175142513601 0.077345169049042928 -0.14555581217182095 0.052491329041153646 -0.24279378056526185 -0.084207119246323903 0.084676005467772486 -0.024133566006348244 -0.055670847641457889 -0.037503619910454131 -0.047268644039401952 0.03399982401939828 0.010149928960135009 0.03359017193680388 0.026830654744012541
leaf_weight=199 219 41 35 515 5520 246 177 87 220 73 22 52 125 791 1737 20 39 29 197 20 30 50 634 1060 1139 302 508 4770 831 724
leaf_count=199 219 41 35 515 5520 246 177 87 220 73 22 52 125 791 1737 20 39 29 197 20 30 50 634 1060 1139 302 508 4770 831 724
internal_value=1.56526e-12 -0.0172331 0.0231947 -0.0337483 -0.00556271 0.0232542 0.0512671 0.100741 -0.0623459 -0.0446188 -0.012205 0.0764673 -0.0453451 -0.00807865 0.0392008 -0.0233565 0.041567 0.0055684 0.0208922 -0.049052 0.00710504 0.0361637 -0.0289958 -0.0416152 -0.021301 -0.00852071 0.00172612 0.0152713 0.0136277 0.0461747
internal_weight=20412 11711 8701 4849 6862 551 305 128 691 471 272 74 198 6311 2881 105 2776 315 286 89 69 70 4158 1575 2583 1444 1142 5820 5601 2461
internal_count=20412 11711 8701 4849 6862 551 305 128 691 471 272 74 198 6311 2881 105 2776 315 286 89 69 70 4158 1575 2583 1444 1142 5820 5601 2461
is_linear=0
shrinkage=0.1


Tree=28
num_leaves=31
num_cat=0
split_feature=47 47 47 45 46 22 28 17 25 29 109 21 23 43 59 108 89 22 51 44 115 139 47 19 76 93 25 65 42 144
split_gain=665.908 169.041 95.4581 68.2468 58.4013 97.5764 56.9323 58.6279 52.2724 83.244 183.924 82.4165 73.8257 60.486 55.5379 103.453 48.5345 46.87 53.8984 46.2101 84.8636 70.5867 57.5475 49.7097 43.9279 68.539 42.3501 38.6161 37.4291 35.8073
threshold=9.5000000000000018 14.500000000000002 5.5000000000000009 6.5000000000000009 11.500000000000002 10.500000000000002 9.5000000000000018 15.500000000000002 10.500000000000002 11.500000000000002 6.5000000000000009 10.500000000000002 13.500000000000002 13.500000000000002 19.500000000000004 1.5000000000000002 16.500000000000004 15.500000000000002 10.500000000000002 9.5000000000000018 6.5000000000000009 4.5000000000000009 19.500000000000004 4.5000000000000009 2.5000000000000004 7.5000000000000009 1.5000000000000002 9.5000000000000018 14.500000000000002 0.41304347826086962
decision_type=2 2 2 2 2 2 2 2 2 2 2 2 2 2 2 2 2 2 2 2 2 2 2 2 2 2 2 2 2 2
left_child=2 6 16 -3 5 -5 7 28 9 12 11 13 -6 -11 19 -16 26 -9 -19 20 21 -10 23 -21 -15 -26 -1 -14 -2 -4
right_child=1 3 29 4 8 -7 -8 17 14 10 -12 -13 27 24 15 -17 -18 18 -20 22 -22 -23 -24 -25 25 -27 -28 -29 -30 -31
leaf_value=-0.086168868431243412 0.0024455314521741834 0.21575607746839523 -0.02606334612695161 0.064915984056212683 0.032849084620152506 -0.23291929120367227 0.012215897309184875 -0.019504827853630891 0.17914192736148837 -0.18978199806924051 -0.30653017020473877 0.10162226614923751 -0.1886671282189048 0.07276373996454126 0.070415058266371497 -0.23350751763209701 -0.078232517266427284 -0.19526054956728506 -0.024480626833709804 -0.10442347856095205 0.28937991566601257 -0.080431175976991662 0.076278682558213254 0.034600087316370341 0.057008746898044721 -0.1724381903310617 -0.030177654224181141 -0.0073397574480623014 -0.04060370346564985 -0.0093745441127785194
leaf_weight=145 2345 20 2002 22 808 22 5677 121 20 26 24 47 23 34 24 21 281 42 33 26 21 22 354 2385 23 30 1976 24 221 3593
leaf_count=145 2345 20 2002 22 808 22 5677 121 20 26 24 47 23 34 24 21 281 42 33 26 21 22 354 2385 23 30 1976 24 221 3593
internal_value=-4.1177e-12 0.0144962 -0.0225047 0.0314961 0.0305645 -0.0840017 0.0064868 -0.00528875 0.0318531 0.0126312 -0.0483847 -0.00966289 0.0257621 -0.0559496 0.0388046 -0.0714155 -0.0391794 -0.0580045 -0.120117 0.0405584 0.125243 0.0431751 0.0386289 0.0331009 -0.0159538 -0.0728669 -0.0340054 -0.0960744 -0.00126214 -0.0153461
internal_weight=20412 12415 7997 3976 3956 44 8439 2762 3912 1039 184 160 855 113 2873 45 2402 196 75 2828 63 42 2765 2411 87 53 2121 47 2566 5595
internal_count=20412 12415 7997 3976 3956 44 8439 2762 3912 1039 184 160 855 113 2873 45 2402 196 75 2828 63 42 2765 2411 87 53 2121 47 2566 5595
is_linear=0
shrinkage=0.1


Tree=29
num_leaves=31
num_cat=0
split_feature=47 47 47 47 43 144 37 45 73 29 31 44 38 40 75 26 138 26 43 22 145 139 143 23 90 69 95 44 21 44
split_gain=551.16 150.976 74.8976 49.094 44.7204 64.1883 42.1705 49.3318 41.1672 76.4371 81.0279 78.6641 42.1708 36.7692 62.2014 120.998 40.3579 35.9357 53.1898 83.7606 54.6118 61.6056 44.6375 40.0675 40.9777 48.0184 59.9421 38.1179 36.76 36.3345
threshold=11.500000000000002 7.5000000000000009 16.500000000000004 1.5000000000000002 12.500000000000002 0.32608695652173919 12.500000000000002 5.5000000000000009 1.5000000000000002 3.5000000000000004 16.500000000000004 13.500000000000002 6.5000000000000009 6.5000000000000009 3.5000000000000004 9.5000000000000018 7.5000000000000009 13.500000000000002 9.5000000000000018 11.500000000000002 0.75000000000000011 7.5000000000000009 6.5000000000000009 13.500000000000002 1.5000000000000002 8.5000000000000018 4.5000000000000009 17.500000000000004 15.500000000000002 9.5000000000000018
decision_type=2 2 2 2 2 2 2 2 2 2 2 2 2 2 2 2 2 2 2 2 2 2 2 2 2 2 2 2 2 2
left_child=1 3 8 13 6 -6 -3 -8 9 -2 -11 -12 -10 14 15 -1 -16 23 19 -19 21 27 -23 -14 -25 29 -27 -20 -28 -26
right_child=2 4 -4 -5 5 -7 7 -9 12 10 11 -13 17 -15 16 -17 -18 18 20 -21 -22 22 -24 24 25 26 28 -29 -30 -31
leaf_value=-0.067549847662448884 -0.17367670871317387 -0.0053542123036800721 0.036073959585737884 -0.024536052759751528 -0.09511048819201634 -0.01516659462011612 0.13347298561994519 0.012715898159389356 0.041154047826862272 0.010460387154334141 -0.25419885441660883 -0.013051197823557643 0.011258401302550224 -0.092342048134519655 -0.077595681009779871 0.24120817496017977 0.069693083422524602 0.22284791212472502 0.017010322367852031 0.042285640379574538 0.04985280736665508 -0.20796176869244803 -0.02542366422712803 -0.16317158952355384 0.16018966218456626 -0.18837363368272783 0.023156396251482268 -0.09536594499443328 -0.063377682129955967 0.011178285734107098
leaf_weight=30 28 4907 1995 4420 115 793 35 1012 614 440 24 31 3383 193 163 22 21 33 1147 116 448 21 37 20 20 25 90 31 108 90
leaf_count=30 28 4907 1995 4420 115 793 35 1012 614 440 24 31 3383 193 163 22 21 33 1147 116 448 21 37 20 20 25 90 31 108 90
internal_value=9.81392e-13 -0.0141639 0.0190638 -0.0276708 -0.00461934 -0.0252916 -0.00146676 0.0167527 0.0140033 -0.0129364 -0.00384402 -0.118279 0.016282 -0.0599685 -0.0334935 0.0630785 -0.0607856 0.0135398 0.0250081 0.0822759 0.019941 0.00909921 -0.091515 0.00791315 -0.0241463 -0.0157964 -0.0424666 0.0140531 -0.024044 0.0382713
internal_weight=20412 11711 8701 4849 6862 908 5954 1047 6706 523 495 55 6183 429 236 52 184 5569 1833 149 1684 1236 58 3736 353 333 223 1178 198 110
internal_count=20412 11711 8701 4849 6862 908 5954 1047 6706 523 495 55 6183 429 236 52 184 5569 1833 149 1684 1236 58 3736 353 333 223 1178 198 110
is_linear=0
shrinkage=0.1


Tree=30
num_leaves=31
num_cat=0
split_feature=47 47 86 144 144 145 144 144 25 21 145 96 13 144 42 47 51 71 73 22 46 53 34 44 1 144 47 74 47 33
split_gain=455.861 146.427 60.7734 54.4373 114.367 124.421 99.5788 58.2812 50.9866 62.5776 72.9813 64.1702 73.636 46.9772 76.1469 50.0467 70.661 46.2631 45.8073 45.2442 66.2319 63.3473 44.6722 56.5233 83.2325 78.0543 144.088 68.1371 102.194 56.266
threshold=8.5000000000000018 13.500000000000002 1.5000000000000002 0.5434782608695653 0.67391304347826098 0.75000000000000011 0.58695652173913049 0.19565217391304349 13.500000000000002 14.500000000000002 0.75000000000000011 4.5000000000000009 13.500000000000002 0.32608695652173919 9.5000000000000018 1.0000000180025095e-35 10.500000000000002 8.5000000000000018 10.500000000000002 8.5000000000000018 12.500000000000002 8.5000000000000018 9.5000000000000018 12.500000000000002 15.500000000000002 0.58695652173913049 16.500000000000004 4.5000000000000009 14.500000000000002 11.500000000000002
decision_type=2 2 2 2 2 2 2 2 2 2 2 2 2 2 2 2 2 2 2 2 2 2 2 2 2 2 2 2 2 2
left_child=3 -2 -3 7 5 6 -5 -1 9 22 11 12 -11 14 -9 16 -15 -14 -13 -10 21 -21 -4 24 25 -24 27 28 -27 -29
right_child=1 2 8 4 -6 -7 -8 13 19 10 -12 18 17 15 -16 -17 -18 -19 -20 20 -22 -23 23 -25 -26 26 -28 29 -30 -31
leaf_value=-0.0083197942141214516 0.0019418042726722521 0.054563529415810046 0.034461008681981167 -0.012176419499833484 -0.026656588537711513 -0.049961485760286452 0.05845817714716707 -0.04650101962774484 0.18096854150295261 0.042357354729616069 0.037157526554628499 -0.26874339860677721 -0.0225113879442215 -0.13002288955619043 -0.13865747904680945 -0.02626335010053818 0.068479766087098562 -0.20966852435043881 -0.070893875882029542 -0.21984634201042352 0.032859728248767463 0.0010485521770189391 0.086785970239297433 0.014015671792230445 0.11966890183788154 0.0050421385280787949 -0.25884938385958473 -0.11455847374939671 -0.31463657833635805 0.030491998433017916
leaf_weight=846 8538 546 822 322 2013 240 525 528 20 57 84 25 25 97 108 1716 22 28 22 20 2002 37 34 1488 31 20 36 36 20 104
leaf_count=846 8538 546 822 322 2013 240 525 528 20 57 84 25 25 97 108 1716 22 28 22 20 2002 37 34 1488 31 20 36 36 20 104
internal_value=2.10383e-11 0.0101194 0.0229139 -0.0220696 -0.0125422 0.0135961 0.0316054 -0.0309737 0.0193952 0.010665 -0.0380753 -0.0783273 -0.0365376 -0.0387297 -0.0621502 -0.0306123 -0.0933249 -0.121387 -0.176133 0.0312874 0.0298334 -0.0764584 0.0151985 0.00624781 -0.0348859 -0.0540507 -0.0762195 -0.0396935 -0.154797 -0.00680669
internal_weight=20412 13995 5457 6417 3100 1087 847 3317 4911 2832 241 157 110 2471 636 1835 119 53 47 2079 2059 57 2591 1769 281 250 216 180 40 140
internal_count=20412 13995 5457 6417 3100 1087 847 3317 4911 2832 241 157 110 2471 636 1835 119 53 47 2079 2059 57 2591 1769 281 250 216 180 40 140
is_linear=0
shrinkage=0.1


Tree=31
num_leaves=31
num_cat=0
split_feature=47 47 47 95 17 8 123 3 50 121 43 25 21 19 144 144 144 98 84 1 119 144 73 145 1 40 116 127 52 40
split_gain=373.693 78.7815 72.5905 43.9824 52.8251 60.8693 67.2523 66.3983 40.5416 52.2933 144.847 38.0002 58.9666 52.9636 54.0132 34.9337 64.6509 75.7117 55.9083 53.9824 83.32 88.1003 126.356 248.538 99.6543 105.141 74.5657 74.7873 74.1728 66.0708
threshold=10.500000000000002 5.5000000000000009 15.500000000000002 7.5000000000000009 15.500000000000002 9.5000000000000018 1.5000000000000002 9.5000000000000018 6.5000000000000009 6.5000000000000009 6.5000000000000009 11.500000000000002 9.5000000000000018 12.500000000000002 0.32608695652173919 0.84782608695652184 0.41304347826086962 7.5000000000000009 1.5000000000000002 13.500000000000002 7.5000000000000009 0.71739130434782616 8.5000000000000018 0.75000000000000011 10.500000000000002 16.500000000000004 6.5000000000000009 4.5000000000000009 6.5000000000000009 13.500000000000002
decision_type=2 2 2 2 2 2 2 2 2 2 2 2 2 2 2 2 2 2 2 2 2 2 2 2 2 2 2 2 2 2
left_child=1 3 -2 4 5 -1 7 -7 9 -8 -11 13 -13 -3 -15 16 -4 18 -18 20 21 22 24 -24 29 28 27 -21 -26 -20
right_child=2 11 15 -5 -6 6 8 -9 -10 10 -12 12 -14 14 -16 -17 17 -19 19 26 -22 -23 23 -25 25 -27 -28 -29 -30 -31
leaf_value=-0.032347089355606241 0.0079095360130539381 -0.0099183284804232746 0.032750314710325697 -0.043461564365453842 -0.061973162963099432 0.2437002541666681 0.0038046998330033745 0.047534916629083462 -0.029588588669347313 -0.033062328495085246 0.32799446880817418 0.04158663526029107 -0.004809095596974438 -0.10342613973355452 -0.027496896980470129 0.050992102628190865 0.13176724396039252 -0.14204948737814621 0.14482465123927052 0.047075345641688304 -0.21869890242815018 0.051381625489403428 -0.35412775926730217 0.0041041156794461939 -0.076820039181482225 0.019799357973970474 0.1857226340040084 -0.13546808505499805 -0.34590503424406055 0.0017285699040190249
leaf_weight=481 7793 4190 1635 1197 210 22 143 80 224 25 20 314 2147 112 573 484 33 37 44 133 20 156 34 45 21 40 31 27 20 121
leaf_count=481 7793 4190 1635 1197 210 22 143 80 224 25 20 314 2147 112 573 484 33 37 44 133 20 156 34 45 21 40 31 27 20 121
internal_value=4.33862e-11 -0.0141659 0.0129237 -0.0298847 -0.016398 -0.00677909 0.0171474 0.0898451 -0.000850584 0.0333904 0.127407 -0.00901911 0.00111055 -0.0141328 -0.0399116 0.0264867 0.0215386 -0.00251803 0.00460289 -0.00146131 -0.0187066 -0.0103909 -0.0400417 -0.150072 -0.00470693 -0.0955475 0.0437737 0.0162711 -0.208081 0.0398875
internal_weight=20412 9738 10674 2402 1205 995 514 102 412 188 45 7336 2461 4875 685 2881 2397 762 725 692 501 481 325 79 246 81 191 160 41 165
internal_count=20412 9738 10674 2402 1205 995 514 102 412 188 45 7336 2461 4875 685 2881 2397 762 725 692 501 481 325 79 246 81 191 160 41 165
is_linear=0
shrinkage=0.1


Tree=32
num_leaves=31
num_cat=0
split_feature=47 47 86 25 53 144 144 144 145 145 144 144 21 144 45 91 71 144 90 9 22 75 126 62 24 48 62 126 23 48
split_gain=309.656 98.8157 45.0694 43.8289 40.2972 46.6591 44.4707 44.8788 40.7542 39.8503 57.8065 105.602 74.4798 84.1914 120.282 118.066 150.897 221.24 119.801 87.1683 87.0658 80.7715 121.576 106.671 66.2371 56.6167 133.072 59.1772 55.3549 60.2136
threshold=8.5000000000000018 13.500000000000002 1.5000000000000002 1.5000000000000002 4.5000000000000009 0.5434782608695653 0.23913043478260873 0.32608695652173919 0.75000000000000011 0.75000000000000011 0.19565217391304349 0.80434782608695665 19.500000000000004 0.63043478260869579 10.500000000000002 12.500000000000002 7.5000000000000009 0.71739130434782616 8.5000000000000018 11.500000000000002 9.5000000000000018 4.5000000000000009 2.5000000000000004 10.500000000000002 12.500000000000002 8.5000000000000018 12.500000000000002 6.5000000000000009 16.500000000000004 4.5000000000000009
decision_type=2 2 2 2 2 2 2 2 2 2 2 2 2 2 2 2 2 2 2 2 2 2 2 2 2 2 2 2 2 2
left_child=3 4 -3 -1 -2 6 -6 8 -8 10 -4 12 13 14 -12 16 21 18 -18 -16 -17 22 -15 -24 -19 27 -27 28 29 -23
right_child=1 2 9 -5 5 -7 7 -9 -10 -11 11 -13 -14 15 19 20 17 24 -20 -21 -22 25 23 -25 -26 26 -28 -29 -30 -31
leaf_value=-0.057546715905058214 -0.0098762858300893812 0.046106212042631788 0.028975359357259523 -0.016453940204320901 0.0086010794693222713 0.013885003292471941 -0.060237162311307414 -0.0041297099201606131 0.0080248267084610577 0.029676595939128775 0.20348430226246517 0.032982737334901764 -0.14944569518168768 0.026007977631789719 -0.030936653677790617 0.25499473412831625 -0.14656181101288115 -0.10617762584148385 -0.39706741356423925 0.026575330122763387 -0.0039792196934714036 -0.088599020302295689 -0.32116885284582775 -0.023020119667053224 0.081119655498436527 -0.21723798569934122 0.091262803171519885 0.19331492198010286 0.15765164295832318 0.068204055658619242
leaf_weight=271 2246 546 1093 6146 1520 3316 330 1007 119 1459 30 723 39 44 483 21 42 41 35 580 34 50 30 20 35 29 27 24 24 48
leaf_count=271 2246 546 1093 6146 1520 3316 330 1007 119 1459 30 723 39 44 483 21 42 41 35 580 34 50 30 20 35 29 27 24 24 48
internal_value=5.01519e-11 0.0083402 0.0188508 -0.0181894 0.00162242 0.00572702 -0.003363 -0.015853 -0.0421455 0.0158206 0.00996428 0.00115584 -0.0129095 -0.00957515 0.0060163 -0.0433876 -0.0603272 -0.140961 -0.260428 0.000443356 0.0949017 -0.0186482 -0.0952246 -0.201909 -0.0199223 0.0169863 -0.0684965 0.0497743 0.0215367 -0.0117975
internal_weight=20412 13995 5457 6417 8538 6292 2976 1456 449 4911 3452 2359 1636 1597 1093 504 449 153 77 1063 55 296 94 50 76 202 56 146 122 98
internal_count=20412 13995 5457 6417 8538 6292 2976 1456 449 4911 3452 2359 1636 1597 1093 504 449 153 77 1063 55 296 94 50 76 202 56 146 122 98
is_linear=0
shrinkage=0.1


Tree=33
num_leaves=31
num_cat=0
split_feature=47 47 45 25 26 23 85 145 21 36 5 95 39 38 48 113 31 0 36 47 25 92 99 24 43 85 43 88 22 36
split_gain=255.765 74.2522 51.3188 49.9824 52.0959 37.5448 43.263 44.9702 56.8894 40.2492 42.3041 76.7019 46.7522 39.0694 69.6283 69.8282 105.688 43.9467 38.5708 37.3929 37.1431 36.5784 34.3766 34.3637 32.6483 56.7817 32.2914 53.8354 52.8054 31.9741
threshold=11.500000000000002 6.5000000000000009 5.5000000000000009 13.500000000000002 9.5000000000000018 13.500000000000002 17.500000000000004 0.75000000000000011 18.500000000000004 16.500000000000004 14.500000000000002 4.5000000000000009 8.5000000000000018 18.500000000000004 2.5000000000000004 2.5000000000000004 15.500000000000002 6.5000000000000009 19.500000000000004 19.500000000000004 3.5000000000000004 6.5000000000000009 1.0000000180025095e-35 9.5000000000000018 6.5000000000000009 18.500000000000004 9.5000000000000018 1.5000000000000002 11.500000000000002 15.500000000000002
decision_type=2 2 2 2 2 2 2 2 2 2 2 2 2 2 2 2 2 2 2 2 2 2 2 2 2 2 2 2 2 2
left_child=1 21 -2 5 -5 13 7 8 9 10 11 -7 -12 -4 18 17 23 -16 -15 26 -3 22 -1 -17 25 -22 27 -6 -29 -26
right_child=2 20 3 4 19 6 -8 -9 -10 -11 12 -13 -14 14 15 16 -18 -19 -20 -21 24 -23 -24 -25 29 -27 -28 28 -30 -31
leaf_value=0.037637186700262004 0.12071012033318931 -0.034637611979749482 0.010924119943137398 -0.11086907561483056 -0.066101374322998105 -0.20867811077939613 0.093653408183405798 0.021829522741353958 -0.19362469026102469 0.072563805906423209 0.12860779476662476 -0.04242879047524184 -0.063214314370243649 -0.026195922680199147 -0.106717446890588 -0.11634279954630662 -0.29577301608828399 0.050166318343396778 0.14857598138707026 0.058847975031563526 0.0089524868624576218 -0.030208896374747243 -0.014563213323754241 0.041921935910763951 -0.0076876050529685915 0.12521711761470547 0.017432909892374334 0.1906862794501441 0.052417704132421097 0.014827170680602356
leaf_weight=140 44 388 4892 29 29 35 30 114 26 29 24 134 27 23 26 34 26 57 28 277 927 2095 1276 23 6138 44 2628 35 131 703
leaf_count=140 44 388 4892 29 29 35 30 114 26 29 24 134 27 23 26 34 26 57 28 277 927 2095 1276 23 6138 44 2628 35 131 703
internal_value=1.56535e-11 -0.00964862 0.0129864 0.0124389 0.0225386 0.00672225 -0.0220552 -0.0309787 -0.0528701 -0.0381729 -0.05277 -0.0768591 0.0270549 0.00908234 -0.0324383 -0.0638357 -0.128693 0.00102201 0.0697573 0.0237866 -0.00443828 -0.0218175 -0.00940216 -0.0524816 -0.00293837 0.0142209 0.0203463 0.0596092 0.0815707 -0.00537392
internal_weight=20412 11711 8701 8657 3129 5528 419 389 275 249 220 169 51 5109 217 166 83 83 51 3100 8200 3511 1416 57 7812 971 2823 195 166 6841
internal_count=20412 11711 8701 8657 3129 5528 419 389 275 249 220 169 51 5109 217 166 83 83 51 3100 8200 3511 1416 57 7812 971 2823 195 166 6841
is_linear=0
shrinkage=0.1


Tree=34
num_leaves=31
num_cat=0
split_feature=47 47 67 86 40 36 43 37 141 143 68 66 29 43 1 123 82 0 74 18 42 145 92 141 38 31 94 144 66 18
